################################################################################
# Neural network connection values (weights and biases).
################################################################################
# Col  Name       Description
################################################################################
# 1    connection Neural network connection value.
# 2    t          Connection type (a = weight, b = bias).
# 3    index      Index enumerating weights.
# 4    l_s        Starting point layer (end point layer for biases).
# 5    n_s        Starting point neuron in starting layer (end point neuron for biases).
# 6    l_e        End point layer.
# 7    n_e        End point neuron in end layer.
################################################################################
#                      1 2         3     4     5     6     7
#             connection t     index   l_s   n_s   l_e   n_e
############################################################
  9.2259326130818400E-02 a         1     0     1     1     1
  2.0300237186631101E-01 a         2     0     1     1     2
 -1.1590349920101762E-02 a         3     0     1     1     3
 -9.4012401668619433E-02 a         4     0     1     1     4
 -7.8703112798655522E-02 a         5     0     1     1     5
 -6.2816226760650795E-02 a         6     0     1     1     6
 -1.1081174113376585E-01 a         7     0     1     1     7
 -8.8806564708385050E-02 a         8     0     1     1     8
  8.7491961188456993E-02 a         9     0     1     1     9
 -1.9432265750070107E-02 a        10     0     1     1    10
  6.5932487597902212E-02 a        11     0     1     1    11
  7.1587777118636176E-02 a        12     0     1     1    12
  4.5698808901179375E-02 a        13     0     1     1    13
 -1.0014028814788080E-02 a        14     0     1     1    14
 -1.4884586253854977E-02 a        15     0     1     1    15
 -2.1797802995767665E-01 a        16     0     1     1    16
  2.4365796335714246E-01 a        17     0     1     1    17
  3.2669919909117918E-02 a        18     0     1     1    18
 -1.5431631601346990E-01 a        19     0     1     1    19
 -3.4389403479248827E-02 a        20     0     1     1    20
  2.9111162553113541E-02 a        21     0     1     1    21
  9.0234122441094772E-02 a        22     0     1     1    22
 -7.5855422259121938E-02 a        23     0     1     1    23
 -1.0859625025897278E-01 a        24     0     1     1    24
 -1.3274049781107189E-01 a        25     0     2     1     1
 -2.1760341372175484E-02 a        26     0     2     1     2
  2.5588095548362239E-01 a        27     0     2     1     3
 -2.7500185819254941E-01 a        28     0     2     1     4
 -4.2312657635329258E-02 a        29     0     2     1     5
  1.7197617000090212E-01 a        30     0     2     1     6
 -7.5161497219851658E-02 a        31     0     2     1     7
 -3.3303658057849211E-02 a        32     0     2     1     8
  2.3808264813073335E-01 a        33     0     2     1     9
 -5.3251162977345230E-02 a        34     0     2     1    10
  2.2253530240623495E-01 a        35     0     2     1    11
 -5.9636391318901531E-03 a        36     0     2     1    12
  7.4104018935071098E-02 a        37     0     2     1    13
  8.0164916695980984E-02 a        38     0     2     1    14
  3.2481831121682264E-01 a        39     0     2     1    15
  2.4647954771727668E-01 a        40     0     2     1    16
  2.4481435953844136E-01 a        41     0     2     1    17
 -5.3861444502521463E-02 a        42     0     2     1    18
 -1.3445709720469825E-02 a        43     0     2     1    19
 -3.3958944824913045E-01 a        44     0     2     1    20
  1.7707012429820637E-01 a        45     0     2     1    21
 -1.3888673445717653E-01 a        46     0     2     1    22
 -1.2234316984731297E-01 a        47     0     2     1    23
 -1.8880037467693297E-01 a        48     0     2     1    24
 -8.9941192816016206E-03 a        49     0     3     1     1
 -1.1696554928435977E-01 a        50     0     3     1     2
 -1.8421911849365472E-01 a        51     0     3     1     3
 -5.2666083995928065E-02 a        52     0     3     1     4
 -1.1140847229723710E-01 a        53     0     3     1     5
 -1.2236912414565340E-01 a        54     0     3     1     6
  2.3530405785657953E-02 a        55     0     3     1     7
 -2.6893121040553771E-02 a        56     0     3     1     8
 -8.3594069296909809E-02 a        57     0     3     1     9
 -7.9415117937650562E-02 a        58     0     3     1    10
  1.6262083309262201E-01 a        59     0     3     1    11
  6.8168765787354216E-02 a        60     0     3     1    12
 -2.0643253315159427E-01 a        61     0     3     1    13
 -1.6269981930220423E-01 a        62     0     3     1    14
 -5.9995299054357402E-02 a        63     0     3     1    15
 -2.6490143935631132E-02 a        64     0     3     1    16
 -7.0755667225210192E-02 a        65     0     3     1    17
  7.3547530746754908E-02 a        66     0     3     1    18
  6.1924608572813136E-02 a        67     0     3     1    19
 -3.8994495502272596E-02 a        68     0     3     1    20
  7.5548204992527651E-02 a        69     0     3     1    21
 -7.3111679117325468E-02 a        70     0     3     1    22
 -2.9487939093706117E-02 a        71     0     3     1    23
 -3.4739863935528574E-02 a        72     0     3     1    24
 -8.9002799514996359E-02 a        73     0     4     1     1
 -1.5959493586746343E-01 a        74     0     4     1     2
 -1.4696122111493404E-01 a        75     0     4     1     3
  1.6207615663671446E-01 a        76     0     4     1     4
  1.1251589337234481E-01 a        77     0     4     1     5
 -3.1967227313532492E-02 a        78     0     4     1     6
 -1.8017478567374911E-03 a        79     0     4     1     7
  9.1942328260655432E-02 a        80     0     4     1     8
 -2.7354103237811378E-01 a        81     0     4     1     9
  4.9832925917080911E-02 a        82     0     4     1    10
 -1.4900539789068140E-01 a        83     0     4     1    11
  2.9708490043283072E-02 a        84     0     4     1    12
 -7.3966001011748966E-02 a        85     0     4     1    13
  1.3603782155549976E-02 a        86     0     4     1    14
 -2.7410841333769614E-01 a        87     0     4     1    15
 -1.9092533113128049E-01 a        88     0     4     1    16
 -1.8026510319168002E-01 a        89     0     4     1    17
  5.8132419231009681E-02 a        90     0     4     1    18
 -6.2566690861172031E-02 a        91     0     4     1    19
  5.5862397366524659E-02 a        92     0     4     1    20
 -6.2963927155186283E-02 a        93     0     4     1    21
  3.7731607724963406E-01 a        94     0     4     1    22
 -2.9824558920450626E-02 a        95     0     4     1    23
  9.4240398443785289E-02 a        96     0     4     1    24
  1.8974186993740771E-01 a        97     0     5     1     1
 -1.5374622767714013E-01 a        98     0     5     1     2
 -8.9526225167697773E-02 a        99     0     5     1     3
  8.8650514059698551E-02 a       100     0     5     1     4
 -3.8365345893560290E-02 a       101     0     5     1     5
 -8.1125242269527720E-02 a       102     0     5     1     6
 -3.2045937644437264E-02 a       103     0     5     1     7
 -4.3984324586231242E-02 a       104     0     5     1     8
  1.8800588994286685E-01 a       105     0     5     1     9
  5.8249153534207808E-02 a       106     0     5     1    10
  2.3889804771247754E-02 a       107     0     5     1    11
 -4.6479000644921470E-02 a       108     0     5     1    12
 -1.0844557591423047E-01 a       109     0     5     1    13
  1.3170510001124930E-01 a       110     0     5     1    14
  1.3092912282724126E-01 a       111     0     5     1    15
 -4.7273565759580527E-01 a       112     0     5     1    16
 -1.2344475584705239E-01 a       113     0     5     1    17
 -2.5785802224621807E-01 a       114     0     5     1    18
  1.2932626366270975E-01 a       115     0     5     1    19
  1.6741130643817512E-01 a       116     0     5     1    20
 -1.1076690591644689E-01 a       117     0     5     1    21
  1.0232371231122479E-01 a       118     0     5     1    22
 -6.6167066860338852E-02 a       119     0     5     1    23
  1.3183499831352258E-01 a       120     0     5     1    24
  5.9436873938641371E-03 a       121     0     6     1     1
  1.0946437383689387E-02 a       122     0     6     1     2
  1.1838913363310710E-01 a       123     0     6     1     3
  1.1699412644397961E-01 a       124     0     6     1     4
 -1.0096318818305673E-02 a       125     0     6     1     5
 -1.9653000111916963E-01 a       126     0     6     1     6
 -4.6676388965633020E-01 a       127     0     6     1     7
 -1.3910264896646188E-01 a       128     0     6     1     8
 -6.7405232311587807E-02 a       129     0     6     1     9
 -2.4023957039230179E-01 a       130     0     6     1    10
 -2.1213567801354047E-01 a       131     0     6     1    11
 -2.5760594006485849E-01 a       132     0     6     1    12
  4.5215608236335657E-02 a       133     0     6     1    13
 -1.6190303143734824E-01 a       134     0     6     1    14
  1.3187106453460692E-01 a       135     0     6     1    15
 -3.9257321694913618E-02 a       136     0     6     1    16
 -3.6343786763678262E-02 a       137     0     6     1    17
 -9.0403544898917526E-03 a       138     0     6     1    18
  6.4557596096894276E-03 a       139     0     6     1    19
 -2.6642046697311894E-01 a       140     0     6     1    20
 -4.1524030102226876E-02 a       141     0     6     1    21
  9.8185835868619828E-02 a       142     0     6     1    22
  1.5958005692256080E-01 a       143     0     6     1    23
  3.3474566351325108E-01 a       144     0     6     1    24
  1.0889126099982274E-01 a       145     0     7     1     1
  8.3929188887232761E-02 a       146     0     7     1     2
  1.6336770312787283E-01 a       147     0     7     1     3
  4.4237060759195493E-02 a       148     0     7     1     4
  9.1438518793644591E-02 a       149     0     7     1     5
  7.4990040347815493E-02 a       150     0     7     1     6
  1.7708316566898325E-02 a       151     0     7     1     7
 -7.6291487928613747E-02 a       152     0     7     1     8
 -1.0012893079870325E-01 a       153     0     7     1     9
  6.7453792511034723E-03 a       154     0     7     1    10
 -1.7491041246829503E-01 a       155     0     7     1    11
 -8.2856910014859793E-03 a       156     0     7     1    12
 -2.2369183448259937E-02 a       157     0     7     1    13
 -1.0861117659582553E-01 a       158     0     7     1    14
 -2.4127872501051500E-01 a       159     0     7     1    15
 -1.6743255833578322E-01 a       160     0     7     1    16
 -1.7339662403216907E-01 a       161     0     7     1    17
 -1.3245441118781823E-01 a       162     0     7     1    18
 -9.7924802024380656E-02 a       163     0     7     1    19
 -6.5996707161154336E-03 a       164     0     7     1    20
 -1.2424996722035387E-02 a       165     0     7     1    21
 -1.3067298080433432E-01 a       166     0     7     1    22
  1.6251281517297633E-01 a       167     0     7     1    23
 -1.2695798276935033E-01 a       168     0     7     1    24
  1.0459541976741750E-01 a       169     0     8     1     1
  9.2841167571684965E-03 a       170     0     8     1     2
 -2.0215309437133608E-02 a       171     0     8     1     3
  2.1399117267755130E-01 a       172     0     8     1     4
  1.1761954394578925E-01 a       173     0     8     1     5
  1.8749964684409176E-02 a       174     0     8     1     6
  1.0661831400436088E-01 a       175     0     8     1     7
  3.4838920544280748E-02 a       176     0     8     1     8
 -6.9275010107521712E-02 a       177     0     8     1     9
  6.5511496182742657E-02 a       178     0     8     1    10
 -1.4246619969655691E-01 a       179     0     8     1    11
 -1.2808026299429287E-01 a       180     0     8     1    12
  2.6793678065197770E-03 a       181     0     8     1    13
 -8.9066086382458221E-02 a       182     0     8     1    14
 -2.3426552192059736E-02 a       183     0     8     1    15
  1.4321920288755929E-01 a       184     0     8     1    16
 -3.1064086243022662E-02 a       185     0     8     1    17
 -2.0730683293660301E-01 a       186     0     8     1    18
  1.4420560783043690E-01 a       187     0     8     1    19
 -1.6828453035416152E-01 a       188     0     8     1    20
  5.0853715463112049E-02 a       189     0     8     1    21
  7.3817029181012083E-03 a       190     0     8     1    22
 -8.3780538809255831E-02 a       191     0     8     1    23
  1.7838371410788492E-01 a       192     0     8     1    24
 -1.6380482689916287E-01 a       193     0     9     1     1
 -9.3990240468941236E-02 a       194     0     9     1     2
  8.3676580006178461E-02 a       195     0     9     1     3
  2.2668043026140075E-02 a       196     0     9     1     4
  3.7037867441894391E-02 a       197     0     9     1     5
 -1.2067907329446510E-01 a       198     0     9     1     6
  1.0596064551339376E-01 a       199     0     9     1     7
  1.4210314007253574E-01 a       200     0     9     1     8
 -1.2253707799419600E-01 a       201     0     9     1     9
  1.8391107442684913E-02 a       202     0     9     1    10
 -3.4668175314870896E-02 a       203     0     9     1    11
  2.2561981196541910E-02 a       204     0     9     1    12
 -2.1131087444698979E-01 a       205     0     9     1    13
 -4.4430175039850736E-02 a       206     0     9     1    14
  6.4022549074678331E-02 a       207     0     9     1    15
  6.8998653339827659E-02 a       208     0     9     1    16
  2.7372604272121476E-01 a       209     0     9     1    17
 -3.0602469272400568E-02 a       210     0     9     1    18
 -1.0882922704693963E-01 a       211     0     9     1    19
 -2.2196751206712526E-01 a       212     0     9     1    20
  1.4760270944945447E-01 a       213     0     9     1    21
 -2.3600461751695251E-02 a       214     0     9     1    22
 -1.5709027620569363E-01 a       215     0     9     1    23
 -1.1007849186736808E-01 a       216     0     9     1    24
  6.1026174316153904E-02 a       217     0    10     1     1
  7.9413820052032791E-02 a       218     0    10     1     2
 -1.0051021142747769E-01 a       219     0    10     1     3
 -9.1849032601519387E-02 a       220     0    10     1     4
  7.7276069688960503E-02 a       221     0    10     1     5
 -6.6729809937370793E-02 a       222     0    10     1     6
 -1.8259005641968487E-02 a       223     0    10     1     7
  8.0788406111784963E-02 a       224     0    10     1     8
 -1.3995248676078292E-01 a       225     0    10     1     9
 -1.2666177779609941E-01 a       226     0    10     1    10
  1.6596758869980216E-01 a       227     0    10     1    11
  7.6191837956050890E-02 a       228     0    10     1    12
  7.5606021489890263E-02 a       229     0    10     1    13
 -5.0493001247436928E-02 a       230     0    10     1    14
 -7.6741526117021980E-02 a       231     0    10     1    15
  1.3165501112467004E-01 a       232     0    10     1    16
  4.3628105374132975E-02 a       233     0    10     1    17
 -6.7206467783701901E-02 a       234     0    10     1    18
 -1.6341414609671090E-02 a       235     0    10     1    19
  3.9625362898709576E-02 a       236     0    10     1    20
  1.7993282383624851E-01 a       237     0    10     1    21
  5.6233452282267379E-02 a       238     0    10     1    22
  6.4958203001760931E-02 a       239     0    10     1    23
 -1.4549181987777734E-02 a       240     0    10     1    24
 -5.6155474215049871E-02 a       241     0    11     1     1
  3.0290792480274841E-02 a       242     0    11     1     2
 -1.7685659453904440E-01 a       243     0    11     1     3
 -1.3580097444985806E-01 a       244     0    11     1     4
 -4.2085919454321469E-02 a       245     0    11     1     5
 -1.7633180523874006E-01 a       246     0    11     1     6
  2.3303526730352933E-01 a       247     0    11     1     7
  2.0617044433201870E-01 a       248     0    11     1     8
 -1.1181015626852002E-01 a       249     0    11     1     9
  1.2966502252788417E-01 a       250     0    11     1    10
  3.2665985708892481E-01 a       251     0    11     1    11
  4.2457241489809918E-03 a       252     0    11     1    12
  8.5758822731526560E-02 a       253     0    11     1    13
  2.0029717394223662E-01 a       254     0    11     1    14
 -5.4557359250317197E-02 a       255     0    11     1    15
 -2.7118711827541889E-02 a       256     0    11     1    16
  1.2035578477828451E-01 a       257     0    11     1    17
  1.4202757578974554E-01 a       258     0    11     1    18
  1.5647904334407714E-01 a       259     0    11     1    19
  6.4409896387030874E-02 a       260     0    11     1    20
 -8.8642213709221540E-02 a       261     0    11     1    21
 -1.3336012050974339E-02 a       262     0    11     1    22
 -1.9969676975898823E-01 a       263     0    11     1    23
 -7.1464207363908988E-02 a       264     0    11     1    24
 -8.8504388101338510E-03 a       265     0    12     1     1
 -8.5298415770833774E-02 a       266     0    12     1     2
  1.1867395395484022E-01 a       267     0    12     1     3
  4.5923848652272829E-02 a       268     0    12     1     4
 -2.6639512596387436E-03 a       269     0    12     1     5
  7.2801039352925478E-02 a       270     0    12     1     6
 -3.5736622694538756E-02 a       271     0    12     1     7
  6.5951708594768982E-02 a       272     0    12     1     8
 -1.5396146869549121E-01 a       273     0    12     1     9
  6.0786385242853271E-02 a       274     0    12     1    10
 -7.6422740104564971E-02 a       275     0    12     1    11
  6.7837513451253703E-02 a       276     0    12     1    12
 -4.9254029742580349E-02 a       277     0    12     1    13
 -3.0468817205114856E-04 a       278     0    12     1    14
 -1.0024960502688640E-01 a       279     0    12     1    15
  4.9161586185250093E-02 a       280     0    12     1    16
  8.4609885213496067E-03 a       281     0    12     1    17
 -1.5276071623346160E-02 a       282     0    12     1    18
 -5.3661114422251181E-02 a       283     0    12     1    19
 -7.8899491709061007E-02 a       284     0    12     1    20
 -4.2171345012972379E-02 a       285     0    12     1    21
  1.8794070242469249E-01 a       286     0    12     1    22
  3.3895242028296559E-02 a       287     0    12     1    23
 -1.3319986177576694E-02 a       288     0    12     1    24
  4.0085239723702711E-02 a       289     0    13     1     1
  2.5403818688033746E-02 a       290     0    13     1     2
  5.9177141756209035E-02 a       291     0    13     1     3
  3.4412015349933743E-03 a       292     0    13     1     4
 -6.7873042130342426E-02 a       293     0    13     1     5
  5.0302577203338944E-02 a       294     0    13     1     6
  9.5199859902976545E-03 a       295     0    13     1     7
 -6.7536388123591334E-02 a       296     0    13     1     8
  8.9761366121897303E-03 a       297     0    13     1     9
  5.8748013309693056E-03 a       298     0    13     1    10
 -6.8969398225756956E-02 a       299     0    13     1    11
  6.1459103636122524E-02 a       300     0    13     1    12
  3.5194307844687335E-02 a       301     0    13     1    13
 -6.8998365179983310E-04 a       302     0    13     1    14
  8.0176433267658012E-02 a       303     0    13     1    15
  4.0378482133461839E-02 a       304     0    13     1    16
  2.6728583543350851E-02 a       305     0    13     1    17
  6.4819401399106608E-02 a       306     0    13     1    18
  4.9308288057983588E-04 a       307     0    13     1    19
  7.3615841821445607E-02 a       308     0    13     1    20
 -2.5514628830093956E-02 a       309     0    13     1    21
 -9.1525693018684087E-02 a       310     0    13     1    22
 -1.4292420390832351E-02 a       311     0    13     1    23
  2.9831442186967302E-02 a       312     0    13     1    24
 -8.1556023654091592E-02 a       313     0    14     1     1
  5.2600518639641478E-02 a       314     0    14     1     2
 -4.0382398157394563E-02 a       315     0    14     1     3
  6.4101495520084248E-02 a       316     0    14     1     4
 -9.0657888405063364E-02 a       317     0    14     1     5
  2.4790025657874498E-01 a       318     0    14     1     6
  5.5361906774292223E-02 a       319     0    14     1     7
  5.7757156000153770E-02 a       320     0    14     1     8
 -1.6017938553190167E-01 a       321     0    14     1     9
 -6.7315268815582183E-02 a       322     0    14     1    10
  9.2291279909672758E-02 a       323     0    14     1    11
  1.3587364309327354E-01 a       324     0    14     1    12
  1.1069251068084006E-01 a       325     0    14     1    13
 -2.1296468008108006E-02 a       326     0    14     1    14
 -1.4091193787718656E-01 a       327     0    14     1    15
 -6.2747842219380415E-02 a       328     0    14     1    16
  9.7459989863627847E-02 a       329     0    14     1    17
  1.9475874731742011E-02 a       330     0    14     1    18
 -1.3214222661850170E-01 a       331     0    14     1    19
 -1.0174250776378740E-01 a       332     0    14     1    20
 -9.2444895498060998E-03 a       333     0    14     1    21
 -9.0012551145412706E-02 a       334     0    14     1    22
 -3.6797715532799563E-02 a       335     0    14     1    23
 -3.2455585241394858E-02 a       336     0    14     1    24
  9.4631603165531694E-02 a       337     0    15     1     1
  2.8189947981740914E-02 a       338     0    15     1     2
  1.0878952951262540E-01 a       339     0    15     1     3
 -5.7210140577437993E-03 a       340     0    15     1     4
  1.6448297123613342E-01 a       341     0    15     1     5
 -1.4669053174560168E-01 a       342     0    15     1     6
 -1.1613007664814676E-01 a       343     0    15     1     7
 -1.8754021687399181E-01 a       344     0    15     1     8
 -1.3176663210554806E-01 a       345     0    15     1     9
  7.8124485431227922E-02 a       346     0    15     1    10
  3.4680077881041833E-02 a       347     0    15     1    11
 -9.5342723810433683E-02 a       348     0    15     1    12
  1.0721148128745590E-01 a       349     0    15     1    13
 -1.1455246387379971E-02 a       350     0    15     1    14
  1.0434931665206723E-01 a       351     0    15     1    15
 -3.2073820978333794E-03 a       352     0    15     1    16
  3.3506633573177909E-02 a       353     0    15     1    17
 -3.5708210354354265E-02 a       354     0    15     1    18
 -2.2826696068487154E-02 a       355     0    15     1    19
  1.2511709362151055E-01 a       356     0    15     1    20
  1.3050983676248890E-01 a       357     0    15     1    21
  1.8852506259645387E-02 a       358     0    15     1    22
  1.9774513112463291E-01 a       359     0    15     1    23
 -9.6701865232933920E-02 a       360     0    15     1    24
 -4.5933275540640105E-02 a       361     0    16     1     1
 -1.4029155013325864E-01 a       362     0    16     1     2
 -6.2835264114855932E-02 a       363     0    16     1     3
  6.0743041634269232E-02 a       364     0    16     1     4
  1.6806432358268935E-02 a       365     0    16     1     5
 -2.9654216491430362E-02 a       366     0    16     1     6
  1.4461414724728475E-01 a       367     0    16     1     7
  6.9718481736938759E-02 a       368     0    16     1     8
 -7.9180041221503291E-03 a       369     0    16     1     9
 -1.0728222468694171E-01 a       370     0    16     1    10
  1.3774947553457839E-01 a       371     0    16     1    11
 -1.9601823554441494E-02 a       372     0    16     1    12
  4.4914424775528386E-02 a       373     0    16     1    13
 -6.4327830716143633E-02 a       374     0    16     1    14
 -1.6344089950357851E-01 a       375     0    16     1    15
 -1.3135190118070950E-01 a       376     0    16     1    16
 -1.3224546115100264E-01 a       377     0    16     1    17
  6.0721696614955988E-02 a       378     0    16     1    18
  1.8345209360423581E-01 a       379     0    16     1    19
 -7.6262463485986887E-03 a       380     0    16     1    20
  1.8099370581138707E-01 a       381     0    16     1    21
  1.3695146019310372E-01 a       382     0    16     1    22
 -7.3092099348281175E-02 a       383     0    16     1    23
 -3.8250498006653637E-02 a       384     0    16     1    24
 -1.8257455772713083E-02 a       385     0    17     1     1
  3.0890054757933945E-02 a       386     0    17     1     2
 -3.1682628478078609E-02 a       387     0    17     1     3
  6.7395446394446307E-02 a       388     0    17     1     4
 -2.3767814903966903E-02 a       389     0    17     1     5
  1.4090312350269024E-01 a       390     0    17     1     6
 -9.0743147911600999E-02 a       391     0    17     1     7
 -6.1217777219131075E-02 a       392     0    17     1     8
  1.5342928860638039E-01 a       393     0    17     1     9
 -6.3513163992509447E-02 a       394     0    17     1    10
 -3.9121516279344022E-02 a       395     0    17     1    11
  3.8457793100448723E-02 a       396     0    17     1    12
  7.5973830911282098E-02 a       397     0    17     1    13
  1.1260345840581286E-01 a       398     0    17     1    14
 -7.7958928492252708E-02 a       399     0    17     1    15
  2.6180957726762721E-02 a       400     0    17     1    16
  1.6181462009104022E-01 a       401     0    17     1    17
  1.6462904360577352E-01 a       402     0    17     1    18
  1.9161700997429534E-01 a       403     0    17     1    19
  4.9293750856452920E-02 a       404     0    17     1    20
  7.0517867956364569E-04 a       405     0    17     1    21
  8.5296313661253453E-02 a       406     0    17     1    22
 -1.8379822977675452E-02 a       407     0    17     1    23
  1.5311381492040557E-01 a       408     0    17     1    24
  1.3098891990462452E-01 a       409     0    18     1     1
  3.6105028609529161E-02 a       410     0    18     1     2
 -1.5036487541713828E-01 a       411     0    18     1     3
  1.6293045420564994E-01 a       412     0    18     1     4
 -2.7206816514284984E-02 a       413     0    18     1     5
  8.7696874366865102E-02 a       414     0    18     1     6
  1.4097180991809229E-02 a       415     0    18     1     7
 -4.9567510849680800E-02 a       416     0    18     1     8
  2.4258386384156208E-01 a       417     0    18     1     9
 -9.7409151510277295E-03 a       418     0    18     1    10
 -1.1809365392233263E-01 a       419     0    18     1    11
 -7.8675191881343878E-02 a       420     0    18     1    12
  5.7371992270231542E-02 a       421     0    18     1    13
  1.7469218646274856E-01 a       422     0    18     1    14
  8.5172153055939864E-02 a       423     0    18     1    15
  8.9691375130691378E-03 a       424     0    18     1    16
 -2.2837268152453391E-02 a       425     0    18     1    17
 -6.9532672751871277E-02 a       426     0    18     1    18
 -6.7690985389236874E-02 a       427     0    18     1    19
  1.3424978934395562E-01 a       428     0    18     1    20
 -8.3868444722893190E-02 a       429     0    18     1    21
 -1.8372547581192616E-01 a       430     0    18     1    22
  3.4548854240654001E-02 a       431     0    18     1    23
 -3.8347826269647778E-02 a       432     0    18     1    24
  1.6136728555536622E-01 a       433     0    19     1     1
 -1.7323469103252734E-02 a       434     0    19     1     2
 -1.7094309939669980E-01 a       435     0    19     1     3
 -1.1780174634647661E-01 a       436     0    19     1     4
 -1.4287307314395084E-01 a       437     0    19     1     5
 -5.0177837441449089E-02 a       438     0    19     1     6
  2.4667457548607249E-01 a       439     0    19     1     7
  1.6872937356594256E-01 a       440     0    19     1     8
  2.4161832010412276E-02 a       441     0    19     1     9
  8.0209524170785584E-02 a       442     0    19     1    10
  1.1099892523616994E-01 a       443     0    19     1    11
  3.2885607002256137E-02 a       444     0    19     1    12
 -6.7205738444794591E-02 a       445     0    19     1    13
 -4.4442699589041191E-03 a       446     0    19     1    14
 -1.8542594219533282E-01 a       447     0    19     1    15
 -3.9646010682907677E-02 a       448     0    19     1    16
 -2.0556234632569031E-02 a       449     0    19     1    17
 -1.7489631940921116E-01 a       450     0    19     1    18
  6.3663464176879070E-02 a       451     0    19     1    19
  7.0229353145457724E-02 a       452     0    19     1    20
 -1.1438782237575321E-01 a       453     0    19     1    21
  8.9705051907803424E-02 a       454     0    19     1    22
  6.8018175833786290E-02 a       455     0    19     1    23
 -1.2551778126433621E-01 a       456     0    19     1    24
 -3.5915099397607272E-02 a       457     0    20     1     1
  4.3794149786435366E-02 a       458     0    20     1     2
 -8.7331572301762809E-03 a       459     0    20     1     3
  1.2575892276863576E-01 a       460     0    20     1     4
 -6.6350315064767879E-02 a       461     0    20     1     5
  4.7212857378628841E-02 a       462     0    20     1     6
  2.0828131192949410E-02 a       463     0    20     1     7
 -1.3006581483713331E-01 a       464     0    20     1     8
 -2.3454631148931194E-02 a       465     0    20     1     9
 -1.7464667838644303E-03 a       466     0    20     1    10
  1.9571052054827377E-02 a       467     0    20     1    11
  3.3086669688867955E-02 a       468     0    20     1    12
 -1.2420722573010547E-01 a       469     0    20     1    13
  5.2652317086986367E-02 a       470     0    20     1    14
  7.3234730755592600E-02 a       471     0    20     1    15
  7.5770536766398888E-02 a       472     0    20     1    16
 -3.0290613729659244E-02 a       473     0    20     1    17
  4.4535862319550791E-02 a       474     0    20     1    18
 -1.4945189295376279E-01 a       475     0    20     1    19
 -6.6734440296133818E-02 a       476     0    20     1    20
 -2.0960156278489128E-02 a       477     0    20     1    21
  1.4057860425191163E-01 a       478     0    20     1    22
  1.8359194829508999E-01 a       479     0    20     1    23
 -7.3600106715144787E-03 a       480     0    20     1    24
 -6.8550414769662310E-02 a       481     0    21     1     1
  5.1907836823602609E-02 a       482     0    21     1     2
  6.9309053835896500E-02 a       483     0    21     1     3
  5.8426145103668073E-02 a       484     0    21     1     4
 -2.4673330532785725E-03 a       485     0    21     1     5
 -5.0217952591769095E-02 a       486     0    21     1     6
 -9.6364023221290396E-02 a       487     0    21     1     7
  3.7383673324662060E-02 a       488     0    21     1     8
  1.3911334305808711E-02 a       489     0    21     1     9
  1.0892886065328748E-01 a       490     0    21     1    10
 -2.8021698897636744E-02 a       491     0    21     1    11
 -3.0535477223421915E-02 a       492     0    21     1    12
  2.3890825673720448E-02 a       493     0    21     1    13
 -1.2605553291449687E-01 a       494     0    21     1    14
  4.9147049364523375E-02 a       495     0    21     1    15
  1.3830931533969479E-01 a       496     0    21     1    16
 -6.1713141163621213E-02 a       497     0    21     1    17
 -3.8027366758034462E-02 a       498     0    21     1    18
 -7.9886243298242260E-02 a       499     0    21     1    19
  5.7084389013489167E-02 a       500     0    21     1    20
 -4.4898698413046945E-02 a       501     0    21     1    21
 -2.1189907633513062E-02 a       502     0    21     1    22
 -9.3931222527966263E-02 a       503     0    21     1    23
  6.7328796782889174E-04 a       504     0    21     1    24
 -6.9154684137898333E-03 a       505     0    22     1     1
  8.2701747711213767E-03 a       506     0    22     1     2
  1.2051626566847227E-01 a       507     0    22     1     3
  2.2890182648253748E-02 a       508     0    22     1     4
  2.3051634574153733E-02 a       509     0    22     1     5
 -5.7017059417029475E-02 a       510     0    22     1     6
 -7.4666251907804224E-02 a       511     0    22     1     7
  1.1289135335745529E-01 a       512     0    22     1     8
 -6.3923101034921381E-02 a       513     0    22     1     9
  3.2494052562132746E-02 a       514     0    22     1    10
  3.8462733198208754E-02 a       515     0    22     1    11
 -3.4574776590566583E-02 a       516     0    22     1    12
  2.8852267041128126E-02 a       517     0    22     1    13
 -6.7786387019478880E-02 a       518     0    22     1    14
 -3.0763198072872307E-02 a       519     0    22     1    15
  2.0811876495624879E-01 a       520     0    22     1    16
 -2.7800343296557617E-02 a       521     0    22     1    17
  4.1211811319584110E-02 a       522     0    22     1    18
 -1.0314669011021155E-01 a       523     0    22     1    19
 -1.9623684394519819E-01 a       524     0    22     1    20
  1.0576949425002919E-02 a       525     0    22     1    21
  1.0048366247360169E-01 a       526     0    22     1    22
 -5.5838101007091738E-02 a       527     0    22     1    23
  2.5001027307441779E-02 a       528     0    22     1    24
 -2.1418595590395570E-01 a       529     0    23     1     1
 -1.8747369708635999E-03 a       530     0    23     1     2
  8.9253892413886760E-02 a       531     0    23     1     3
 -4.5796954696802832E-02 a       532     0    23     1     4
  1.2462075125521345E-02 a       533     0    23     1     5
 -4.5074973795739035E-02 a       534     0    23     1     6
 -3.8780898045176058E-02 a       535     0    23     1     7
  5.6378170500147658E-02 a       536     0    23     1     8
  2.4713491777927251E-02 a       537     0    23     1     9
  3.6493570426818396E-02 a       538     0    23     1    10
  6.2791208076525856E-02 a       539     0    23     1    11
 -1.8927101057006651E-02 a       540     0    23     1    12
  6.0048825286873969E-02 a       541     0    23     1    13
 -1.0873992980198670E-01 a       542     0    23     1    14
 -5.8568740777884917E-02 a       543     0    23     1    15
  1.2010390288928990E-01 a       544     0    23     1    16
 -7.7898526862494197E-02 a       545     0    23     1    17
 -4.6686530680972643E-02 a       546     0    23     1    18
 -7.3677954809320111E-03 a       547     0    23     1    19
 -3.9896336088426375E-02 a       548     0    23     1    20
  4.5242788821490401E-03 a       549     0    23     1    21
 -1.0969078218219543E-01 a       550     0    23     1    22
  6.3801342971957942E-02 a       551     0    23     1    23
 -3.5586350135442743E-02 a       552     0    23     1    24
 -1.4539240464923209E-01 a       553     0    24     1     1
 -5.4075186130802151E-03 a       554     0    24     1     2
 -2.1491722473566240E-02 a       555     0    24     1     3
 -1.9959331265190855E-01 a       556     0    24     1     4
 -1.8171526246659653E-01 a       557     0    24     1     5
 -3.3714145620307168E-03 a       558     0    24     1     6
  1.4241027747411111E-03 a       559     0    24     1     7
  7.2611220119814024E-02 a       560     0    24     1     8
  1.2416729540941901E-01 a       561     0    24     1     9
  1.1573162516292612E-01 a       562     0    24     1    10
  5.9521513540313070E-02 a       563     0    24     1    11
 -1.2721930663025346E-01 a       564     0    24     1    12
 -4.7548949372611837E-02 a       565     0    24     1    13
  1.5781175958604801E-01 a       566     0    24     1    14
  1.8388626411094644E-01 a       567     0    24     1    15
  7.2113349753810604E-02 a       568     0    24     1    16
 -9.9468822182161853E-03 a       569     0    24     1    17
  2.2132465646794228E-01 a       570     0    24     1    18
  4.3995831149466202E-03 a       571     0    24     1    19
 -3.3733502749574762E-02 a       572     0    24     1    20
 -4.3455285606483873E-02 a       573     0    24     1    21
 -8.6596919291837354E-02 a       574     0    24     1    22
  5.7458214378339485E-02 a       575     0    24     1    23
  5.4631203210295645E-02 a       576     0    24     1    24
  6.1076493286977125E-02 a       577     0    25     1     1
 -6.1512451797868579E-02 a       578     0    25     1     2
  1.4593234402552133E-01 a       579     0    25     1     3
 -5.5026499936636913E-02 a       580     0    25     1     4
  1.0745107720892896E-01 a       581     0    25     1     5
  1.6533750542949599E-01 a       582     0    25     1     6
  8.1912965552281169E-02 a       583     0    25     1     7
  1.0143296737435913E-01 a       584     0    25     1     8
  4.9595957716979409E-02 a       585     0    25     1     9
  1.1163467777042642E-01 a       586     0    25     1    10
 -1.1807392386692479E-01 a       587     0    25     1    11
  6.0124740824175911E-02 a       588     0    25     1    12
  4.4103403745932142E-02 a       589     0    25     1    13
 -1.8097341442043455E-01 a       590     0    25     1    14
 -4.0764102196345436E-02 a       591     0    25     1    15
  1.7160887446234910E-01 a       592     0    25     1    16
  1.4110435428610265E-02 a       593     0    25     1    17
 -9.2425980981247269E-02 a       594     0    25     1    18
 -2.4816344202592749E-01 a       595     0    25     1    19
 -7.4617820139558755E-02 a       596     0    25     1    20
  4.7110301192541372E-02 a       597     0    25     1    21
 -5.0309741794243322E-02 a       598     0    25     1    22
  1.5892431074333879E-01 a       599     0    25     1    23
 -1.6111163672911422E-01 a       600     0    25     1    24
 -1.3164237777149304E-01 a       601     0    26     1     1
  4.3632644693817550E-02 a       602     0    26     1     2
 -5.4245660713943891E-02 a       603     0    26     1     3
 -1.2988326524703028E-01 a       604     0    26     1     4
 -8.0928309100698578E-02 a       605     0    26     1     5
 -7.7997651705721455E-02 a       606     0    26     1     6
 -4.9740187041415734E-03 a       607     0    26     1     7
  1.1826026685916430E-01 a       608     0    26     1     8
  5.4444799974166479E-03 a       609     0    26     1     9
 -7.1052768616003043E-02 a       610     0    26     1    10
  1.3784705643493328E-01 a       611     0    26     1    11
 -6.9702134953737768E-02 a       612     0    26     1    12
 -1.0933934645968489E-01 a       613     0    26     1    13
 -1.5593682861597657E-01 a       614     0    26     1    14
  2.9249412836343511E-02 a       615     0    26     1    15
  1.0444643480197917E-01 a       616     0    26     1    16
 -8.2881503213410063E-02 a       617     0    26     1    17
 -8.7087489967399775E-02 a       618     0    26     1    18
 -1.2639588304741215E-02 a       619     0    26     1    19
 -1.4111927376186459E-01 a       620     0    26     1    20
  4.5906161325455087E-02 a       621     0    26     1    21
 -1.4112589325073813E-01 a       622     0    26     1    22
 -2.3674415516505808E-02 a       623     0    26     1    23
  3.3700182342421933E-02 a       624     0    26     1    24
  6.1064037769290765E-02 a       625     0    27     1     1
  9.2254756348843642E-03 a       626     0    27     1     2
  4.3595934885245193E-02 a       627     0    27     1     3
 -3.5240486108545710E-03 a       628     0    27     1     4
  1.6314316396768425E-01 a       629     0    27     1     5
 -4.0746107172474420E-02 a       630     0    27     1     6
 -1.4843229722976931E-01 a       631     0    27     1     7
  1.2315528517800997E-01 a       632     0    27     1     8
 -1.2050476762312733E-01 a       633     0    27     1     9
  1.6924464882795757E-02 a       634     0    27     1    10
 -1.2306300296079464E-01 a       635     0    27     1    11
  7.3228982417018959E-02 a       636     0    27     1    12
 -6.3552421563638523E-02 a       637     0    27     1    13
  3.5723281084100098E-02 a       638     0    27     1    14
 -5.5013301261174728E-02 a       639     0    27     1    15
 -1.7282615132757275E-02 a       640     0    27     1    16
 -2.5526873905684883E-02 a       641     0    27     1    17
  1.9266682264894384E-02 a       642     0    27     1    18
 -4.4162943510815754E-02 a       643     0    27     1    19
 -1.2068664861119713E-01 a       644     0    27     1    20
  1.3327856429479296E-01 a       645     0    27     1    21
  9.2314260254311317E-02 a       646     0    27     1    22
  6.0412524337429718E-02 a       647     0    27     1    23
  1.1285243190060332E-01 a       648     0    27     1    24
  1.6192517504984044E-01 a       649     0    28     1     1
 -3.4212225829767358E-02 a       650     0    28     1     2
 -7.7276826464781567E-02 a       651     0    28     1     3
 -2.1463164205304830E-01 a       652     0    28     1     4
  1.3647861694270855E-01 a       653     0    28     1     5
  3.5945034496543370E-02 a       654     0    28     1     6
 -9.8432875746006593E-02 a       655     0    28     1     7
 -1.1823626854794635E-01 a       656     0    28     1     8
  1.2416339670706880E-01 a       657     0    28     1     9
  8.9689311880221917E-02 a       658     0    28     1    10
 -3.1662501413653225E-02 a       659     0    28     1    11
 -1.0421067814394974E-01 a       660     0    28     1    12
 -9.5342943747895176E-02 a       661     0    28     1    13
  4.4725566294316843E-02 a       662     0    28     1    14
  8.6478679807197117E-02 a       663     0    28     1    15
 -1.9697581150900823E-01 a       664     0    28     1    16
 -6.1969244235977182E-02 a       665     0    28     1    17
  2.9981271018580589E-02 a       666     0    28     1    18
  1.1286559804210210E-01 a       667     0    28     1    19
 -9.6051520490087583E-02 a       668     0    28     1    20
  2.1833666036971028E-01 a       669     0    28     1    21
  1.1674316028903751E-01 a       670     0    28     1    22
 -3.5559123922954218E-02 a       671     0    28     1    23
 -1.0924833336323166E-01 a       672     0    28     1    24
  4.5512979670192140E-02 a       673     0    29     1     1
  1.9168126401632041E-02 a       674     0    29     1     2
 -1.2154657801052089E-01 a       675     0    29     1     3
 -7.4983344009697361E-02 a       676     0    29     1     4
 -6.6610073698022590E-02 a       677     0    29     1     5
  3.7142147463670630E-02 a       678     0    29     1     6
  6.6367498554151638E-02 a       679     0    29     1     7
  6.6977298041630384E-02 a       680     0    29     1     8
  1.9710301585898617E-02 a       681     0    29     1     9
 -5.9343123922449073E-02 a       682     0    29     1    10
  1.0792510544515814E-01 a       683     0    29     1    11
 -7.7525844534974783E-02 a       684     0    29     1    12
 -1.1869914333758129E-01 a       685     0    29     1    13
  6.6766971203085682E-02 a       686     0    29     1    14
  7.5989970088242240E-03 a       687     0    29     1    15
  4.2882175230173295E-03 a       688     0    29     1    16
 -9.1401190246152605E-02 a       689     0    29     1    17
  9.8269492948656723E-02 a       690     0    29     1    18
 -7.6139921174300296E-02 a       691     0    29     1    19
 -1.6977210658195577E-01 a       692     0    29     1    20
  1.3822635920002455E-01 a       693     0    29     1    21
  3.8477055086090471E-02 a       694     0    29     1    22
  1.1382991285591072E-01 a       695     0    29     1    23
 -1.8325974732996044E-02 a       696     0    29     1    24
 -4.0824652980764833E-02 a       697     0    30     1     1
 -1.0962250538696307E-01 a       698     0    30     1     2
  8.7256645548028866E-02 a       699     0    30     1     3
 -5.2457845365612508E-02 a       700     0    30     1     4
  5.3189450002429986E-02 a       701     0    30     1     5
  1.9198699409263966E-02 a       702     0    30     1     6
 -6.5063713169605339E-02 a       703     0    30     1     7
  8.1966543427101968E-02 a       704     0    30     1     8
 -3.6425526844863040E-02 a       705     0    30     1     9
  2.6404376394803523E-02 a       706     0    30     1    10
  4.4353401605519115E-02 a       707     0    30     1    11
  1.4285358070195276E-02 a       708     0    30     1    12
  1.4567694400425624E-02 a       709     0    30     1    13
  9.8684922072248566E-03 a       710     0    30     1    14
  1.3143994031936142E-02 a       711     0    30     1    15
  2.5069500363635772E-02 a       712     0    30     1    16
 -1.1784347480056277E-01 a       713     0    30     1    17
  8.1285981593773621E-02 a       714     0    30     1    18
 -7.6495438236830623E-02 a       715     0    30     1    19
 -9.2537664261165293E-03 a       716     0    30     1    20
 -1.0478978095548394E-01 a       717     0    30     1    21
  7.2770319848524861E-02 a       718     0    30     1    22
 -6.1256129939095814E-02 a       719     0    30     1    23
 -1.1820879619861577E-01 a       720     0    30     1    24
 -3.6946439479803271E-02 a       721     0    31     1     1
 -1.3012434623579805E-01 a       722     0    31     1     2
  1.1597238310937751E-01 a       723     0    31     1     3
  2.9088973795060195E-02 a       724     0    31     1     4
  2.0020782798274721E-02 a       725     0    31     1     5
  1.0931684166896622E-02 a       726     0    31     1     6
 -1.4417567582048732E-01 a       727     0    31     1     7
  1.9889590462014234E-01 a       728     0    31     1     8
 -2.7820903572708311E-01 a       729     0    31     1     9
  8.7205696470709346E-02 a       730     0    31     1    10
  9.9647853592818129E-03 a       731     0    31     1    11
  1.1775405363930876E-01 a       732     0    31     1    12
 -6.4272159644714666E-02 a       733     0    31     1    13
 -1.0218706965519610E-01 a       734     0    31     1    14
 -2.2553075875940293E-01 a       735     0    31     1    15
 -5.7222857387641381E-03 a       736     0    31     1    16
  1.1069765525291270E-01 a       737     0    31     1    17
 -1.4452748399877130E-01 a       738     0    31     1    18
 -1.4295906174357420E-01 a       739     0    31     1    19
 -8.3759449008341605E-02 a       740     0    31     1    20
  1.0248738303491818E-01 a       741     0    31     1    21
 -7.1137607095423843E-03 a       742     0    31     1    22
 -6.4537253269547928E-02 a       743     0    31     1    23
 -6.6065548440198726E-02 a       744     0    31     1    24
 -1.1880739454004460E-01 a       745     0    32     1     1
  2.9697446082094694E-02 a       746     0    32     1     2
  3.2600983170489935E-02 a       747     0    32     1     3
  9.6446054822577620E-02 a       748     0    32     1     4
 -1.5252411646442703E-03 a       749     0    32     1     5
  1.4162676458302107E-02 a       750     0    32     1     6
  1.0998487117973763E-01 a       751     0    32     1     7
 -1.3699680559481150E-01 a       752     0    32     1     8
  1.8945631674545704E-01 a       753     0    32     1     9
 -2.2171006806102452E-02 a       754     0    32     1    10
  1.9105911714792978E-02 a       755     0    32     1    11
 -1.0526789733025299E-01 a       756     0    32     1    12
  5.9874630334257196E-02 a       757     0    32     1    13
  1.8165869252960255E-02 a       758     0    32     1    14
  2.2270877748531501E-01 a       759     0    32     1    15
  3.5259087919848484E-02 a       760     0    32     1    16
 -6.6966453130818115E-02 a       761     0    32     1    17
  2.7206033391066854E-02 a       762     0    32     1    18
  2.6398321428925862E-02 a       763     0    32     1    19
  4.7846321035672199E-02 a       764     0    32     1    20
 -1.2253455779603718E-01 a       765     0    32     1    21
  7.6311031182096464E-02 a       766     0    32     1    22
  1.8418126121091401E-02 a       767     0    32     1    23
 -1.7665880504510924E-02 a       768     0    32     1    24
 -9.8107951602884477E-02 a       769     0    33     1     1
 -1.1166266823608721E-01 a       770     0    33     1     2
 -6.5985148604978894E-02 a       771     0    33     1     3
 -2.3830916254408935E-01 a       772     0    33     1     4
 -2.8223809077061207E-02 a       773     0    33     1     5
  3.3180061196188569E-02 a       774     0    33     1     6
 -5.0603387249113820E-02 a       775     0    33     1     7
  2.6063029708881841E-01 a       776     0    33     1     8
  1.3587387304718278E-02 a       777     0    33     1     9
 -5.3346126637593472E-02 a       778     0    33     1    10
  4.6160297916291927E-02 a       779     0    33     1    11
 -6.1101693843517130E-02 a       780     0    33     1    12
 -8.4896492405298618E-02 a       781     0    33     1    13
 -3.6159570038150228E-02 a       782     0    33     1    14
 -5.5462597989563434E-02 a       783     0    33     1    15
 -7.6336580058972522E-02 a       784     0    33     1    16
 -3.6089233065945588E-02 a       785     0    33     1    17
 -1.0781650424263511E-01 a       786     0    33     1    18
 -9.0997457996334335E-03 a       787     0    33     1    19
 -4.2429780518126847E-02 a       788     0    33     1    20
  8.1793085550810676E-03 a       789     0    33     1    21
 -2.4082513124508070E-01 a       790     0    33     1    22
 -1.5354324443445877E-01 a       791     0    33     1    23
 -1.0767723607465450E-01 a       792     0    33     1    24
  1.4996272211458009E-01 a       793     0    34     1     1
 -6.8221548006692403E-02 a       794     0    34     1     2
  2.0901747690064029E-02 a       795     0    34     1     3
 -6.0670270930679775E-02 a       796     0    34     1     4
  1.4663636888226136E-01 a       797     0    34     1     5
 -6.9658345774263844E-02 a       798     0    34     1     6
  1.9700172375540739E-01 a       799     0    34     1     7
 -3.3109943621588152E-02 a       800     0    34     1     8
  2.5261132117008658E-02 a       801     0    34     1     9
 -9.5082516917608564E-02 a       802     0    34     1    10
 -4.5326516495616306E-03 a       803     0    34     1    11
  4.7206483994536023E-02 a       804     0    34     1    12
 -1.0475641755262969E-02 a       805     0    34     1    13
  1.1852461744350916E-01 a       806     0    34     1    14
  7.5545064702513667E-02 a       807     0    34     1    15
 -1.4538330748286957E-01 a       808     0    34     1    16
  1.0761486475552052E-02 a       809     0    34     1    17
  9.1472378832704371E-02 a       810     0    34     1    18
  5.1237345077297734E-02 a       811     0    34     1    19
 -8.3090224978176558E-02 a       812     0    34     1    20
 -4.3357028683428660E-02 a       813     0    34     1    21
 -4.0763510232702744E-03 a       814     0    34     1    22
 -4.7299329210486074E-02 a       815     0    34     1    23
 -2.4382967380424662E-02 a       816     0    34     1    24
 -5.2396489653878581E-02 a       817     0    35     1     1
 -6.3394855376990911E-02 a       818     0    35     1     2
 -8.0477834006650647E-03 a       819     0    35     1     3
 -4.7844589625275109E-02 a       820     0    35     1     4
  1.6406755882075665E-02 a       821     0    35     1     5
  6.7725586180285360E-02 a       822     0    35     1     6
 -1.0517390786573969E-02 a       823     0    35     1     7
 -4.1788514393927056E-02 a       824     0    35     1     8
 -1.0018088917271135E-01 a       825     0    35     1     9
  7.0376247785946214E-02 a       826     0    35     1    10
 -5.6124402795076307E-02 a       827     0    35     1    11
  9.6169293965269700E-02 a       828     0    35     1    12
 -1.8544082696181055E-01 a       829     0    35     1    13
 -4.5174726663410096E-02 a       830     0    35     1    14
  3.7945789704970707E-02 a       831     0    35     1    15
 -1.0081309516834933E-01 a       832     0    35     1    16
  1.7767944131308236E-01 a       833     0    35     1    17
 -1.4489882595149464E-01 a       834     0    35     1    18
 -3.9736666025994904E-02 a       835     0    35     1    19
 -7.5821067926051663E-03 a       836     0    35     1    20
  4.2014357773842138E-02 a       837     0    35     1    21
 -1.4653996290235188E-01 a       838     0    35     1    22
  7.6978248315158109E-03 a       839     0    35     1    23
 -6.0391634421155388E-02 a       840     0    35     1    24
 -7.1950992520411358E-02 a       841     0    36     1     1
 -8.5771002868979679E-02 a       842     0    36     1     2
  2.3856727860918470E-02 a       843     0    36     1     3
 -4.6815883208008051E-02 a       844     0    36     1     4
 -9.6000811342265499E-02 a       845     0    36     1     5
  1.1689666889928016E-01 a       846     0    36     1     6
  1.7378271269980209E-02 a       847     0    36     1     7
 -2.8816755403984345E-02 a       848     0    36     1     8
 -7.5232440917713472E-02 a       849     0    36     1     9
 -5.5262426137566633E-03 a       850     0    36     1    10
 -1.2730417322650994E-02 a       851     0    36     1    11
  1.8163170467260556E-03 a       852     0    36     1    12
 -1.0493649598488071E-01 a       853     0    36     1    13
  3.7421775511153089E-02 a       854     0    36     1    14
  1.9702070004823338E-01 a       855     0    36     1    15
 -1.0023836397313675E-01 a       856     0    36     1    16
 -1.2585364892014744E-01 a       857     0    36     1    17
 -2.7174892913021595E-02 a       858     0    36     1    18
 -1.9717520668457705E-01 a       859     0    36     1    19
  9.0262744238429171E-02 a       860     0    36     1    20
 -3.2096435887558311E-02 a       861     0    36     1    21
 -3.3418327810565409E-03 a       862     0    36     1    22
 -9.9977464197284635E-02 a       863     0    36     1    23
 -7.0227505404069218E-02 a       864     0    36     1    24
 -2.4770586208261056E-01 a       865     0    37     1     1
  1.6274462203979961E-01 a       866     0    37     1     2
  1.2890662104096701E-01 a       867     0    37     1     3
  1.9816904953964165E-01 a       868     0    37     1     4
 -1.2820927842368683E-02 a       869     0    37     1     5
 -1.3193104049312729E-01 a       870     0    37     1     6
  7.6372748809865280E-03 a       871     0    37     1     7
 -1.2640068844957367E-01 a       872     0    37     1     8
  6.0285636504882646E-02 a       873     0    37     1     9
 -3.9741018037060337E-02 a       874     0    37     1    10
 -5.5459284697764989E-02 a       875     0    37     1    11
 -3.4360255799538586E-01 a       876     0    37     1    12
 -7.5792386346772642E-02 a       877     0    37     1    13
  1.2989014776622365E-01 a       878     0    37     1    14
 -1.1172828489800815E-01 a       879     0    37     1    15
  1.3712172654724960E-02 a       880     0    37     1    16
 -1.5709174484990096E-01 a       881     0    37     1    17
  9.4937404247129223E-02 a       882     0    37     1    18
  7.5874587361926555E-03 a       883     0    37     1    19
 -2.5853232589141066E-04 a       884     0    37     1    20
  2.5151616620243888E-01 a       885     0    37     1    21
  8.0948793688915954E-03 a       886     0    37     1    22
 -7.0489657388642851E-02 a       887     0    37     1    23
  2.3742634129573670E-01 a       888     0    37     1    24
  3.9100988698704452E-02 a       889     0    38     1     1
 -3.5410834556025755E-02 a       890     0    38     1     2
  1.7062968184565117E-01 a       891     0    38     1     3
  2.0345312995296896E-01 a       892     0    38     1     4
 -6.1544138733760065E-02 a       893     0    38     1     5
 -1.5364810506605836E-01 a       894     0    38     1     6
  1.3008779251167665E-02 a       895     0    38     1     7
 -4.3710983168335230E-02 a       896     0    38     1     8
  8.3714835368862081E-03 a       897     0    38     1     9
  2.1865786560465463E-03 a       898     0    38     1    10
 -4.4275437369117127E-02 a       899     0    38     1    11
 -2.4716296953421549E-02 a       900     0    38     1    12
  2.8401226427016629E-02 a       901     0    38     1    13
  8.7789483343464828E-03 a       902     0    38     1    14
  9.1738277209553437E-02 a       903     0    38     1    15
  7.4515801310929164E-02 a       904     0    38     1    16
  8.0637975864507161E-02 a       905     0    38     1    17
 -1.1190461774672217E-01 a       906     0    38     1    18
  3.0154939021333628E-02 a       907     0    38     1    19
 -3.0510316851747255E-02 a       908     0    38     1    20
  4.7148258478199909E-02 a       909     0    38     1    21
 -9.3411488867559123E-02 a       910     0    38     1    22
 -1.0250293083531366E-02 a       911     0    38     1    23
 -1.3471586375366765E-01 a       912     0    38     1    24
 -2.3341996640236392E-02 a       913     0    39     1     1
  2.3472512805677019E-02 a       914     0    39     1     2
  2.3878481765874521E-01 a       915     0    39     1     3
 -1.0265563997164827E-01 a       916     0    39     1     4
  2.3837538494734918E-02 a       917     0    39     1     5
  1.2604955235612025E-01 a       918     0    39     1     6
 -7.7514369621739243E-01 a       919     0    39     1     7
 -4.3327004887361126E-01 a       920     0    39     1     8
  1.7168889725518413E-01 a       921     0    39     1     9
 -3.8706709410692353E-01 a       922     0    39     1    10
  8.5486193255096377E-02 a       923     0    39     1    11
  8.5050204572592325E-02 a       924     0    39     1    12
 -2.4327514283095960E-03 a       925     0    39     1    13
 -1.4277714575601047E-01 a       926     0    39     1    14
  3.2078519783246917E-01 a       927     0    39     1    15
 -4.0206533452012312E-03 a       928     0    39     1    16
 -1.3563180646110923E-01 a       929     0    39     1    17
 -1.8486311455789681E-01 a       930     0    39     1    18
 -1.0389382676976970E-01 a       931     0    39     1    19
 -2.4820707448769949E-01 a       932     0    39     1    20
  2.3042501938693777E-01 a       933     0    39     1    21
 -2.2564434762107835E-01 a       934     0    39     1    22
  3.9786696301559737E-01 a       935     0    39     1    23
 -1.0186641600986876E-02 a       936     0    39     1    24
 -1.9262481490515501E-01 a       937     0    40     1     1
 -8.0167068127260016E-02 a       938     0    40     1     2
  8.8228034434828309E-03 a       939     0    40     1     3
  4.4694120670206908E-02 a       940     0    40     1     4
  1.3487159250643571E-01 a       941     0    40     1     5
  1.0823542318641002E-01 a       942     0    40     1     6
 -2.3814841001950923E-01 a       943     0    40     1     7
 -2.7343901739627155E-02 a       944     0    40     1     8
  1.8320067335097640E-02 a       945     0    40     1     9
  7.8002367973288120E-02 a       946     0    40     1    10
  8.0546921590559775E-02 a       947     0    40     1    11
  3.1951982482109953E-02 a       948     0    40     1    12
  4.5068022189821276E-02 a       949     0    40     1    13
  9.2938085454669604E-03 a       950     0    40     1    14
 -2.1106201781352990E-01 a       951     0    40     1    15
 -1.8768799078168399E-01 a       952     0    40     1    16
 -3.0758579271672162E-02 a       953     0    40     1    17
 -7.2315291177103558E-03 a       954     0    40     1    18
 -1.2145258456524387E-01 a       955     0    40     1    19
 -1.2004376838018646E-01 a       956     0    40     1    20
 -1.8720839969112314E-02 a       957     0    40     1    21
  1.8115535966477950E-01 a       958     0    40     1    22
 -1.5978346710673952E-01 a       959     0    40     1    23
 -4.0427670448316556E-02 a       960     0    40     1    24
 -3.4837208261186892E-01 a       961     0    41     1     1
 -8.5372327617346273E-03 a       962     0    41     1     2
 -9.9351591970420636E-02 a       963     0    41     1     3
  3.5608821121399903E-02 a       964     0    41     1     4
 -2.7773740413078538E-03 a       965     0    41     1     5
 -2.4678866430401086E-01 a       966     0    41     1     6
  2.8950012548213400E-01 a       967     0    41     1     7
 -1.5950713860193130E-01 a       968     0    41     1     8
 -4.0679196850771876E-01 a       969     0    41     1     9
  2.3501570548348910E-01 a       970     0    41     1    10
  9.8165055034820925E-02 a       971     0    41     1    11
 -1.0560561959691647E-01 a       972     0    41     1    12
 -4.5215572059032039E-02 a       973     0    41     1    13
  6.6608766393495573E-03 a       974     0    41     1    14
 -9.9178223045004506E-03 a       975     0    41     1    15
 -1.0038145760633570E-01 a       976     0    41     1    16
 -1.8195513597033527E-01 a       977     0    41     1    17
  9.2459142613081413E-02 a       978     0    41     1    18
 -1.6121964430986579E-01 a       979     0    41     1    19
  2.8138000381906440E-02 a       980     0    41     1    20
 -2.2755287959816992E-02 a       981     0    41     1    21
  9.4917720091498535E-03 a       982     0    41     1    22
 -5.3449942694477138E-03 a       983     0    41     1    23
  2.4504234201118735E-01 a       984     0    41     1    24
  1.2918387686970056E-01 a       985     0    42     1     1
  1.1608761677025016E-01 a       986     0    42     1     2
 -5.5576015304182824E-02 a       987     0    42     1     3
 -5.6077869253299474E-02 a       988     0    42     1     4
  4.0693915837173050E-02 a       989     0    42     1     5
  2.5541987955909218E-01 a       990     0    42     1     6
  1.4489646581456980E-01 a       991     0    42     1     7
  1.3880976358655028E-01 a       992     0    42     1     8
 -2.4148889247732605E-02 a       993     0    42     1     9
  8.2866651884799108E-02 a       994     0    42     1    10
 -8.7905490036925646E-02 a       995     0    42     1    11
  1.0501524726259633E-01 a       996     0    42     1    12
 -1.8043472422214610E-01 a       997     0    42     1    13
 -2.8966544306495520E-02 a       998     0    42     1    14
  2.0132332004010425E-01 a       999     0    42     1    15
 -8.0150939821803865E-02 a      1000     0    42     1    16
  1.0030351525883903E-01 a      1001     0    42     1    17
 -9.5287711680317588E-03 a      1002     0    42     1    18
 -1.4706873248510005E-01 a      1003     0    42     1    19
  1.6208959602491740E-01 a      1004     0    42     1    20
 -1.8394292341568819E-01 a      1005     0    42     1    21
 -2.4041445865817590E-01 a      1006     0    42     1    22
 -7.1444793820943098E-02 a      1007     0    42     1    23
 -1.0414940365271436E-01 a      1008     0    42     1    24
  1.1858901317582564E-01 a      1009     0    43     1     1
 -1.7168347150184199E-02 a      1010     0    43     1     2
 -4.5504557752326605E-02 a      1011     0    43     1     3
  1.8386978317828739E-01 a      1012     0    43     1     4
 -1.3700706156024323E-01 a      1013     0    43     1     5
 -2.9961517097517898E-01 a      1014     0    43     1     6
  4.0721903713611049E-03 a      1015     0    43     1     7
 -8.3158425745841508E-02 a      1016     0    43     1     8
 -2.6332648223323932E-02 a      1017     0    43     1     9
  2.5192454240366324E-01 a      1018     0    43     1    10
  1.7074250549474923E-01 a      1019     0    43     1    11
  8.9861962415367605E-02 a      1020     0    43     1    12
 -1.1945133994487664E-01 a      1021     0    43     1    13
  3.8414660157226638E-02 a      1022     0    43     1    14
  1.9782472225214978E-01 a      1023     0    43     1    15
 -4.8427468422208693E-02 a      1024     0    43     1    16
 -1.8253607828556259E-01 a      1025     0    43     1    17
  5.7258368415146026E-02 a      1026     0    43     1    18
  2.0515247772495079E-02 a      1027     0    43     1    19
 -7.7290621379874899E-02 a      1028     0    43     1    20
 -3.4638796031429601E-02 a      1029     0    43     1    21
 -2.5889282963515205E-02 a      1030     0    43     1    22
 -4.4747549433133249E-02 a      1031     0    43     1    23
  1.1900345880507528E-01 a      1032     0    43     1    24
  6.7614168211377709E-02 a      1033     0    44     1     1
 -7.2953287230023922E-02 a      1034     0    44     1     2
  4.6522818027078028E-02 a      1035     0    44     1     3
 -6.6278735263128594E-02 a      1036     0    44     1     4
 -3.0252186924636066E-02 a      1037     0    44     1     5
  6.6507511196526328E-02 a      1038     0    44     1     6
  7.2554483559888125E-03 a      1039     0    44     1     7
  9.0440871275336218E-03 a      1040     0    44     1     8
  2.4413744450528446E-01 a      1041     0    44     1     9
 -3.0318235388539675E-02 a      1042     0    44     1    10
  8.6231140736901926E-02 a      1043     0    44     1    11
 -1.2320226865722674E-01 a      1044     0    44     1    12
 -7.4525052926292202E-03 a      1045     0    44     1    13
 -5.3629971212237004E-02 a      1046     0    44     1    14
  1.4600506193628221E-01 a      1047     0    44     1    15
  2.5106963095130982E-02 a      1048     0    44     1    16
 -1.5172082140591056E-01 a      1049     0    44     1    17
 -1.2825546681919725E-01 a      1050     0    44     1    18
 -1.5472117455928930E-01 a      1051     0    44     1    19
 -2.7911866834355183E-02 a      1052     0    44     1    20
  7.0061517351379249E-02 a      1053     0    44     1    21
 -1.5487243623692390E-01 a      1054     0    44     1    22
  1.6800114908529812E-01 a      1055     0    44     1    23
 -1.0328694736054747E-01 a      1056     0    44     1    24
 -8.2806206847221023E-02 a      1057     0    45     1     1
  2.1280820065862094E-01 a      1058     0    45     1     2
  1.1940049256580844E-01 a      1059     0    45     1     3
 -3.7726103806424056E-02 a      1060     0    45     1     4
 -1.4239631029962102E-01 a      1061     0    45     1     5
 -2.7400665892870590E-01 a      1062     0    45     1     6
  7.4971787375932242E-02 a      1063     0    45     1     7
 -1.0494580831810774E-01 a      1064     0    45     1     8
  3.6726396842455031E-02 a      1065     0    45     1     9
  6.1831925243444573E-04 a      1066     0    45     1    10
 -6.7562249906941235E-02 a      1067     0    45     1    11
 -1.7570065915321514E-01 a      1068     0    45     1    12
  5.9980328997110463E-02 a      1069     0    45     1    13
  6.0147682099244322E-02 a      1070     0    45     1    14
  5.1938846987601657E-02 a      1071     0    45     1    15
 -8.8622177268252181E-02 a      1072     0    45     1    16
  7.6997628613460087E-02 a      1073     0    45     1    17
  1.5752738367649588E-01 a      1074     0    45     1    18
  3.1289103925648731E-01 a      1075     0    45     1    19
  5.7546228407622628E-02 a      1076     0    45     1    20
 -6.6456973246335635E-02 a      1077     0    45     1    21
 -1.4389952108133339E-01 a      1078     0    45     1    22
  1.3914922992869718E-02 a      1079     0    45     1    23
  2.2618901716706961E-02 a      1080     0    45     1    24
  2.3924916544030825E-02 a      1081     0    46     1     1
  1.9088170299425174E-02 a      1082     0    46     1     2
  4.5225518554467319E-02 a      1083     0    46     1     3
  3.9505577176981534E-02 a      1084     0    46     1     4
 -7.7923151613256691E-02 a      1085     0    46     1     5
 -4.0140562466253984E-02 a      1086     0    46     1     6
 -2.2826859344622613E-01 a      1087     0    46     1     7
 -2.4318334673583314E-01 a      1088     0    46     1     8
  6.1438240761756524E-02 a      1089     0    46     1     9
 -1.8737267879058050E-01 a      1090     0    46     1    10
 -1.4885409366157543E-01 a      1091     0    46     1    11
  1.3660894615106520E-01 a      1092     0    46     1    12
 -8.2380159716402737E-02 a      1093     0    46     1    13
  7.3653566386172788E-03 a      1094     0    46     1    14
  2.2070210622549821E-01 a      1095     0    46     1    15
  8.9813164910681420E-02 a      1096     0    46     1    16
 -1.2952636285519015E-01 a      1097     0    46     1    17
  1.3782297608564205E-03 a      1098     0    46     1    18
 -2.1078673958118362E-04 a      1099     0    46     1    19
 -6.8230009231092556E-02 a      1100     0    46     1    20
  2.0762878334471235E-01 a      1101     0    46     1    21
 -1.1058157342597753E-01 a      1102     0    46     1    22
  8.3995898992279744E-02 a      1103     0    46     1    23
  8.6959468350870983E-02 a      1104     0    46     1    24
 -1.6424692584948922E-01 a      1105     0    47     1     1
  4.6003344965651775E-02 a      1106     0    47     1     2
 -1.1377815812101803E-01 a      1107     0    47     1     3
 -5.6947179901808585E-03 a      1108     0    47     1     4
  1.3171166335161631E-02 a      1109     0    47     1     5
  5.4617926374989759E-02 a      1110     0    47     1     6
  1.7120010578500608E-01 a      1111     0    47     1     7
  2.0011965905559002E-02 a      1112     0    47     1     8
 -1.7626017628598070E-01 a      1113     0    47     1     9
 -1.6324996234803063E-01 a      1114     0    47     1    10
  3.8468956490288089E-03 a      1115     0    47     1    11
 -7.3421316971756079E-02 a      1116     0    47     1    12
 -1.3918344947441824E-01 a      1117     0    47     1    13
 -1.7823339123129175E-01 a      1118     0    47     1    14
  3.9202137109679375E-02 a      1119     0    47     1    15
  5.2732859032266342E-02 a      1120     0    47     1    16
 -1.5299673509113279E-01 a      1121     0    47     1    17
  2.8697103519271161E-01 a      1122     0    47     1    18
  6.3450547312280406E-02 a      1123     0    47     1    19
  3.0794341259294540E-02 a      1124     0    47     1    20
 -2.5686933482970037E-01 a      1125     0    47     1    21
 -7.0176833830388835E-02 a      1126     0    47     1    22
  1.7775878571582332E-02 a      1127     0    47     1    23
  7.4147641964178668E-02 a      1128     0    47     1    24
 -9.6597122781879541E-02 a      1129     0    48     1     1
 -1.3931057344078371E-01 a      1130     0    48     1     2
  8.7038427892900228E-02 a      1131     0    48     1     3
 -1.2611197904791724E-01 a      1132     0    48     1     4
 -9.7018600877558342E-02 a      1133     0    48     1     5
  1.1175595714931622E-01 a      1134     0    48     1     6
 -9.3507069534534304E-02 a      1135     0    48     1     7
 -5.4248497132008949E-03 a      1136     0    48     1     8
  1.3140602354390840E-01 a      1137     0    48     1     9
 -3.2825001966093558E-03 a      1138     0    48     1    10
 -3.0988365751186742E-02 a      1139     0    48     1    11
  7.2101059385637170E-02 a      1140     0    48     1    12
  1.5087498552483247E-01 a      1141     0    48     1    13
 -6.2884475061209727E-02 a      1142     0    48     1    14
  1.8691486608221389E-01 a      1143     0    48     1    15
  2.2728397534440423E-02 a      1144     0    48     1    16
  9.3804408577686349E-02 a      1145     0    48     1    17
 -1.2500930412088803E-02 a      1146     0    48     1    18
  7.5435880214820575E-02 a      1147     0    48     1    19
 -2.9094272553836977E-02 a      1148     0    48     1    20
  3.1597171281528974E-01 a      1149     0    48     1    21
 -8.4588010559226906E-02 a      1150     0    48     1    22
 -7.9028189705633481E-02 a      1151     0    48     1    23
 -2.4035837253773837E-01 a      1152     0    48     1    24
  5.0632707723891120E-02 a      1153     0    49     1     1
 -1.3186868278756449E-02 a      1154     0    49     1     2
 -4.9785059030308720E-02 a      1155     0    49     1     3
 -6.9464853473543281E-02 a      1156     0    49     1     4
  7.1256032127689078E-02 a      1157     0    49     1     5
 -4.4518467350829677E-02 a      1158     0    49     1     6
  1.3189314682855164E-02 a      1159     0    49     1     7
  1.9037720286245111E-01 a      1160     0    49     1     8
 -4.2372806383407617E-02 a      1161     0    49     1     9
  3.2422439288268950E-01 a      1162     0    49     1    10
 -5.1248820084802658E-03 a      1163     0    49     1    11
  1.2687165448280729E-01 a      1164     0    49     1    12
 -1.8255465792118672E-01 a      1165     0    49     1    13
 -5.7111982278152437E-02 a      1166     0    49     1    14
  6.6146254005263153E-02 a      1167     0    49     1    15
 -1.9725669712689503E-01 a      1168     0    49     1    16
 -2.5558455954346354E-01 a      1169     0    49     1    17
 -1.1615882812229283E-01 a      1170     0    49     1    18
 -1.6046076780452670E-01 a      1171     0    49     1    19
  7.2249288571681301E-03 a      1172     0    49     1    20
 -1.3028931994613918E-01 a      1173     0    49     1    21
 -1.1968994754132762E-02 a      1174     0    49     1    22
 -1.1538773463846817E-01 a      1175     0    49     1    23
  5.8361531209295938E-03 a      1176     0    49     1    24
  1.2530006359825677E-01 a      1177     0    50     1     1
 -1.0199723271341872E-01 a      1178     0    50     1     2
 -1.0657294726151684E-01 a      1179     0    50     1     3
 -4.1066696370310074E-02 a      1180     0    50     1     4
  8.5216509757944023E-02 a      1181     0    50     1     5
  1.2205808385291858E-01 a      1182     0    50     1     6
 -3.1355358116585651E-03 a      1183     0    50     1     7
  2.7585704044662578E-02 a      1184     0    50     1     8
 -6.2528566153265089E-02 a      1185     0    50     1     9
 -3.2715269232366215E-04 a      1186     0    50     1    10
 -2.4565011515947904E-01 a      1187     0    50     1    11
 -8.8691165313929954E-02 a      1188     0    50     1    12
  2.6083793091041724E-01 a      1189     0    50     1    13
 -1.2315788856176629E-01 a      1190     0    50     1    14
 -3.1118265750663236E-02 a      1191     0    50     1    15
  9.6481828021391158E-02 a      1192     0    50     1    16
  1.2816533828598653E-01 a      1193     0    50     1    17
  7.8455398930447243E-02 a      1194     0    50     1    18
  1.7764748934107852E-01 a      1195     0    50     1    19
 -1.1771246468284835E-01 a      1196     0    50     1    20
 -6.3992098701305296E-03 a      1197     0    50     1    21
  1.1061675272601611E-02 a      1198     0    50     1    22
 -1.5466935576954227E-01 a      1199     0    50     1    23
  4.6092898634710520E-02 a      1200     0    50     1    24
 -4.5801445897860227E-02 a      1201     0    51     1     1
 -2.7184094767765404E-01 a      1202     0    51     1     2
  4.9717750257143468E-03 a      1203     0    51     1     3
 -1.2302466232210474E-01 a      1204     0    51     1     4
  6.8951120781962352E-03 a      1205     0    51     1     5
  1.0430969269738588E-01 a      1206     0    51     1     6
 -2.6677561270818362E-01 a      1207     0    51     1     7
  2.0132723963708854E-01 a      1208     0    51     1     8
  3.8573085657297113E-01 a      1209     0    51     1     9
 -2.1691119529048297E-01 a      1210     0    51     1    10
  1.9925869718752190E-01 a      1211     0    51     1    11
  1.8602418295993103E-01 a      1212     0    51     1    12
  4.0196179270525621E-02 a      1213     0    51     1    13
 -1.2955785119610356E-02 a      1214     0    51     1    14
  1.7804921100309359E-01 a      1215     0    51     1    15
 -7.9427636949434693E-02 a      1216     0    51     1    16
 -1.0837104780085718E-01 a      1217     0    51     1    17
  4.1658239289545838E-02 a      1218     0    51     1    18
  2.0476143359065505E-02 a      1219     0    51     1    19
  4.4856106991668053E-03 a      1220     0    51     1    20
  2.5503444970687789E-01 a      1221     0    51     1    21
  8.6050468102805672E-02 a      1222     0    51     1    22
  2.7498050817851488E-01 a      1223     0    51     1    23
 -3.7317925551282205E-01 a      1224     0    51     1    24
 -2.3469295113426661E-01 a      1225     0    52     1     1
 -1.1970814834731157E-01 a      1226     0    52     1     2
 -1.2546661764232584E-04 a      1227     0    52     1     3
  7.4033769780980085E-02 a      1228     0    52     1     4
 -5.8606841092029620E-02 a      1229     0    52     1     5
 -9.1342344670876222E-02 a      1230     0    52     1     6
  1.3717597564901154E-01 a      1231     0    52     1     7
  1.4945680477828813E-01 a      1232     0    52     1     8
 -1.0794055651299411E-01 a      1233     0    52     1     9
 -6.0425013975112282E-02 a      1234     0    52     1    10
 -3.3292293069790029E-02 a      1235     0    52     1    11
 -4.1963157971696675E-02 a      1236     0    52     1    12
  4.9159301779436435E-02 a      1237     0    52     1    13
  2.4154173178141039E-01 a      1238     0    52     1    14
 -1.5016342751987016E-01 a      1239     0    52     1    15
  1.7041916889770375E-01 a      1240     0    52     1    16
  1.3569991199527433E-02 a      1241     0    52     1    17
  8.4842026680338849E-03 a      1242     0    52     1    18
 -2.9392728325555718E-02 a      1243     0    52     1    19
  1.9227211891076391E-02 a      1244     0    52     1    20
  1.1275115465125841E-01 a      1245     0    52     1    21
 -1.0672636258216049E-01 a      1246     0    52     1    22
 -9.0669245068972115E-02 a      1247     0    52     1    23
 -3.8722657864901124E-02 a      1248     0    52     1    24
  1.0774672373653200E-01 a      1249     0    53     1     1
  8.1831972546521900E-02 a      1250     0    53     1     2
  7.0005371853260417E-02 a      1251     0    53     1     3
 -3.7020204190545809E-02 a      1252     0    53     1     4
 -7.5463964452411450E-02 a      1253     0    53     1     5
 -1.3834836878049242E-01 a      1254     0    53     1     6
  6.3709750560276945E-02 a      1255     0    53     1     7
  1.7228055915503485E-01 a      1256     0    53     1     8
 -1.1274402888159654E-01 a      1257     0    53     1     9
 -1.2461624923925332E-01 a      1258     0    53     1    10
  1.6401541144653854E-02 a      1259     0    53     1    11
  4.1225756654961490E-02 a      1260     0    53     1    12
 -8.2045680197532805E-02 a      1261     0    53     1    13
 -1.5481783517002599E-03 a      1262     0    53     1    14
  1.1094517456432849E-01 a      1263     0    53     1    15
  9.4054558268867050E-02 a      1264     0    53     1    16
  1.0712942977239120E-01 a      1265     0    53     1    17
 -2.6608754987877098E-02 a      1266     0    53     1    18
 -8.1599526145234511E-02 a      1267     0    53     1    19
 -9.8509501934391550E-02 a      1268     0    53     1    20
 -1.4998348855987620E-01 a      1269     0    53     1    21
  4.2406417900962036E-03 a      1270     0    53     1    22
  2.9790863900296279E-02 a      1271     0    53     1    23
 -3.1687689487494765E-02 a      1272     0    53     1    24
 -5.6833298409357656E-02 a      1273     0    54     1     1
 -1.6953172408015296E-01 a      1274     0    54     1     2
 -2.0355057915318103E-01 a      1275     0    54     1     3
 -8.8393788902646042E-02 a      1276     0    54     1     4
  1.1019647700245318E-01 a      1277     0    54     1     5
 -5.0723977518389668E-02 a      1278     0    54     1     6
 -1.2947483717749286E-01 a      1279     0    54     1     7
 -8.0633629184446026E-02 a      1280     0    54     1     8
  9.8433935741843087E-02 a      1281     0    54     1     9
  1.1696510777237770E-01 a      1282     0    54     1    10
  1.4995484421844718E-01 a      1283     0    54     1    11
  3.2299004538572512E-02 a      1284     0    54     1    12
 -4.2731133435903110E-02 a      1285     0    54     1    13
  1.7910439032923945E-02 a      1286     0    54     1    14
  1.8375917750864595E-01 a      1287     0    54     1    15
 -2.3485858910473566E-02 a      1288     0    54     1    16
  4.6570078006767060E-02 a      1289     0    54     1    17
  9.9578851886376440E-02 a      1290     0    54     1    18
  1.4742879906492690E-01 a      1291     0    54     1    19
  7.2961064102871273E-02 a      1292     0    54     1    20
  8.3804727208571482E-03 a      1293     0    54     1    21
  9.8380422849609600E-02 a      1294     0    54     1    22
  3.4808946523706509E-02 a      1295     0    54     1    23
 -1.8413496222152964E-01 a      1296     0    54     1    24
 -2.5721742013481391E-03 a      1297     0    55     1     1
  1.4482821173951131E-02 a      1298     0    55     1     2
  1.6952667648781133E-01 a      1299     0    55     1     3
 -1.1312310451956691E-01 a      1300     0    55     1     4
  1.2258283673851798E-01 a      1301     0    55     1     5
  2.2334573825906442E-01 a      1302     0    55     1     6
 -2.7992249261775909E-01 a      1303     0    55     1     7
  9.5068472441421553E-02 a      1304     0    55     1     8
  1.8469877116638456E-01 a      1305     0    55     1     9
 -1.6099914160018725E-01 a      1306     0    55     1    10
  2.0096571124979640E-01 a      1307     0    55     1    11
  2.1506130656833367E-01 a      1308     0    55     1    12
  1.4028792872544193E-01 a      1309     0    55     1    13
 -1.8147455678271096E-01 a      1310     0    55     1    14
  2.9301460045011416E-02 a      1311     0    55     1    15
  1.6003714047234177E-01 a      1312     0    55     1    16
  2.7435003518863802E-02 a      1313     0    55     1    17
 -1.3336483799016363E-01 a      1314     0    55     1    18
 -1.7676489925432726E-01 a      1315     0    55     1    19
  4.9006129698191535E-02 a      1316     0    55     1    20
 -1.4605585724498868E-02 a      1317     0    55     1    21
 -8.9231953283010798E-02 a      1318     0    55     1    22
 -1.0657072083538810E-02 a      1319     0    55     1    23
  1.0896229461661434E-01 a      1320     0    55     1    24
 -2.3834120570010751E-02 a      1321     0    56     1     1
  2.0158438342151255E-01 a      1322     0    56     1     2
 -1.1443180621522839E-01 a      1323     0    56     1     3
 -1.9313614866005682E-01 a      1324     0    56     1     4
  3.8757665685247472E-01 a      1325     0    56     1     5
  2.1814377392282297E-01 a      1326     0    56     1     6
  2.2449523183751496E-01 a      1327     0    56     1     7
 -5.5127573414458321E-02 a      1328     0    56     1     8
 -1.1283360439863373E-01 a      1329     0    56     1     9
 -7.6056220694627932E-02 a      1330     0    56     1    10
 -1.5286228756323625E-01 a      1331     0    56     1    11
 -3.2471344190148399E-01 a      1332     0    56     1    12
 -9.3480922624318813E-02 a      1333     0    56     1    13
  8.9497439180946797E-02 a      1334     0    56     1    14
 -1.6780840922015300E-01 a      1335     0    56     1    15
  1.0184596888474798E-01 a      1336     0    56     1    16
 -1.6996520289168729E-01 a      1337     0    56     1    17
  1.0632479125250716E-01 a      1338     0    56     1    18
 -1.2509991385451186E-01 a      1339     0    56     1    19
  2.0213153868626432E-01 a      1340     0    56     1    20
 -2.8352598175721716E-01 a      1341     0    56     1    21
 -1.5319004328849639E-02 a      1342     0    56     1    22
 -2.0378405295513791E-01 a      1343     0    56     1    23
 -1.7537856958135928E-01 a      1344     0    56     1    24
 -2.0002278545087848E-02 a      1345     0    57     1     1
  5.5954115783536075E-02 a      1346     0    57     1     2
  8.9012583040659107E-02 a      1347     0    57     1     3
 -1.2585564431003848E-01 a      1348     0    57     1     4
 -1.0872870083484516E-01 a      1349     0    57     1     5
  9.0564174452926430E-02 a      1350     0    57     1     6
 -3.8980886992862640E-01 a      1351     0    57     1     7
  1.0430973482031794E-01 a      1352     0    57     1     8
  1.0545557046497672E-01 a      1353     0    57     1     9
 -2.5753712002249685E-01 a      1354     0    57     1    10
 -6.3960036802891848E-02 a      1355     0    57     1    11
 -2.7396895049939052E-01 a      1356     0    57     1    12
  1.2520050013985510E-02 a      1357     0    57     1    13
 -2.7761300743252465E-01 a      1358     0    57     1    14
  3.4329443864304456E-02 a      1359     0    57     1    15
  1.2601378102868402E-01 a      1360     0    57     1    16
 -1.9473300160744803E-01 a      1361     0    57     1    17
  2.4266223940239265E-02 a      1362     0    57     1    18
  5.7952112725320901E-02 a      1363     0    57     1    19
 -2.3635430871561275E-01 a      1364     0    57     1    20
  8.6532362968781643E-03 a      1365     0    57     1    21
  1.0827481490485003E-01 a      1366     0    57     1    22
  1.0280146186748518E-01 a      1367     0    57     1    23
 -1.1531230585130924E-01 a      1368     0    57     1    24
 -1.6000689425876893E-01 a      1369     0    58     1     1
 -1.0059853335932744E-02 a      1370     0    58     1     2
  1.4343125892551918E-02 a      1371     0    58     1     3
 -2.0429105195447467E-02 a      1372     0    58     1     4
  3.9402079121510135E-02 a      1373     0    58     1     5
 -6.5325549789127628E-03 a      1374     0    58     1     6
  8.4570370064037101E-02 a      1375     0    58     1     7
 -2.3315891852372060E-03 a      1376     0    58     1     8
 -1.6101728402618024E-01 a      1377     0    58     1     9
  1.1190952524689572E-01 a      1378     0    58     1    10
  2.2447583059102130E-02 a      1379     0    58     1    11
  1.0967986005787093E-01 a      1380     0    58     1    12
 -3.5077717368495243E-02 a      1381     0    58     1    13
 -1.7138946364877426E-02 a      1382     0    58     1    14
 -5.8049309680602422E-02 a      1383     0    58     1    15
  1.4265838320910293E-01 a      1384     0    58     1    16
 -8.1624164952227365E-02 a      1385     0    58     1    17
  1.3144809393205248E-01 a      1386     0    58     1    18
  1.6060964833634447E-01 a      1387     0    58     1    19
  1.2505872290928630E-03 a      1388     0    58     1    20
  8.9390494690673436E-02 a      1389     0    58     1    21
  2.1085880896108403E-01 a      1390     0    58     1    22
 -3.8066909936379657E-02 a      1391     0    58     1    23
  1.5270245590641074E-01 a      1392     0    58     1    24
  7.1562891566984338E-02 a      1393     0    59     1     1
  1.7922837411283471E-01 a      1394     0    59     1     2
 -5.2303611278058965E-02 a      1395     0    59     1     3
  5.5103447051030197E-03 a      1396     0    59     1     4
  1.7297220318820708E-01 a      1397     0    59     1     5
  2.2754458960589821E-02 a      1398     0    59     1     6
  5.4049844772861649E-02 a      1399     0    59     1     7
 -6.0010857870767174E-02 a      1400     0    59     1     8
 -5.4805164999143167E-02 a      1401     0    59     1     9
 -8.4485467814529785E-02 a      1402     0    59     1    10
 -2.7547526172132620E-02 a      1403     0    59     1    11
  1.4746378565093540E-01 a      1404     0    59     1    12
  1.7168689324983641E-01 a      1405     0    59     1    13
  8.1192523042112788E-02 a      1406     0    59     1    14
 -8.0554638785926710E-02 a      1407     0    59     1    15
 -4.0103634195902918E-02 a      1408     0    59     1    16
  1.0796402458767050E-02 a      1409     0    59     1    17
 -2.0878606768731541E-02 a      1410     0    59     1    18
 -1.4559182108749286E-01 a      1411     0    59     1    19
  1.9173684989480508E-01 a      1412     0    59     1    20
 -2.5999317010556505E-01 a      1413     0    59     1    21
  7.7909947517257730E-02 a      1414     0    59     1    22
 -6.3679986908023678E-02 a      1415     0    59     1    23
  1.4356988438405552E-01 a      1416     0    59     1    24
  1.0103646128174981E-01 a      1417     0    60     1     1
  8.0902673902986347E-02 a      1418     0    60     1     2
  1.0265653140050308E-01 a      1419     0    60     1     3
 -4.2461358826429506E-02 a      1420     0    60     1     4
  1.1450259516153877E-02 a      1421     0    60     1     5
  8.4476082923494206E-02 a      1422     0    60     1     6
 -4.8468025046936002E-02 a      1423     0    60     1     7
  1.0070918104485008E-01 a      1424     0    60     1     8
 -9.1729407947027677E-02 a      1425     0    60     1     9
 -8.9763400060761653E-02 a      1426     0    60     1    10
 -5.9824608817051428E-02 a      1427     0    60     1    11
 -1.2078622144733066E-01 a      1428     0    60     1    12
  1.3226628473581178E-01 a      1429     0    60     1    13
  1.2835505032761124E-01 a      1430     0    60     1    14
 -1.3887051232562445E-01 a      1431     0    60     1    15
 -9.7258933745746332E-02 a      1432     0    60     1    16
  6.9066463250837637E-02 a      1433     0    60     1    17
  5.7850532099987416E-03 a      1434     0    60     1    18
 -1.5632983291877380E-02 a      1435     0    60     1    19
  1.2605111241731162E-01 a      1436     0    60     1    20
 -1.9982162858841423E-02 a      1437     0    60     1    21
  7.5459366643310016E-02 a      1438     0    60     1    22
  8.0026344734987043E-02 a      1439     0    60     1    23
  1.6143560527715758E-02 a      1440     0    60     1    24
 -1.3551605098138872E-01 a      1441     0    61     1     1
 -3.1569599275959967E-02 a      1442     0    61     1     2
 -2.2352379962153494E-02 a      1443     0    61     1     3
  9.3066653057513105E-02 a      1444     0    61     1     4
 -1.7232522128542485E-01 a      1445     0    61     1     5
 -9.7784988434874237E-02 a      1446     0    61     1     6
  1.6622634884574702E-02 a      1447     0    61     1     7
 -2.2432392677732590E-01 a      1448     0    61     1     8
  2.1424905239415104E-01 a      1449     0    61     1     9
  1.5208381793259412E-01 a      1450     0    61     1    10
 -9.2934614646883948E-02 a      1451     0    61     1    11
  7.1570411463098282E-02 a      1452     0    61     1    12
  6.8514325731075978E-02 a      1453     0    61     1    13
  1.5488979156812838E-01 a      1454     0    61     1    14
 -8.7477316057799001E-02 a      1455     0    61     1    15
  5.7751943647686002E-02 a      1456     0    61     1    16
  5.2459440462207671E-02 a      1457     0    61     1    17
 -1.2404714577104968E-01 a      1458     0    61     1    18
  1.7317112179494693E-01 a      1459     0    61     1    19
 -2.0657573470757110E-01 a      1460     0    61     1    20
 -9.6786551276795488E-02 a      1461     0    61     1    21
 -5.5079889733522881E-02 a      1462     0    61     1    22
 -2.2570378850664270E-02 a      1463     0    61     1    23
 -1.1164855768964245E-01 a      1464     0    61     1    24
  3.0401744887657005E-02 a      1465     0    62     1     1
 -1.4731910571955248E-01 a      1466     0    62     1     2
  1.4747684667465841E-01 a      1467     0    62     1     3
 -3.1057675977840968E-02 a      1468     0    62     1     4
  1.7352627783564209E-01 a      1469     0    62     1     5
  6.8297279996059584E-02 a      1470     0    62     1     6
 -1.1314942083917649E-01 a      1471     0    62     1     7
  1.4250412833044271E-01 a      1472     0    62     1     8
  8.6458453692234344E-02 a      1473     0    62     1     9
 -1.6184357844274588E-01 a      1474     0    62     1    10
  1.8138502791710104E-01 a      1475     0    62     1    11
 -6.1535474432777341E-02 a      1476     0    62     1    12
  1.0013276419816292E-01 a      1477     0    62     1    13
 -2.2859050021199184E-01 a      1478     0    62     1    14
 -2.0516522859061262E-01 a      1479     0    62     1    15
  1.4958307920645975E-01 a      1480     0    62     1    16
  5.6288440265904613E-02 a      1481     0    62     1    17
 -3.4533188189080216E-02 a      1482     0    62     1    18
 -8.4134099497120765E-02 a      1483     0    62     1    19
 -3.5633052235733379E-03 a      1484     0    62     1    20
  1.6349001458442297E-01 a      1485     0    62     1    21
  4.7187887237410138E-02 a      1486     0    62     1    22
  5.7236896300952869E-02 a      1487     0    62     1    23
 -4.0293650740739574E-02 a      1488     0    62     1    24
  1.5785993001635956E-01 a      1489     0    63     1     1
  1.6051310796080753E-02 a      1490     0    63     1     2
 -1.2910317848510020E-01 a      1491     0    63     1     3
 -1.2081013207079616E-01 a      1492     0    63     1     4
  9.8430024972423202E-02 a      1493     0    63     1     5
 -1.3751700158070343E-01 a      1494     0    63     1     6
  4.6793887540156787E-01 a      1495     0    63     1     7
  1.7583179064574267E-01 a      1496     0    63     1     8
 -1.9188285496553284E-02 a      1497     0    63     1     9
  4.2002928125684519E-01 a      1498     0    63     1    10
  1.3021284044400150E-01 a      1499     0    63     1    11
  1.2623733472109612E-02 a      1500     0    63     1    12
  1.2436777619208877E-01 a      1501     0    63     1    13
  2.1738711180212403E-01 a      1502     0    63     1    14
 -3.0110515900001705E-01 a      1503     0    63     1    15
 -2.5628805901305479E-01 a      1504     0    63     1    16
  5.3216399713354699E-02 a      1505     0    63     1    17
 -4.7736091018836392E-02 a      1506     0    63     1    18
 -6.1100814181546809E-02 a      1507     0    63     1    19
  2.4636768763989417E-01 a      1508     0    63     1    20
 -7.9892140841924475E-02 a      1509     0    63     1    21
  1.2037706168813270E-01 a      1510     0    63     1    22
 -2.0122776462772143E-01 a      1511     0    63     1    23
 -7.5030335863458643E-03 a      1512     0    63     1    24
  4.0087645948042032E-02 a      1513     0    64     1     1
  9.7582639149085687E-02 a      1514     0    64     1     2
 -7.4963033816983007E-02 a      1515     0    64     1     3
  1.7455153475307977E-01 a      1516     0    64     1     4
  5.7138289649955952E-02 a      1517     0    64     1     5
 -1.1251997047922888E-01 a      1518     0    64     1     6
  4.4168950823226090E-02 a      1519     0    64     1     7
 -2.0233963686663012E-01 a      1520     0    64     1     8
 -5.5243420399884689E-02 a      1521     0    64     1     9
  1.0983859366052716E-01 a      1522     0    64     1    10
  7.3572117083156488E-02 a      1523     0    64     1    11
  1.6989041833941129E-01 a      1524     0    64     1    12
 -1.2062490861381786E-01 a      1525     0    64     1    13
  9.6011420939875067E-02 a      1526     0    64     1    14
  6.2545897108508164E-02 a      1527     0    64     1    15
 -1.6217373504697730E-01 a      1528     0    64     1    16
  8.3937061481769673E-02 a      1529     0    64     1    17
  1.9783471383293574E-01 a      1530     0    64     1    18
 -7.6152217328778261E-04 a      1531     0    64     1    19
 -1.9005933952677835E-03 a      1532     0    64     1    20
  2.2952064280018591E-01 a      1533     0    64     1    21
  9.6057195627252276E-02 a      1534     0    64     1    22
 -1.2096021781638923E-01 a      1535     0    64     1    23
  7.9018536269255410E-02 a      1536     0    64     1    24
  1.8716686167262075E-01 a      1537     0    65     1     1
  1.2649719314321353E-01 a      1538     0    65     1     2
 -2.1036618873060681E-01 a      1539     0    65     1     3
  8.7636988229722587E-02 a      1540     0    65     1     4
  1.2586877870292335E-01 a      1541     0    65     1     5
 -5.4211586905128062E-02 a      1542     0    65     1     6
  2.9150129396062535E-01 a      1543     0    65     1     7
 -1.7524780592030112E-01 a      1544     0    65     1     8
  8.5833268306733088E-02 a      1545     0    65     1     9
 -6.1218250393951519E-02 a      1546     0    65     1    10
  3.3055658270415678E-02 a      1547     0    65     1    11
  3.0486446588176691E-01 a      1548     0    65     1    12
  1.1099537064968849E-01 a      1549     0    65     1    13
 -2.7788730519620669E-01 a      1550     0    65     1    14
 -1.9646239332983503E-01 a      1551     0    65     1    15
  1.2722740067927611E-02 a      1552     0    65     1    16
 -2.9066335948741792E-02 a      1553     0    65     1    17
  3.8483906756957023E-02 a      1554     0    65     1    18
  1.0067888703006568E-01 a      1555     0    65     1    19
 -1.2445277696083801E-02 a      1556     0    65     1    20
  9.1461730414239772E-02 a      1557     0    65     1    21
  3.0998342618778185E-01 a      1558     0    65     1    22
 -2.0578371275430238E-01 a      1559     0    65     1    23
  1.0635942447639228E-02 a      1560     0    65     1    24
 -4.7672817667344741E-02 a      1561     0    66     1     1
 -9.1384085144842558E-02 a      1562     0    66     1     2
 -2.0101218071831328E-01 a      1563     0    66     1     3
  8.4590666624648675E-02 a      1564     0    66     1     4
  1.1497073778933971E-01 a      1565     0    66     1     5
 -8.5634858760113453E-02 a      1566     0    66     1     6
  9.5710431207720770E-02 a      1567     0    66     1     7
 -1.9386477569678869E-02 a      1568     0    66     1     8
 -1.3910413775211564E-01 a      1569     0    66     1     9
  1.4151267335919886E-02 a      1570     0    66     1    10
  1.0297553076066965E-01 a      1571     0    66     1    11
 -3.2492713653582911E-01 a      1572     0    66     1    12
  1.1525946378861715E-01 a      1573     0    66     1    13
  8.4566868712399407E-02 a      1574     0    66     1    14
  7.0716351347812380E-03 a      1575     0    66     1    15
 -1.3115004269394967E-01 a      1576     0    66     1    16
  9.8936046391351187E-02 a      1577     0    66     1    17
  7.0202050796771475E-03 a      1578     0    66     1    18
 -2.1721363896633875E-02 a      1579     0    66     1    19
  1.7763508698019423E-01 a      1580     0    66     1    20
  1.7030243253319959E-02 a      1581     0    66     1    21
 -3.3453836138647469E-02 a      1582     0    66     1    22
 -1.2999434515538649E-01 a      1583     0    66     1    23
  5.1718288650832972E-02 a      1584     0    66     1    24
  1.8125886947688891E-01 a      1585     0    67     1     1
 -2.1449866089756245E-01 a      1586     0    67     1     2
 -7.7538483585195994E-02 a      1587     0    67     1     3
 -4.4306372794715096E-02 a      1588     0    67     1     4
 -7.9747958889455628E-02 a      1589     0    67     1     5
 -9.3473049491211782E-02 a      1590     0    67     1     6
  2.6007532921508114E-01 a      1591     0    67     1     7
  2.6422432079477154E-01 a      1592     0    67     1     8
 -9.3621862288519597E-02 a      1593     0    67     1     9
  2.3043267683815324E-01 a      1594     0    67     1    10
  7.6404101596433543E-02 a      1595     0    67     1    11
 -6.4555443227492446E-02 a      1596     0    67     1    12
 -1.0016666610115091E-01 a      1597     0    67     1    13
  2.9090605319490145E-02 a      1598     0    67     1    14
 -4.2085854839751385E-02 a      1599     0    67     1    15
  9.8577868644782254E-02 a      1600     0    67     1    16
  1.0025219660425816E-01 a      1601     0    67     1    17
  3.0562800254402761E-01 a      1602     0    67     1    18
  2.1255286334081319E-01 a      1603     0    67     1    19
  3.0424842323877516E-02 a      1604     0    67     1    20
 -2.1855935316598565E-01 a      1605     0    67     1    21
  7.2250109275169394E-02 a      1606     0    67     1    22
 -2.6377442278209301E-01 a      1607     0    67     1    23
  1.8451943905425328E-01 a      1608     0    67     1    24
  5.2051779344886175E-02 a      1609     0    68     1     1
 -1.4761775599692842E-01 a      1610     0    68     1     2
  3.0169924218958501E-02 a      1611     0    68     1     3
  1.1500429795356548E-01 a      1612     0    68     1     4
 -3.3274394520867272E-02 a      1613     0    68     1     5
 -6.4179235189254946E-02 a      1614     0    68     1     6
  2.1853495193546721E-01 a      1615     0    68     1     7
  9.4692575995220685E-02 a      1616     0    68     1     8
  1.5020863026770792E-01 a      1617     0    68     1     9
 -5.5230038516722951E-02 a      1618     0    68     1    10
  4.8379073628355140E-02 a      1619     0    68     1    11
 -2.1737059238638282E-02 a      1620     0    68     1    12
 -1.7024828587756277E-01 a      1621     0    68     1    13
  3.0005969036597274E-02 a      1622     0    68     1    14
 -2.6317338660281304E-02 a      1623     0    68     1    15
