################################################################################
# Neural network connection values (weights and biases).
################################################################################
# Col  Name       Description
################################################################################
# 1    connection Neural network connection value.
# 2    t          Connection type (a = weight, b = bias).
# 3    index      Index enumerating weights.
# 4    l_s        Starting point layer (end point layer for biases).
# 5    n_s        Starting point neuron in starting layer (end point neuron for biases).
# 6    l_e        End point layer.
# 7    n_e        End point neuron in end layer.
################################################################################
#                      1 2         3     4     5     6     7
#             connection t     index   l_s   n_s   l_e   n_e
############################################################
 -6.0913547609604296E-02 a         1     0     1     1     1
 -7.8264648690343538E-02 a         2     0     1     1     2
 -9.3965114475323297E-02 a         3     0     1     1     3
  3.2024181861806567E-01 a         4     0     1     1     4
  9.7916191220859712E-03 a         5     0     1     1     5
  1.1304558046317978E-01 a         6     0     1     1     6
 -4.3331099643640847E-02 a         7     0     1     1     7
  1.3435857070560378E-01 a         8     0     1     1     8
  4.2472674770894355E-03 a         9     0     1     1     9
 -9.5549780790121289E-02 a        10     0     1     1    10
  8.7359134734068353E-02 a        11     0     1     1    11
 -1.6543772683538160E-01 a        12     0     1     1    12
 -6.5363771416715108E-02 a        13     0     1     1    13
 -1.8775586017473415E-02 a        14     0     1     1    14
  6.7754107851425355E-02 a        15     0     1     1    15
 -2.8186542649821948E-02 a        16     0     1     1    16
 -8.6162915281464428E-02 a        17     0     1     1    17
  3.5213459882442844E-02 a        18     0     1     1    18
 -8.5762868193002689E-02 a        19     0     1     1    19
 -1.6458770399017816E-01 a        20     0     1     1    20
 -6.1609110867489034E-02 a        21     0     1     1    21
 -1.4986784048903920E-01 a        22     0     1     1    22
 -1.3318625818149332E-02 a        23     0     1     1    23
  1.7369493410843925E-01 a        24     0     1     1    24
  5.9937658803272668E-02 a        25     0     2     1     1
  2.5795963321749330E-02 a        26     0     2     1     2
 -1.4585673228067889E-01 a        27     0     2     1     3
  1.4478605334071403E-02 a        28     0     2     1     4
 -1.0706371779653244E-01 a        29     0     2     1     5
 -1.7442570213333503E-01 a        30     0     2     1     6
 -1.6553825148154300E-03 a        31     0     2     1     7
  1.1655443854340658E-01 a        32     0     2     1     8
 -9.8427173480725119E-02 a        33     0     2     1     9
 -3.8353252271171012E-01 a        34     0     2     1    10
 -2.3359424268745432E-02 a        35     0     2     1    11
 -1.8485610104387509E-02 a        36     0     2     1    12
 -1.6304584495597386E-02 a        37     0     2     1    13
 -1.1891787878435209E-01 a        38     0     2     1    14
 -7.0840095173381199E-03 a        39     0     2     1    15
 -1.3402300740861300E-01 a        40     0     2     1    16
  1.5623306300109871E-01 a        41     0     2     1    17
  7.0735662701974485E-03 a        42     0     2     1    18
 -2.5599391726734880E-02 a        43     0     2     1    19
  1.8132029495817964E-02 a        44     0     2     1    20
 -6.5314215164079287E-02 a        45     0     2     1    21
  1.8655532663165955E-01 a        46     0     2     1    22
 -2.0743060196030186E-02 a        47     0     2     1    23
  3.4393427180411489E-02 a        48     0     2     1    24
  1.4991789989884327E-02 a        49     0     3     1     1
  1.3628711998710455E-01 a        50     0     3     1     2
  1.7162073646517107E-02 a        51     0     3     1     3
  1.0415865000295578E-01 a        52     0     3     1     4
 -7.8401008145486173E-02 a        53     0     3     1     5
 -5.0498358913241538E-02 a        54     0     3     1     6
 -6.4247201231523332E-02 a        55     0     3     1     7
 -3.3141558331309849E-02 a        56     0     3     1     8
  5.0372496298702649E-02 a        57     0     3     1     9
 -9.3144495963834936E-02 a        58     0     3     1    10
  1.8480318772330404E-02 a        59     0     3     1    11
  3.8283054438208383E-02 a        60     0     3     1    12
  1.2150839159382201E-01 a        61     0     3     1    13
 -2.1677460050349134E-01 a        62     0     3     1    14
 -4.5984641856212802E-02 a        63     0     3     1    15
 -5.8923500418746749E-02 a        64     0     3     1    16
  1.8539120006165862E-02 a        65     0     3     1    17
  3.8462616967097511E-02 a        66     0     3     1    18
 -8.6792595733455463E-02 a        67     0     3     1    19
  4.7291232715602087E-02 a        68     0     3     1    20
 -3.3891482393509219E-02 a        69     0     3     1    21
  9.1706405541605279E-02 a        70     0     3     1    22
 -2.8686852226209775E-02 a        71     0     3     1    23
  2.5475673721199580E-02 a        72     0     3     1    24
 -7.7121095430984860E-02 a        73     0     4     1     1
 -1.2508491541875827E-01 a        74     0     4     1     2
 -3.3068655879339631E-01 a        75     0     4     1     3
 -5.6006285331938591E-02 a        76     0     4     1     4
  1.2960518782143216E-01 a        77     0     4     1     5
 -2.1041220079343584E-03 a        78     0     4     1     6
 -1.7201574319416463E-01 a        79     0     4     1     7
 -1.8634741237542390E-01 a        80     0     4     1     8
  1.2768349776204399E-01 a        81     0     4     1     9
  3.1604096426932397E-02 a        82     0     4     1    10
  2.5319969562072137E-01 a        83     0     4     1    11
  1.4278686669962029E-01 a        84     0     4     1    12
  1.7654869981448376E-01 a        85     0     4     1    13
 -2.2250926524815828E-01 a        86     0     4     1    14
 -1.9080704877241905E-01 a        87     0     4     1    15
  4.0872936461790889E-02 a        88     0     4     1    16
  7.6214006018542307E-02 a        89     0     4     1    17
  4.9365906032341950E-02 a        90     0     4     1    18
 -1.1362922676360176E-01 a        91     0     4     1    19
  1.0628485986148602E-01 a        92     0     4     1    20
  2.5185929685184301E-02 a        93     0     4     1    21
 -1.3445431246804682E-01 a        94     0     4     1    22
  6.7342460637106444E-02 a        95     0     4     1    23
 -7.7789617546564480E-02 a        96     0     4     1    24
 -1.8132070087897106E-02 a        97     0     5     1     1
  1.1358700033364508E-01 a        98     0     5     1     2
  4.3159622026294735E-03 a        99     0     5     1     3
  1.5647869800855410E-01 a       100     0     5     1     4
  3.5429303982982821E-03 a       101     0     5     1     5
 -5.8161242287676766E-02 a       102     0     5     1     6
 -9.2490442544620206E-03 a       103     0     5     1     7
  1.6168453985820976E-02 a       104     0     5     1     8
 -3.8164591349408201E-02 a       105     0     5     1     9
  1.3903028143638321E-01 a       106     0     5     1    10
 -1.5200361442397323E-01 a       107     0     5     1    11
  1.2604109602034991E-01 a       108     0     5     1    12
 -1.3713564463804528E-01 a       109     0     5     1    13
 -2.6726512105357469E-01 a       110     0     5     1    14
 -1.0530787416848281E-01 a       111     0     5     1    15
 -1.5318807721242234E-01 a       112     0     5     1    16
  3.6172431284247603E-02 a       113     0     5     1    17
  2.4149216461155552E-02 a       114     0     5     1    18
  7.8935897424637871E-02 a       115     0     5     1    19
 -4.7841754245659625E-02 a       116     0     5     1    20
 -1.0906650909295014E-01 a       117     0     5     1    21
  6.3589238589536832E-03 a       118     0     5     1    22
  3.9258776102684752E-02 a       119     0     5     1    23
 -1.6061484636601212E-01 a       120     0     5     1    24
 -6.2708818453970819E-02 a       121     0     6     1     1
  6.7597393557965596E-03 a       122     0     6     1     2
  6.6345603332394296E-02 a       123     0     6     1     3
  1.9884630850217236E-01 a       124     0     6     1     4
  1.4252853483749833E-01 a       125     0     6     1     5
  2.1712054162629554E-01 a       126     0     6     1     6
 -5.9150282914975594E-02 a       127     0     6     1     7
 -5.6781740181138511E-02 a       128     0     6     1     8
 -1.0163833946499398E-01 a       129     0     6     1     9
 -9.9581981295250185E-02 a       130     0     6     1    10
  1.2920570226657593E-01 a       131     0     6     1    11
  2.3045417077752756E-01 a       132     0     6     1    12
  1.8748143319666105E-01 a       133     0     6     1    13
  7.7362441369052029E-02 a       134     0     6     1    14
 -1.6780204068826268E-01 a       135     0     6     1    15
 -1.3931534829857237E-01 a       136     0     6     1    16
  1.8604779191711734E-01 a       137     0     6     1    17
  3.3461791771892990E-01 a       138     0     6     1    18
 -1.2900141242606569E-01 a       139     0     6     1    19
 -7.3449904495356419E-02 a       140     0     6     1    20
  5.4228994974053861E-02 a       141     0     6     1    21
 -2.1078037810781036E-01 a       142     0     6     1    22
 -5.6055469217843141E-03 a       143     0     6     1    23
 -2.2744792199537978E-01 a       144     0     6     1    24
  1.6598619423951419E-01 a       145     0     7     1     1
 -2.1422310751509016E-01 a       146     0     7     1     2
  1.4820200505724401E-01 a       147     0     7     1     3
  6.4530531926077800E-02 a       148     0     7     1     4
 -1.2235696453080053E-01 a       149     0     7     1     5
  1.2780470767983254E-01 a       150     0     7     1     6
  1.8155785549601344E-01 a       151     0     7     1     7
  1.6582866092757798E-01 a       152     0     7     1     8
 -5.0896084263914393E-04 a       153     0     7     1     9
 -1.1450123893824225E-03 a       154     0     7     1    10
 -6.4515959700460229E-02 a       155     0     7     1    11
  4.5435918828122854E-02 a       156     0     7     1    12
 -1.1997333105001869E-01 a       157     0     7     1    13
 -6.6459527430928131E-02 a       158     0     7     1    14
 -1.4265742077051366E-01 a       159     0     7     1    15
 -9.4475094379603608E-02 a       160     0     7     1    16
  8.0604491202528800E-02 a       161     0     7     1    17
  1.0984265155603139E-01 a       162     0     7     1    18
  1.2696049720602262E-01 a       163     0     7     1    19
  1.8000321688507995E-01 a       164     0     7     1    20
 -1.5240879330755708E-01 a       165     0     7     1    21
  2.2208849597538938E-02 a       166     0     7     1    22
  1.1644869822985933E-01 a       167     0     7     1    23
 -1.7615127021758936E-01 a       168     0     7     1    24
  1.5688679778803630E-01 a       169     0     8     1     1
  1.7126161506970539E-01 a       170     0     8     1     2
  3.2434469624013856E-01 a       171     0     8     1     3
 -7.1837942803424440E-02 a       172     0     8     1     4
 -1.5049462166941649E-01 a       173     0     8     1     5
  3.3843687202901102E-01 a       174     0     8     1     6
  1.3164826365039861E-01 a       175     0     8     1     7
  2.4080311724966375E-01 a       176     0     8     1     8
 -1.4561866721176883E-01 a       177     0     8     1     9
  2.2276760638560081E-01 a       178     0     8     1    10
 -2.0943601188356975E-01 a       179     0     8     1    11
 -1.4647528726002770E-01 a       180     0     8     1    12
 -2.1839587685030884E-01 a       181     0     8     1    13
  5.1388421874315931E-03 a       182     0     8     1    14
  1.5490674869114493E-01 a       183     0     8     1    15
 -7.5622820424115630E-03 a       184     0     8     1    16
 -3.1706047000301185E-01 a       185     0     8     1    17
 -3.6766725922032290E-01 a       186     0     8     1    18
  1.2354835254236543E-01 a       187     0     8     1    19
  7.0848313337028316E-03 a       188     0     8     1    20
  8.5462879719803070E-02 a       189     0     8     1    21
  4.4604416755173092E-02 a       190     0     8     1    22
 -3.1027946438495074E-01 a       191     0     8     1    23
  1.4791045674629771E-01 a       192     0     8     1    24
 -1.3787780125404402E-02 a       193     0     9     1     1
  2.1425919752682682E-02 a       194     0     9     1     2
 -2.6291094387885617E-02 a       195     0     9     1     3
 -8.4491981655270276E-02 a       196     0     9     1     4
  1.1269202556513477E-01 a       197     0     9     1     5
  6.2924498045780252E-03 a       198     0     9     1     6
 -6.4249922238988608E-02 a       199     0     9     1     7
 -4.5757835995419181E-02 a       200     0     9     1     8
 -5.1457000670594902E-02 a       201     0     9     1     9
  1.4696182250280474E-02 a       202     0     9     1    10
  1.6089256987489320E-01 a       203     0     9     1    11
 -6.8920078956253988E-02 a       204     0     9     1    12
 -1.5183961887778130E-01 a       205     0     9     1    13
 -2.2011504076557466E-02 a       206     0     9     1    14
  7.8314370876260142E-02 a       207     0     9     1    15
 -2.8986655751300557E-02 a       208     0     9     1    16
  7.3114058570108206E-02 a       209     0     9     1    17
 -1.3372458962191805E-01 a       210     0     9     1    18
 -3.7268544176150879E-02 a       211     0     9     1    19
 -4.5859247690463401E-02 a       212     0     9     1    20
  2.6730993009116966E-02 a       213     0     9     1    21
 -3.8592329501812371E-02 a       214     0     9     1    22
 -3.2496264500957321E-02 a       215     0     9     1    23
 -1.4400925485165531E-01 a       216     0     9     1    24
  1.0256681066401825E-01 a       217     0    10     1     1
  1.4499811487486206E-01 a       218     0    10     1     2
 -5.3609898412960121E-02 a       219     0    10     1     3
 -9.7882507869263030E-02 a       220     0    10     1     4
  5.2424006860969152E-02 a       221     0    10     1     5
 -9.3322041205626899E-02 a       222     0    10     1     6
 -1.1850949287702026E-01 a       223     0    10     1     7
  2.0160089306552420E-01 a       224     0    10     1     8
  9.7263828493521609E-02 a       225     0    10     1     9
 -1.6130618942809200E-01 a       226     0    10     1    10
 -2.0147640030081648E-01 a       227     0    10     1    11
 -2.5236180718832768E-01 a       228     0    10     1    12
  1.1109103634929834E-01 a       229     0    10     1    13
 -1.5898932849609204E-01 a       230     0    10     1    14
 -5.4508416252254180E-02 a       231     0    10     1    15
  8.9256961970033674E-02 a       232     0    10     1    16
 -1.5597884503337772E-01 a       233     0    10     1    17
 -2.1747379867802324E-01 a       234     0    10     1    18
  1.3389982357774474E-01 a       235     0    10     1    19
  1.9830509560679402E-01 a       236     0    10     1    20
  1.1419964225883654E-01 a       237     0    10     1    21
 -1.1223575421441277E-01 a       238     0    10     1    22
  1.1926675117616471E-01 a       239     0    10     1    23
  1.7429689738420193E-01 a       240     0    10     1    24
  3.8180366133889337E-02 a       241     0    11     1     1
 -8.9138374803202441E-02 a       242     0    11     1     2
 -1.2301594166277179E-01 a       243     0    11     1     3
 -4.0087457361737806E-02 a       244     0    11     1     4
  2.0129584320500927E-02 a       245     0    11     1     5
 -6.8139340854900211E-03 a       246     0    11     1     6
  3.9138092645473903E-02 a       247     0    11     1     7
 -2.8436718769650454E-02 a       248     0    11     1     8
 -6.5748001334053660E-02 a       249     0    11     1     9
  5.3740875627973701E-02 a       250     0    11     1    10
  3.1376673738944136E-02 a       251     0    11     1    11
 -1.0550553937697387E-02 a       252     0    11     1    12
 -1.1196324945801263E-01 a       253     0    11     1    13
 -1.1998060082917209E-02 a       254     0    11     1    14
 -4.6743361129263659E-02 a       255     0    11     1    15
 -2.2875543097164225E-03 a       256     0    11     1    16
  2.9946555111756818E-03 a       257     0    11     1    17
 -2.9351670145725257E-03 a       258     0    11     1    18
 -1.0981521609839033E-01 a       259     0    11     1    19
 -2.8438285565843085E-02 a       260     0    11     1    20
  2.9572726244225259E-02 a       261     0    11     1    21
 -4.1679903159266625E-02 a       262     0    11     1    22
  7.8215173136009300E-03 a       263     0    11     1    23
 -7.2415485207305563E-02 a       264     0    11     1    24
 -4.5812596389500408E-02 a       265     0    12     1     1
  1.9591797343826118E-02 a       266     0    12     1     2
 -1.3815476096368871E-03 a       267     0    12     1     3
  5.9385660986640380E-02 a       268     0    12     1     4
 -2.7217465360283855E-02 a       269     0    12     1     5
 -1.5506812742950357E-01 a       270     0    12     1     6
 -5.0647209416018871E-02 a       271     0    12     1     7
  1.6864155985405571E-01 a       272     0    12     1     8
 -1.2014883994536109E-01 a       273     0    12     1     9
  6.7627639801654330E-02 a       274     0    12     1    10
 -2.5195747022940479E-01 a       275     0    12     1    11
 -2.1843160841874435E-02 a       276     0    12     1    12
 -5.8597175469843943E-02 a       277     0    12     1    13
 -6.5466058724428206E-02 a       278     0    12     1    14
  1.8189836891744027E-01 a       279     0    12     1    15
 -6.2537879975190544E-02 a       280     0    12     1    16
 -6.9926988506490012E-02 a       281     0    12     1    17
 -1.0973766487608237E-01 a       282     0    12     1    18
  7.4893023526281272E-02 a       283     0    12     1    19
  7.8544638293227970E-02 a       284     0    12     1    20
  1.4782410735233936E-01 a       285     0    12     1    21
  2.2215622328391818E-02 a       286     0    12     1    22
 -1.0636661158792775E-01 a       287     0    12     1    23
  1.5199983345135927E-02 a       288     0    12     1    24
  3.4460643830642478E-02 a       289     0    13     1     1
  4.6996920137511465E-02 a       290     0    13     1     2
  1.3894836419498027E-01 a       291     0    13     1     3
 -7.1391622340407523E-02 a       292     0    13     1     4
 -6.9358194814989435E-02 a       293     0    13     1     5
 -1.0847685131171959E-01 a       294     0    13     1     6
 -1.6213585706642674E-02 a       295     0    13     1     7
  1.5663084319245884E-02 a       296     0    13     1     8
  2.6218982968754072E-02 a       297     0    13     1     9
  1.2339909158662364E-01 a       298     0    13     1    10
  1.9394039301241320E-01 a       299     0    13     1    11
 -7.6380651700783078E-02 a       300     0    13     1    12
 -1.1176596814932814E-01 a       301     0    13     1    13
  1.6627210973974788E-01 a       302     0    13     1    14
 -3.0429652203027280E-02 a       303     0    13     1    15
  1.5371967133362685E-01 a       304     0    13     1    16
  2.9590668170945278E-01 a       305     0    13     1    17
  1.3899564039164419E-01 a       306     0    13     1    18
  1.1206245588692415E-01 a       307     0    13     1    19
  4.3623628465646810E-03 a       308     0    13     1    20
 -1.1379021734534746E-01 a       309     0    13     1    21
  1.2339224607485913E-01 a       310     0    13     1    22
 -1.4142053426755602E-01 a       311     0    13     1    23
  9.9442676668317881E-02 a       312     0    13     1    24
  6.0382480339575613E-02 a       313     0    14     1     1
 -1.8808271262757928E-01 a       314     0    14     1     2
 -8.6672449768958465E-02 a       315     0    14     1     3
 -1.3096302915936661E-03 a       316     0    14     1     4
  2.5309563540468588E-01 a       317     0    14     1     5
 -1.0447202672610888E-01 a       318     0    14     1     6
 -1.0512878740435526E-01 a       319     0    14     1     7
  6.1626623866957990E-02 a       320     0    14     1     8
  3.0904053874143145E-01 a       321     0    14     1     9
  3.3154322748654187E-02 a       322     0    14     1    10
 -1.0824534071993604E-01 a       323     0    14     1    11
  1.5253072713406457E-01 a       324     0    14     1    12
 -3.2714629314729848E-02 a       325     0    14     1    13
  4.8730993602502853E-02 a       326     0    14     1    14
 -1.2008251599427824E-02 a       327     0    14     1    15
 -1.6872759830154277E-01 a       328     0    14     1    16
 -1.6571801215296572E-01 a       329     0    14     1    17
  1.3869681897698768E-01 a       330     0    14     1    18
 -1.6029520161214872E-01 a       331     0    14     1    19
  2.5234004987042220E-02 a       332     0    14     1    20
  2.0589691921269339E-02 a       333     0    14     1    21
 -1.5406439184275109E-01 a       334     0    14     1    22
 -2.5462362550712081E-01 a       335     0    14     1    23
 -1.0044388841138158E-01 a       336     0    14     1    24
  7.2159048428439287E-02 a       337     0    15     1     1
 -1.9337727828980428E-01 a       338     0    15     1     2
 -1.6127730121260694E-01 a       339     0    15     1     3
 -1.2607137229287224E-01 a       340     0    15     1     4
 -2.0745543956696774E-01 a       341     0    15     1     5
 -1.1904421950780976E-01 a       342     0    15     1     6
  1.4313580059158835E-02 a       343     0    15     1     7
 -1.4706466416297520E-01 a       344     0    15     1     8
  6.6094186339866537E-03 a       345     0    15     1     9
  6.6080151100935167E-02 a       346     0    15     1    10
  1.8897727388101596E-01 a       347     0    15     1    11
  1.8603606787123934E-02 a       348     0    15     1    12
  7.8499252102084471E-02 a       349     0    15     1    13
  1.2267776039046351E-01 a       350     0    15     1    14
 -1.4360215351775782E-01 a       351     0    15     1    15
 -3.2155831565768254E-02 a       352     0    15     1    16
  2.8916521402056033E-01 a       353     0    15     1    17
  4.5296072294170781E-01 a       354     0    15     1    18
 -4.2703019726226211E-03 a       355     0    15     1    19
  7.5219733538865768E-02 a       356     0    15     1    20
  1.4633811023757809E-01 a       357     0    15     1    21
  1.5430186501813836E-01 a       358     0    15     1    22
 -1.9181871449086468E-01 a       359     0    15     1    23
  2.7996899444235118E-01 a       360     0    15     1    24
 -1.7378511766170412E-01 a       361     0    16     1     1
 -3.7094392213013246E-03 a       362     0    16     1     2
  1.8197034867620385E-01 a       363     0    16     1     3
  4.2832827869330042E-02 a       364     0    16     1     4
  2.5385721908051821E-02 a       365     0    16     1     5
  5.2216563025025784E-03 a       366     0    16     1     6
  1.4249915069534285E-02 a       367     0    16     1     7
 -1.0890678871419351E-01 a       368     0    16     1     8
  1.4674002039949721E-02 a       369     0    16     1     9
  1.3884647270378336E-01 a       370     0    16     1    10
 -1.1978978425461796E-01 a       371     0    16     1    11
  4.5590803338853819E-02 a       372     0    16     1    12
  4.2275861329963256E-02 a       373     0    16     1    13
  6.1884299275103465E-02 a       374     0    16     1    14
  1.6779587405655955E-02 a       375     0    16     1    15
 -1.6310853081850454E-01 a       376     0    16     1    16
  6.3015817857498102E-02 a       377     0    16     1    17
 -1.0217260138254117E-01 a       378     0    16     1    18
  7.0412662583323973E-02 a       379     0    16     1    19
  9.1554096490883599E-02 a       380     0    16     1    20
  1.6200921851012226E-01 a       381     0    16     1    21
 -5.7018507605080702E-03 a       382     0    16     1    22
  1.5668216980024741E-01 a       383     0    16     1    23
  6.5069701608870961E-02 a       384     0    16     1    24
  5.5588162375844928E-02 a       385     0    17     1     1
  2.7315009446566025E-02 a       386     0    17     1     2
  1.0578220782696331E-01 a       387     0    17     1     3
 -5.0141431286221352E-02 a       388     0    17     1     4
 -1.4378311650085943E-01 a       389     0    17     1     5
  1.2280231444994377E-01 a       390     0    17     1     6
 -2.7680094878535660E-02 a       391     0    17     1     7
 -1.1887656512613026E-01 a       392     0    17     1     8
  1.0612676095634382E-01 a       393     0    17     1     9
 -1.7104548843765299E-01 a       394     0    17     1    10
 -1.8305836467230222E-02 a       395     0    17     1    11
 -5.2533414010154121E-02 a       396     0    17     1    12
 -5.1691035911935808E-02 a       397     0    17     1    13
 -4.2180137156854904E-02 a       398     0    17     1    14
  5.6543128464617821E-02 a       399     0    17     1    15
  1.1823055627024518E-02 a       400     0    17     1    16
  7.1326163976279250E-02 a       401     0    17     1    17
  6.6204094946283225E-03 a       402     0    17     1    18
  3.9643793646981930E-02 a       403     0    17     1    19
  8.4316254653812039E-02 a       404     0    17     1    20
 -7.3115232432821448E-02 a       405     0    17     1    21
  6.8267243221673199E-02 a       406     0    17     1    22
  7.3146764120074370E-02 a       407     0    17     1    23
 -4.4240566956205034E-02 a       408     0    17     1    24
 -7.1255321696232873E-02 a       409     0    18     1     1
  1.8681299573227537E-02 a       410     0    18     1     2
 -1.0266519889769144E-02 a       411     0    18     1     3
  3.3989941778896873E-02 a       412     0    18     1     4
 -2.0457331698626534E-02 a       413     0    18     1     5
  7.7852860111331967E-02 a       414     0    18     1     6
  1.2807261655368285E-01 a       415     0    18     1     7
  1.2292313941980605E-01 a       416     0    18     1     8
 -2.9346094258107844E-02 a       417     0    18     1     9
 -3.6967723533201303E-02 a       418     0    18     1    10
 -1.4187011662376682E-02 a       419     0    18     1    11
  1.0655845759079262E-01 a       420     0    18     1    12
  5.0540746644643877E-02 a       421     0    18     1    13
 -1.3232685188747900E-01 a       422     0    18     1    14
 -2.7201805552095244E-02 a       423     0    18     1    15
 -8.9036732358291307E-02 a       424     0    18     1    16
 -2.4687600263456844E-02 a       425     0    18     1    17
  1.3269479614881188E-01 a       426     0    18     1    18
 -4.0560468017885376E-02 a       427     0    18     1    19
 -7.7799385288911851E-02 a       428     0    18     1    20
 -2.9405789913005843E-02 a       429     0    18     1    21
  1.3148822632241777E-01 a       430     0    18     1    22
  5.0279741074882294E-03 a       431     0    18     1    23
  7.8019537612316392E-02 a       432     0    18     1    24
 -3.6293368904040842E-02 a       433     0    19     1     1
  9.7358030127508738E-02 a       434     0    19     1     2
 -7.9681837624036703E-02 a       435     0    19     1     3
 -8.0997404772894299E-02 a       436     0    19     1     4
  5.6717226973895550E-02 a       437     0    19     1     5
 -1.2884609969312422E-01 a       438     0    19     1     6
  9.4242091479024126E-02 a       439     0    19     1     7
  2.8707201422006536E-02 a       440     0    19     1     8
 -9.9595075844466252E-02 a       441     0    19     1     9
 -2.1737120339718704E-03 a       442     0    19     1    10
 -6.0430622275338526E-02 a       443     0    19     1    11
 -3.1751751839286808E-02 a       444     0    19     1    12
 -1.0940722735280510E-01 a       445     0    19     1    13
 -4.0974754895686513E-02 a       446     0    19     1    14
  9.9118996328339662E-02 a       447     0    19     1    15
 -2.6214744300907002E-02 a       448     0    19     1    16
  8.6804518996393659E-02 a       449     0    19     1    17
  9.0059559500193127E-03 a       450     0    19     1    18
  1.1425906982760114E-02 a       451     0    19     1    19
 -6.7006063628267831E-02 a       452     0    19     1    20
  1.1746028496714879E-01 a       453     0    19     1    21
  3.7358575131188856E-02 a       454     0    19     1    22
 -5.0952899347841453E-02 a       455     0    19     1    23
  2.2101409990808580E-02 a       456     0    19     1    24
 -2.5453862372758457E-02 a       457     0    20     1     1
 -1.5829593105954679E-01 a       458     0    20     1     2
  1.2010741551283463E-01 a       459     0    20     1     3
 -9.3562158867990075E-02 a       460     0    20     1     4
  6.1937086791145519E-02 a       461     0    20     1     5
  4.8482909847825911E-02 a       462     0    20     1     6
  1.7961149461518264E-02 a       463     0    20     1     7
 -5.3450206680456892E-02 a       464     0    20     1     8
  1.2635592910970116E-02 a       465     0    20     1     9
  1.3332247282549820E-01 a       466     0    20     1    10
  9.1884610385129753E-02 a       467     0    20     1    11
  1.6586940528927840E-01 a       468     0    20     1    12
 -1.9006528408002493E-01 a       469     0    20     1    13
  6.6223165612794649E-02 a       470     0    20     1    14
  1.0822205947983142E-01 a       471     0    20     1    15
 -4.7595118715258566E-02 a       472     0    20     1    16
 -3.9083897910577529E-02 a       473     0    20     1    17
 -1.0242170472740236E-01 a       474     0    20     1    18
  3.7943496938954734E-03 a       475     0    20     1    19
 -8.5340016312923830E-02 a       476     0    20     1    20
 -1.7170486470743540E-01 a       477     0    20     1    21
  2.5440443133282742E-01 a       478     0    20     1    22
  2.5203060357796469E-02 a       479     0    20     1    23
 -1.6994230393625809E-01 a       480     0    20     1    24
 -7.0988419448885870E-02 a       481     0    21     1     1
  1.1856701865845221E-01 a       482     0    21     1     2
  1.8751520511348197E-02 a       483     0    21     1     3
  9.4893682995505785E-04 a       484     0    21     1     4
 -6.3132893209218971E-02 a       485     0    21     1     5
  3.4207172114429749E-03 a       486     0    21     1     6
 -6.4072198908807887E-02 a       487     0    21     1     7
  2.3165825563341232E-02 a       488     0    21     1     8
 -5.5448653229083253E-02 a       489     0    21     1     9
 -5.6567669068067920E-02 a       490     0    21     1    10
 -3.3570272091418316E-02 a       491     0    21     1    11
  1.6963822311045790E-01 a       492     0    21     1    12
  2.4123023919039199E-02 a       493     0    21     1    13
 -4.1265765971954804E-02 a       494     0    21     1    14
  1.1245817856141422E-02 a       495     0    21     1    15
 -5.2489829005052974E-02 a       496     0    21     1    16
  2.8915796318246707E-02 a       497     0    21     1    17
  7.3633466142959417E-02 a       498     0    21     1    18
 -4.0968238713299403E-02 a       499     0    21     1    19
 -9.7068044734136258E-02 a       500     0    21     1    20
  9.4014858383084293E-02 a       501     0    21     1    21
 -1.6238726630193427E-02 a       502     0    21     1    22
  4.8574448152748244E-02 a       503     0    21     1    23
  4.6962780596318671E-02 a       504     0    21     1    24
 -1.0011888847272360E-01 a       505     0    22     1     1
 -5.5578634119708280E-02 a       506     0    22     1     2
 -8.6013786267422343E-02 a       507     0    22     1     3
 -9.7714985609777066E-02 a       508     0    22     1     4
 -8.1890432194373336E-02 a       509     0    22     1     5
  1.5083676476663211E-02 a       510     0    22     1     6
  1.9358907084018509E-01 a       511     0    22     1     7
 -1.0142178962846990E-01 a       512     0    22     1     8
  8.6076786879177095E-02 a       513     0    22     1     9
  1.0171355004670990E-01 a       514     0    22     1    10
 -8.6041327703002504E-02 a       515     0    22     1    11
 -7.9903049488430730E-02 a       516     0    22     1    12
 -9.6423273566475773E-02 a       517     0    22     1    13
  5.8142966345637682E-02 a       518     0    22     1    14
 -8.7906486520824792E-02 a       519     0    22     1    15
 -3.8853513898994177E-02 a       520     0    22     1    16
 -1.1887053406925163E-01 a       521     0    22     1    17
 -1.9138438667559488E-02 a       522     0    22     1    18
  3.1330363132086869E-02 a       523     0    22     1    19
  1.8190766930276578E-01 a       524     0    22     1    20
 -4.6668084158667869E-02 a       525     0    22     1    21
  2.4733450173644728E-02 a       526     0    22     1    22
 -1.4718388639770525E-02 a       527     0    22     1    23
 -8.4592778971731800E-02 a       528     0    22     1    24
 -6.3114498372184399E-02 a       529     0    23     1     1
  2.0393004893497288E-01 a       530     0    23     1     2
  8.1529349000719106E-02 a       531     0    23     1     3
 -2.9547558931700406E-02 a       532     0    23     1     4
 -7.9304053376761399E-02 a       533     0    23     1     5
  3.7969283888782249E-02 a       534     0    23     1     6
  6.4435185221339827E-02 a       535     0    23     1     7
 -1.8787351256273488E-01 a       536     0    23     1     8
 -7.9040997861767825E-02 a       537     0    23     1     9
 -8.1352776966053988E-02 a       538     0    23     1    10
  3.7090404130036538E-02 a       539     0    23     1    11
  4.5140498868734981E-02 a       540     0    23     1    12
 -7.3207762572474425E-02 a       541     0    23     1    13
 -2.0792942114664339E-02 a       542     0    23     1    14
 -3.5083525396839788E-02 a       543     0    23     1    15
  2.0728621684703128E-03 a       544     0    23     1    16
  6.2443339309911264E-02 a       545     0    23     1    17
  1.2384951959644234E-02 a       546     0    23     1    18
 -1.0748735821800340E-01 a       547     0    23     1    19
 -1.2265293767470559E-01 a       548     0    23     1    20
  6.9153804386507145E-02 a       549     0    23     1    21
 -1.7655198608836360E-02 a       550     0    23     1    22
  1.3890215724740779E-02 a       551     0    23     1    23
 -7.1473493931858804E-03 a       552     0    23     1    24
 -5.3194501973643941E-02 a       553     0    24     1     1
 -6.9185218253081840E-02 a       554     0    24     1     2
 -8.1078695554017824E-02 a       555     0    24     1     3
  2.5743888585720048E-02 a       556     0    24     1     4
 -4.5943379016810011E-02 a       557     0    24     1     5
 -1.6491883503215354E-01 a       558     0    24     1     6
  4.4300051790829853E-02 a       559     0    24     1     7
  8.0630852540202608E-02 a       560     0    24     1     8
  1.9410739136861524E-01 a       561     0    24     1     9
  1.5210272159473959E-02 a       562     0    24     1    10
 -2.4157066292753562E-01 a       563     0    24     1    11
  8.9958586335047594E-02 a       564     0    24     1    12
 -2.2516417076759093E-01 a       565     0    24     1    13
  4.7476837545666402E-02 a       566     0    24     1    14
  4.7457527594234585E-02 a       567     0    24     1    15
 -1.3445647081695396E-03 a       568     0    24     1    16
 -3.7360746749995660E-03 a       569     0    24     1    17
  4.8115082360958572E-02 a       570     0    24     1    18
  3.4161171690332198E-02 a       571     0    24     1    19
  8.8446763343440774E-02 a       572     0    24     1    20
  2.7712759778265334E-02 a       573     0    24     1    21
  1.0844276814396522E-02 a       574     0    24     1    22
  1.2295576333549486E-02 a       575     0    24     1    23
 -6.1051850320532237E-02 a       576     0    24     1    24
 -9.6576298306988537E-02 a       577     0    25     1     1
  4.0777567641676477E-03 a       578     0    25     1     2
  2.5232691779370601E-02 a       579     0    25     1     3
  1.3040364051691283E-01 a       580     0    25     1     4
  4.6516789206678032E-02 a       581     0    25     1     5
 -6.7271930801224344E-02 a       582     0    25     1     6
  5.6566401340127671E-02 a       583     0    25     1     7
 -9.7273561983513522E-03 a       584     0    25     1     8
 -5.3360948393543654E-02 a       585     0    25     1     9
  1.6208106064348738E-02 a       586     0    25     1    10
 -5.2180065167374688E-02 a       587     0    25     1    11
 -2.6402688272062380E-02 a       588     0    25     1    12
  6.0914054801939038E-02 a       589     0    25     1    13
 -9.5180621079515804E-02 a       590     0    25     1    14
  1.3843169427239536E-02 a       591     0    25     1    15
  2.3083342340899323E-03 a       592     0    25     1    16
 -4.8666881511297194E-02 a       593     0    25     1    17
 -4.1859660141653335E-02 a       594     0    25     1    18
  5.5827954848177458E-02 a       595     0    25     1    19
  3.2332592546762559E-02 a       596     0    25     1    20
  2.5198380479337337E-02 a       597     0    25     1    21
  8.1345338019347221E-02 a       598     0    25     1    22
  6.9569651608864996E-02 a       599     0    25     1    23
  3.0787179145735769E-02 a       600     0    25     1    24
  5.8589078554981619E-02 a       601     0    26     1     1
  3.2856587079323159E-02 a       602     0    26     1     2
 -7.8016256792810962E-02 a       603     0    26     1     3
 -3.3886452070313401E-04 a       604     0    26     1     4
  8.3524571897623828E-02 a       605     0    26     1     5
  4.0264622548729770E-02 a       606     0    26     1     6
  4.1532647861571105E-02 a       607     0    26     1     7
  1.3865903536456370E-01 a       608     0    26     1     8
  8.2510724280024945E-03 a       609     0    26     1     9
 -3.6197659943732565E-03 a       610     0    26     1    10
  4.4557864833112845E-02 a       611     0    26     1    11
  2.9950334532669060E-02 a       612     0    26     1    12
 -1.9285885372277840E-02 a       613     0    26     1    13
  1.7295160689138157E-02 a       614     0    26     1    14
  2.7898800269479634E-02 a       615     0    26     1    15
 -2.8791133148700510E-03 a       616     0    26     1    16
 -3.2279518352336892E-03 a       617     0    26     1    17
 -6.7704024231427795E-02 a       618     0    26     1    18
  4.6398348415318799E-02 a       619     0    26     1    19
 -3.5421444304378408E-02 a       620     0    26     1    20
  2.6997965431231320E-02 a       621     0    26     1    21
  3.3109765656316757E-02 a       622     0    26     1    22
 -6.0019859450820078E-02 a       623     0    26     1    23
  5.3631365046121669E-02 a       624     0    26     1    24
  1.2736831217357381E-01 a       625     0    27     1     1
  6.0434922905176131E-02 a       626     0    27     1     2
  3.7161578477497736E-02 a       627     0    27     1     3
  7.8058617807283223E-02 a       628     0    27     1     4
 -1.2194136883475405E-01 a       629     0    27     1     5
 -1.2891613944614747E-01 a       630     0    27     1     6
  2.1023649735554682E-02 a       631     0    27     1     7
  4.5141727380228286E-02 a       632     0    27     1     8
 -1.8492309484373784E-01 a       633     0    27     1     9
 -2.2248628760030076E-01 a       634     0    27     1    10
 -6.8252818754193818E-03 a       635     0    27     1    11
  5.7913552813028936E-02 a       636     0    27     1    12
 -1.4675346850071255E-01 a       637     0    27     1    13
  2.1664859074282111E-01 a       638     0    27     1    14
  3.9888729323872059E-02 a       639     0    27     1    15
  2.0302682958231064E-01 a       640     0    27     1    16
 -1.1386029935334989E-02 a       641     0    27     1    17
  5.7592690741445886E-02 a       642     0    27     1    18
  1.0372864651482967E-02 a       643     0    27     1    19
  2.4502464885442746E-03 a       644     0    27     1    20
  5.1941410519063209E-02 a       645     0    27     1    21
 -5.2694431647248657E-02 a       646     0    27     1    22
 -1.4977418073314966E-01 a       647     0    27     1    23
 -1.4679431076664054E-01 a       648     0    27     1    24
 -7.3785606044507887E-02 a       649     0    28     1     1
 -6.6423354275910410E-02 a       650     0    28     1     2
 -1.1451836153896935E-01 a       651     0    28     1     3
  1.0444809132046125E-02 a       652     0    28     1     4
  1.2556344409122794E-01 a       653     0    28     1     5
 -1.6716334533080296E-01 a       654     0    28     1     6
 -1.7804464335488351E-01 a       655     0    28     1     7
  1.5913905768505510E-01 a       656     0    28     1     8
 -3.5353641738959690E-02 a       657     0    28     1     9
  2.2537294212249728E-01 a       658     0    28     1    10
 -1.0305860230957444E-02 a       659     0    28     1    11
 -1.0506238607341012E-02 a       660     0    28     1    12
  1.1541299897655032E-01 a       661     0    28     1    13
 -9.6181445685234498E-02 a       662     0    28     1    14
 -1.0579003356003919E-01 a       663     0    28     1    15
  6.9055350256175985E-02 a       664     0    28     1    16
 -9.4563472440657562E-02 a       665     0    28     1    17
 -7.1738748018804574E-02 a       666     0    28     1    18
  2.5124361487184069E-02 a       667     0    28     1    19
  4.2477680739989108E-02 a       668     0    28     1    20
  8.0511196293411191E-02 a       669     0    28     1    21
 -7.8038529191262598E-02 a       670     0    28     1    22
  1.1739432605116151E-02 a       671     0    28     1    23
  3.9659245968593902E-02 a       672     0    28     1    24
 -3.8952731213952853E-02 a       673     0    29     1     1
  5.8364628650007539E-03 a       674     0    29     1     2
  5.8080810779403323E-02 a       675     0    29     1     3
 -6.9320625283695841E-02 a       676     0    29     1     4
  2.3260319992786372E-02 a       677     0    29     1     5
 -1.3100763771181679E-02 a       678     0    29     1     6
  1.8829185285167757E-01 a       679     0    29     1     7
  1.3309024735179986E-01 a       680     0    29     1     8
 -1.0039326227649011E-01 a       681     0    29     1     9
  7.4709254905970923E-03 a       682     0    29     1    10
 -6.0180428983206323E-02 a       683     0    29     1    11
  1.8108895403337349E-01 a       684     0    29     1    12
  2.2060442208967462E-01 a       685     0    29     1    13
  3.2407035145280302E-02 a       686     0    29     1    14
  2.1992574269746740E-03 a       687     0    29     1    15
  9.5814197100291126E-02 a       688     0    29     1    16
 -1.1604265942430404E-01 a       689     0    29     1    17
  3.3097124746242275E-02 a       690     0    29     1    18
  3.3996064907106952E-02 a       691     0    29     1    19
 -5.1813205912699431E-02 a       692     0    29     1    20
 -3.1106135316035406E-02 a       693     0    29     1    21
 -4.0990970339633129E-02 a       694     0    29     1    22
  6.5371106508328808E-02 a       695     0    29     1    23
  1.2001341672951850E-01 a       696     0    29     1    24
  8.7563522598331958E-02 a       697     0    30     1     1
 -5.6696140555607760E-02 a       698     0    30     1     2
  2.3218288936933389E-02 a       699     0    30     1     3
  2.4369098515358584E-02 a       700     0    30     1     4
 -4.7420271596737396E-02 a       701     0    30     1     5
 -6.1271655830440572E-02 a       702     0    30     1     6
 -1.3597720343158512E-01 a       703     0    30     1     7
 -1.3359277100705708E-01 a       704     0    30     1     8
  7.1919803915721114E-02 a       705     0    30     1     9
 -3.4851884903088895E-02 a       706     0    30     1    10
  2.7052182482875983E-02 a       707     0    30     1    11
 -1.8531452267267906E-01 a       708     0    30     1    12
 -5.9753335850461393E-02 a       709     0    30     1    13
 -1.1156828536810105E-01 a       710     0    30     1    14
 -4.2410581481832396E-02 a       711     0    30     1    15
  7.3130672379643560E-02 a       712     0    30     1    16
  2.7616944141700302E-02 a       713     0    30     1    17
 -1.2998295853567252E-01 a       714     0    30     1    18
  9.4926160930171574E-02 a       715     0    30     1    19
  1.3081096771527592E-01 a       716     0    30     1    20
 -1.0545484048815670E-01 a       717     0    30     1    21
 -5.7943802553932902E-02 a       718     0    30     1    22
  1.0044071233102200E-01 a       719     0    30     1    23
 -7.2125775915025475E-02 a       720     0    30     1    24
 -1.1742621136504979E-02 a       721     0    31     1     1
  2.9051857141629341E-02 a       722     0    31     1     2
 -1.6926207024486239E-01 a       723     0    31     1     3
  1.6492176090086433E-01 a       724     0    31     1     4
 -1.2128311578133597E-01 a       725     0    31     1     5
  1.2248162080947549E-01 a       726     0    31     1     6
 -6.1620586151660004E-03 a       727     0    31     1     7
  1.9736728675225729E-01 a       728     0    31     1     8
 -1.8407349472487666E-01 a       729     0    31     1     9
 -5.3869526944347546E-02 a       730     0    31     1    10
  5.5107349493640406E-02 a       731     0    31     1    11
  6.9852852682972547E-02 a       732     0    31     1    12
  9.7959967882432098E-03 a       733     0    31     1    13
 -1.1411371331206525E-01 a       734     0    31     1    14
  6.8434551040552002E-02 a       735     0    31     1    15
 -1.2952411221536215E-02 a       736     0    31     1    16
 -3.7430395232695875E-03 a       737     0    31     1    17
 -1.9152981109951961E-01 a       738     0    31     1    18
  4.4783880487115027E-02 a       739     0    31     1    19
 -6.1934881591331460E-02 a       740     0    31     1    20
 -1.1474553573179012E-01 a       741     0    31     1    21
  7.0541244489133903E-02 a       742     0    31     1    22
  1.2847376999073834E-01 a       743     0    31     1    23
 -6.1915817218776800E-02 a       744     0    31     1    24
  1.3824738034915923E-01 a       745     0    32     1     1
  9.2644342856325291E-04 a       746     0    32     1     2
 -9.2050785390947978E-02 a       747     0    32     1     3
  1.8687996781530591E-01 a       748     0    32     1     4
 -7.6895228779759267E-02 a       749     0    32     1     5
  5.2867970726992917E-02 a       750     0    32     1     6
  9.7223283956332021E-02 a       751     0    32     1     7
  6.8415851813231524E-02 a       752     0    32     1     8
 -1.4084022691064441E-01 a       753     0    32     1     9
  1.6519158350080884E-01 a       754     0    32     1    10
 -2.1627555866960038E-01 a       755     0    32     1    11
 -1.2677734420368017E-01 a       756     0    32     1    12
 -1.3360784234787440E-02 a       757     0    32     1    13
 -1.3114988294067959E-01 a       758     0    32     1    14
  5.4055399631703950E-02 a       759     0    32     1    15
  1.5698630899972310E-01 a       760     0    32     1    16
  2.6602024151350600E-03 a       761     0    32     1    17
  5.1866014414044856E-02 a       762     0    32     1    18
  1.1565078407387595E-01 a       763     0    32     1    19
  2.9172558326263000E-03 a       764     0    32     1    20
  1.5712831905179425E-01 a       765     0    32     1    21
 -1.6070369191635028E-01 a       766     0    32     1    22
 -2.9452107758287507E-02 a       767     0    32     1    23
 -1.0038807722828386E-04 a       768     0    32     1    24
 -2.3378465278181065E-01 a       769     0    33     1     1
  1.6628708616591237E-01 a       770     0    33     1     2
 -2.4785851595595054E-02 a       771     0    33     1     3
 -1.0430250534559848E-01 a       772     0    33     1     4
  6.4568307154622140E-02 a       773     0    33     1     5
 -5.9144390221909891E-02 a       774     0    33     1     6
  8.3440762267479845E-02 a       775     0    33     1     7
  5.7488861211019780E-02 a       776     0    33     1     8
 -5.6941959160380431E-02 a       777     0    33     1     9
 -1.8149152451310402E-01 a       778     0    33     1    10
 -7.8981198858612947E-02 a       779     0    33     1    11
  2.2427789216728142E-01 a       780     0    33     1    12
  1.1408677782179501E-01 a       781     0    33     1    13
  2.0609193827512828E-01 a       782     0    33     1    14
 -8.3942277338778667E-02 a       783     0    33     1    15
  3.3818643231530617E-02 a       784     0    33     1    16
  2.0133579065085594E-01 a       785     0    33     1    17
 -8.5460416068284834E-02 a       786     0    33     1    18
 -2.6215929792505277E-01 a       787     0    33     1    19
  4.1057353869210576E-02 a       788     0    33     1    20
 -2.7369535052474131E-01 a       789     0    33     1    21
 -8.1138496730743803E-03 a       790     0    33     1    22
  6.8438422160916848E-02 a       791     0    33     1    23
  3.5579382581017165E-02 a       792     0    33     1    24
 -2.0848712323140575E-01 a       793     0    34     1     1
 -3.5023249894393566E-02 a       794     0    34     1     2
  1.2810019350613161E-01 a       795     0    34     1     3
  3.5361435156663346E-02 a       796     0    34     1     4
  2.8110879673932909E-01 a       797     0    34     1     5
  1.7656052580646375E-01 a       798     0    34     1     6
  1.5095896493649860E-01 a       799     0    34     1     7
  8.7805521974287620E-02 a       800     0    34     1     8
  1.2678099453312833E-01 a       801     0    34     1     9
 -2.7092046694895960E-01 a       802     0    34     1    10
 -9.0985973218247307E-02 a       803     0    34     1    11
  1.8643636366245150E-02 a       804     0    34     1    12
  2.1731880709438761E-01 a       805     0    34     1    13
 -1.1415884460536352E-01 a       806     0    34     1    14
 -5.6296394296644903E-02 a       807     0    34     1    15
  1.4403589327092143E-02 a       808     0    34     1    16
 -1.0351211038489552E-01 a       809     0    34     1    17
 -1.5933682161913432E-01 a       810     0    34     1    18
  2.6783782747333434E-02 a       811     0    34     1    19
 -7.9703108476494838E-02 a       812     0    34     1    20
  2.8237353453379917E-02 a       813     0    34     1    21
 -3.6486016847977631E-01 a       814     0    34     1    22
 -1.9413476211505495E-01 a       815     0    34     1    23
 -2.2077991559193402E-01 a       816     0    34     1    24
  1.4476253825574331E-01 a       817     0    35     1     1
  8.8299976856196422E-02 a       818     0    35     1     2
  6.2370350558207263E-02 a       819     0    35     1     3
  9.8488742445943994E-02 a       820     0    35     1     4
 -1.3022366580237671E-01 a       821     0    35     1     5
 -1.7308906046615136E-01 a       822     0    35     1     6
  1.2573506694713965E-01 a       823     0    35     1     7
  1.2801774529095711E-01 a       824     0    35     1     8
 -8.9765211446447314E-03 a       825     0    35     1     9
  7.6227768543049940E-02 a       826     0    35     1    10
 -1.1372124743827394E-01 a       827     0    35     1    11
  1.9013599551093924E-01 a       828     0    35     1    12
  9.1447915676409711E-02 a       829     0    35     1    13
 -6.0897568017743729E-02 a       830     0    35     1    14
 -1.1146194378996115E-01 a       831     0    35     1    15
  6.2861591147536311E-02 a       832     0    35     1    16
 -2.1877825965893230E-01 a       833     0    35     1    17
 -1.2952672281755916E-02 a       834     0    35     1    18
 -1.9081675228259856E-01 a       835     0    35     1    19
  1.1777802918407677E-02 a       836     0    35     1    20
 -3.3245359932800728E-02 a       837     0    35     1    21
 -1.3775609095058344E-01 a       838     0    35     1    22
  2.8485755786278239E-03 a       839     0    35     1    23
  1.5574813870761195E-01 a       840     0    35     1    24
 -5.8091592315871368E-02 a       841     0    36     1     1
  1.4080520686584747E-02 a       842     0    36     1     2
 -7.3244227949881280E-03 a       843     0    36     1     3
 -1.3736624984648405E-01 a       844     0    36     1     4
 -6.6569316835832323E-02 a       845     0    36     1     5
  1.2902398382662064E-01 a       846     0    36     1     6
 -2.0446600431734419E-01 a       847     0    36     1     7
 -1.9430905293483269E-01 a       848     0    36     1     8
 -7.8934165056604513E-02 a       849     0    36     1     9
  1.5918360308213561E-01 a       850     0    36     1    10
  2.1846055155547187E-01 a       851     0    36     1    11
 -1.0180970398458927E-01 a       852     0    36     1    12
 -1.1105640134777107E-01 a       853     0    36     1    13
 -1.0170257574951816E-02 a       854     0    36     1    14
 -1.0669405595288238E-01 a       855     0    36     1    15
 -1.2393904711115364E-01 a       856     0    36     1    16
 -1.3424277090655590E-01 a       857     0    36     1    17
  4.8521284935181791E-02 a       858     0    36     1    18
 -5.5996957376860300E-02 a       859     0    36     1    19
 -1.4666413286157176E-02 a       860     0    36     1    20
 -2.1518696273014368E-01 a       861     0    36     1    21
  1.1349381493864985E-01 a       862     0    36     1    22
 -2.1647037935871621E-02 a       863     0    36     1    23
 -4.5873367129990544E-02 a       864     0    36     1    24
 -4.8582543963938518E-02 a       865     0    37     1     1
  4.6890929669981790E-02 a       866     0    37     1     2
  2.2376418631294270E-01 a       867     0    37     1     3
  2.9377299605592073E-03 a       868     0    37     1     4
 -1.2011311480279739E-01 a       869     0    37     1     5
  1.6159255651878762E-01 a       870     0    37     1     6
 -1.1623239032058282E-01 a       871     0    37     1     7
  1.3681922649201658E-01 a       872     0    37     1     8
 -1.3343804748182111E-01 a       873     0    37     1     9
 -7.9783010550652053E-02 a       874     0    37     1    10
  2.4255445331441308E-01 a       875     0    37     1    11
  2.8314184289422794E-02 a       876     0    37     1    12
  6.2411717214865388E-02 a       877     0    37     1    13
 -1.3317547225463819E-01 a       878     0    37     1    14
  2.6592347212683803E-01 a       879     0    37     1    15
  1.7515911149786362E-01 a       880     0    37     1    16
 -2.1539173435620525E-03 a       881     0    37     1    17
  2.1681118388706846E-01 a       882     0    37     1    18
  1.3223004728524337E-01 a       883     0    37     1    19
 -1.6123450632441644E-01 a       884     0    37     1    20
  1.3494422602719325E-01 a       885     0    37     1    21
 -4.0993505517698335E-02 a       886     0    37     1    22
  2.7710813967221901E-02 a       887     0    37     1    23
  2.5561566684368885E-02 a       888     0    37     1    24
  8.3027800345483044E-02 a       889     0    38     1     1
  4.8764218633128256E-02 a       890     0    38     1     2
  1.1191868436168874E-01 a       891     0    38     1     3
 -1.6055375987772105E-01 a       892     0    38     1     4
  2.7499661698083613E-02 a       893     0    38     1     5
  1.3874750736466621E-01 a       894     0    38     1     6
  9.2796451881688849E-02 a       895     0    38     1     7
  1.6875065542948479E-02 a       896     0    38     1     8
  1.3410674033077458E-01 a       897     0    38     1     9
 -6.8727099213053908E-02 a       898     0    38     1    10
 -4.2254028751983093E-02 a       899     0    38     1    11
  7.7999580400684526E-02 a       900     0    38     1    12
  1.7999178519326309E-02 a       901     0    38     1    13
  4.8196650348688738E-02 a       902     0    38     1    14
 -1.1429640015945226E-01 a       903     0    38     1    15
 -5.4928113283717439E-02 a       904     0    38     1    16
 -1.9777969510848977E-02 a       905     0    38     1    17
  9.0557057500304100E-02 a       906     0    38     1    18
  1.6063826441445928E-02 a       907     0    38     1    19
  2.5502255189020582E-03 a       908     0    38     1    20
 -1.3049724054804857E-01 a       909     0    38     1    21
  9.8759593884957378E-02 a       910     0    38     1    22
 -8.5869893045170620E-02 a       911     0    38     1    23
  5.4422442520247923E-02 a       912     0    38     1    24
 -2.1318576618623315E-02 a       913     0    39     1     1
 -7.1150277195441633E-02 a       914     0    39     1     2
  1.1535931673423229E-01 a       915     0    39     1     3
  4.1380795354777768E-02 a       916     0    39     1     4
  6.0119578944535679E-02 a       917     0    39     1     5
 -8.2631829200259993E-02 a       918     0    39     1     6
  6.8622528897794993E-02 a       919     0    39     1     7
  8.9810083802593726E-02 a       920     0    39     1     8
 -1.8272051963897809E-01 a       921     0    39     1     9
  1.1844900549382843E-01 a       922     0    39     1    10
 -1.5032062440329581E-02 a       923     0    39     1    11
 -4.6964148686060095E-02 a       924     0    39     1    12
  5.3375039382805918E-02 a       925     0    39     1    13
  1.4041494068301916E-01 a       926     0    39     1    14
 -2.7403644556482486E-03 a       927     0    39     1    15
 -1.8757346683022633E-02 a       928     0    39     1    16
  1.8326939230286324E-01 a       929     0    39     1    17
 -1.0007930842479246E-01 a       930     0    39     1    18
 -1.1963421143528807E-02 a       931     0    39     1    19
 -2.2165664504687425E-02 a       932     0    39     1    20
  1.2900977788130830E-01 a       933     0    39     1    21
  1.1993420502262522E-01 a       934     0    39     1    22
  1.9234338501616696E-02 a       935     0    39     1    23
 -1.3742906774306854E-01 a       936     0    39     1    24
 -5.9778641440404248E-02 a       937     0    40     1     1
  4.5276441346723456E-02 a       938     0    40     1     2
 -2.9551885301767533E-01 a       939     0    40     1     3
  2.5495217229884987E-01 a       940     0    40     1     4
 -1.5290199998252664E-02 a       941     0    40     1     5
 -2.5008528790790235E-01 a       942     0    40     1     6
  4.2603854947787657E-02 a       943     0    40     1     7
  1.3012023798728894E-01 a       944     0    40     1     8
  4.4752946871417988E-02 a       945     0    40     1     9
 -7.6270124512444915E-02 a       946     0    40     1    10
 -1.7184235047879262E-01 a       947     0    40     1    11
  2.4332251995722204E-01 a       948     0    40     1    12
  1.1517122641603182E-01 a       949     0    40     1    13
 -4.5682696491772125E-02 a       950     0    40     1    14
 -5.7133436461212224E-02 a       951     0    40     1    15
 -3.5542635515326063E-02 a       952     0    40     1    16
  3.4937363903391437E-03 a       953     0    40     1    17
 -7.6440345867265599E-02 a       954     0    40     1    18
 -1.2305808487877767E-01 a       955     0    40     1    19
 -2.5305645943161847E-01 a       956     0    40     1    20
 -2.3847105095432672E-01 a       957     0    40     1    21
 -1.0454574340008847E-02 a       958     0    40     1    22
 -4.5021575153204756E-02 a       959     0    40     1    23
  2.2651759523621837E-01 a       960     0    40     1    24
 -5.2823452237020244E-02 a       961     0    41     1     1
 -9.6564845891880330E-02 a       962     0    41     1     2
  1.6130269531804114E-01 a       963     0    41     1     3
 -2.5529023183013682E-02 a       964     0    41     1     4
 -4.3570525760403107E-02 a       965     0    41     1     5
  8.5503002113283058E-02 a       966     0    41     1     6
  1.8191813210910643E-01 a       967     0    41     1     7
  1.6367997165706363E-01 a       968     0    41     1     8
  8.3655550474963050E-02 a       969     0    41     1     9
 -3.3015809588346129E-02 a       970     0    41     1    10
 -9.5797422938746057E-03 a       971     0    41     1    11
 -2.7933153618315224E-03 a       972     0    41     1    12
  3.9916224237835800E-02 a       973     0    41     1    13
  3.5289555743399273E-02 a       974     0    41     1    14
  6.2389155324209203E-02 a       975     0    41     1    15
  9.0967312329196262E-02 a       976     0    41     1    16
 -1.2808188266141574E-01 a       977     0    41     1    17
  1.0695515276385908E-01 a       978     0    41     1    18
  1.7552360350000468E-01 a       979     0    41     1    19
  9.3918542286033677E-02 a       980     0    41     1    20
  2.3248756919465352E-01 a       981     0    41     1    21
  1.3894351369775532E-02 a       982     0    41     1    22
  1.9339202989810216E-02 a       983     0    41     1    23
  1.0677749738110286E-01 a       984     0    41     1    24
 -1.0305120395629903E-01 a       985     0    42     1     1
  1.2313380351783689E-02 a       986     0    42     1     2
 -3.6633518128678128E-02 a       987     0    42     1     3
 -1.2022859382882417E-01 a       988     0    42     1     4
  4.7218323052292607E-03 a       989     0    42     1     5
  3.7263307370932156E-02 a       990     0    42     1     6
  6.5467482053525150E-02 a       991     0    42     1     7
 -4.0983122479538933E-02 a       992     0    42     1     8
  1.3223013886129006E-01 a       993     0    42     1     9
  9.0843279501024374E-02 a       994     0    42     1    10
 -2.8278336799017647E-03 a       995     0    42     1    11
 -1.4464209201612915E-01 a       996     0    42     1    12
 -3.5144945456745388E-02 a       997     0    42     1    13
  1.4026439974758603E-01 a       998     0    42     1    14
  2.5589418220108281E-02 a       999     0    42     1    15
  8.6696312468761083E-02 a      1000     0    42     1    16
 -4.5938528483502133E-02 a      1001     0    42     1    17
  1.0017186555402115E-01 a      1002     0    42     1    18
 -1.7339954885053649E-01 a      1003     0    42     1    19
  7.8924712646281495E-02 a      1004     0    42     1    20
  2.4294803479411702E-02 a      1005     0    42     1    21
 -1.4356429501836082E-01 a      1006     0    42     1    22
  9.7579199660011370E-02 a      1007     0    42     1    23
  6.4996147257944753E-02 a      1008     0    42     1    24
 -2.7042140045591578E-02 a      1009     0    43     1     1
  3.8871989457657553E-03 a      1010     0    43     1     2
 -9.8749107567450714E-02 a      1011     0    43     1     3
 -5.5169907707775558E-02 a      1012     0    43     1     4
 -2.4489503566395239E-02 a      1013     0    43     1     5
  9.1962420570733269E-02 a      1014     0    43     1     6
 -7.3249981578319856E-02 a      1015     0    43     1     7
 -3.4827127839833022E-02 a      1016     0    43     1     8
  6.6461236823492642E-02 a      1017     0    43     1     9
  2.5055501552560533E-01 a      1018     0    43     1    10
 -1.1261713726941872E-01 a      1019     0    43     1    11
 -9.0593396445649441E-02 a      1020     0    43     1    12
 -1.4268123821739478E-01 a      1021     0    43     1    13
  2.2976110566224753E-01 a      1022     0    43     1    14
 -6.4893779237106361E-02 a      1023     0    43     1    15
 -5.2962768000130271E-03 a      1024     0    43     1    16
  2.1794247507320348E-02 a      1025     0    43     1    17
  1.3557991443480660E-01 a      1026     0    43     1    18
  2.1603305999534920E-02 a      1027     0    43     1    19
  2.1825812617342882E-02 a      1028     0    43     1    20
  1.9922268187593362E-01 a      1029     0    43     1    21
  6.9581252450252137E-02 a      1030     0    43     1    22
 -1.4969302952573868E-01 a      1031     0    43     1    23
 -8.6691014615634027E-02 a      1032     0    43     1    24
  9.8200909941570155E-03 a      1033     0    44     1     1
  8.9081105831387383E-02 a      1034     0    44     1     2
 -2.0385246437528681E-01 a      1035     0    44     1     3
 -6.4092535254393637E-02 a      1036     0    44     1     4
 -9.8589320450290688E-02 a      1037     0    44     1     5
 -3.8324501882553416E-02 a      1038     0    44     1     6
 -1.7647762616505269E-01 a      1039     0    44     1     7
  2.3955316333105190E-02 a      1040     0    44     1     8
 -7.3927419221679447E-02 a      1041     0    44     1     9
 -7.7546701424816747E-02 a      1042     0    44     1    10
 -6.5071882089784608E-02 a      1043     0    44     1    11
  1.5187872087252238E-01 a      1044     0    44     1    12
  2.7401215920893696E-01 a      1045     0    44     1    13
 -6.8688201425564199E-02 a      1046     0    44     1    14
 -1.8172629433677263E-02 a      1047     0    44     1    15
  7.6146804166025900E-02 a      1048     0    44     1    16
 -2.5532276638793015E-02 a      1049     0    44     1    17
  2.2810434912101520E-02 a      1050     0    44     1    18
  1.2853350858797543E-02 a      1051     0    44     1    19
 -7.3659109747192489E-02 a      1052     0    44     1    20
  6.1080196208860529E-02 a      1053     0    44     1    21
 -1.8204498365749436E-01 a      1054     0    44     1    22
  1.1762589897373091E-01 a      1055     0    44     1    23
  8.4835410000853290E-02 a      1056     0    44     1    24
  8.9087368273467527E-02 a      1057     0    45     1     1
 -5.6440226241832980E-02 a      1058     0    45     1     2
 -8.7618347521267653E-02 a      1059     0    45     1     3
 -3.2658186721717705E-02 a      1060     0    45     1     4
 -6.7853984261256168E-04 a      1061     0    45     1     5
  2.2319478242398282E-02 a      1062     0    45     1     6
  1.0155571544070990E-01 a      1063     0    45     1     7
  9.0472159338701286E-02 a      1064     0    45     1     8
  2.1102188608178817E-02 a      1065     0    45     1     9
 -9.9487584131075404E-02 a      1066     0    45     1    10
  8.2846541270132065E-02 a      1067     0    45     1    11
  1.7633941896260008E-01 a      1068     0    45     1    12
  8.2909506198812141E-02 a      1069     0    45     1    13
 -6.8816934295029372E-02 a      1070     0    45     1    14
  3.2651784541535426E-03 a      1071     0    45     1    15
 -2.5167266260516630E-01 a      1072     0    45     1    16
  1.7712587705748235E-03 a      1073     0    45     1    17
  1.0268656822700645E-02 a      1074     0    45     1    18
  1.2655505861718505E-01 a      1075     0    45     1    19
 -2.1885266440136893E-02 a      1076     0    45     1    20
 -1.1963964972364169E-01 a      1077     0    45     1    21
  9.9618364827049527E-02 a      1078     0    45     1    22
 -1.1226449666885088E-01 a      1079     0    45     1    23
 -6.9807536077765506E-02 a      1080     0    45     1    24
 -3.5043470717797759E-01 a      1081     0    46     1     1
 -1.1014245459859963E-01 a      1082     0    46     1     2
 -6.4670827521336155E-02 a      1083     0    46     1     3
 -7.2722551971729679E-02 a      1084     0    46     1     4
 -5.5900196140119041E-02 a      1085     0    46     1     5
  1.0529155394874623E-01 a      1086     0    46     1     6
  7.0226580276892998E-04 a      1087     0    46     1     7
 -3.7349837078642305E-02 a      1088     0    46     1     8
  6.8981551241434555E-02 a      1089     0    46     1     9
 -4.8098879050660424E-02 a      1090     0    46     1    10
 -8.2693491496899901E-03 a      1091     0    46     1    11
 -1.5553087112046643E-01 a      1092     0    46     1    12
 -3.0234670299846261E-01 a      1093     0    46     1    13
 -1.1756887591445631E-01 a      1094     0    46     1    14
 -1.5977821601770203E-01 a      1095     0    46     1    15
  2.3311284609502148E-01 a      1096     0    46     1    16
  1.5359363455606363E-02 a      1097     0    46     1    17
  9.2221663506395476E-02 a      1098     0    46     1    18
  1.0389890617375450E-01 a      1099     0    46     1    19
  2.5123726851381778E-01 a      1100     0    46     1    20
 -4.8288550031417965E-02 a      1101     0    46     1    21
 -1.8608282830874395E-01 a      1102     0    46     1    22
  6.3772947508787647E-02 a      1103     0    46     1    23
 -6.7945538140349648E-02 a      1104     0    46     1    24
 -7.5722327864440456E-02 a      1105     0    47     1     1
 -2.4423775372947511E-02 a      1106     0    47     1     2
  3.8297494500517650E-02 a      1107     0    47     1     3
  1.0831499505512297E-01 a      1108     0    47     1     4
  5.7457644254756107E-02 a      1109     0    47     1     5
  8.5287842806518639E-03 a      1110     0    47     1     6
 -2.6883583436673121E-03 a      1111     0    47     1     7
 -1.4939300356813203E-02 a      1112     0    47     1     8
 -6.0095957230764059E-02 a      1113     0    47     1     9
 -4.3135756279062402E-02 a      1114     0    47     1    10
 -7.4993204196105431E-02 a      1115     0    47     1    11
  9.5306385284831013E-02 a      1116     0    47     1    12
 -1.7895138627584189E-01 a      1117     0    47     1    13
  3.5862769745574494E-02 a      1118     0    47     1    14
  7.6792072856564697E-02 a      1119     0    47     1    15
 -3.9211281111944302E-02 a      1120     0    47     1    16
 -1.1705236469756011E-01 a      1121     0    47     1    17
 -9.3285651045454249E-02 a      1122     0    47     1    18
  1.0573514007645698E-01 a      1123     0    47     1    19
  1.2003771336080817E-01 a      1124     0    47     1    20
 -2.8965420929356944E-02 a      1125     0    47     1    21
 -4.0540752555844696E-02 a      1126     0    47     1    22
 -4.3471674778517079E-02 a      1127     0    47     1    23
 -8.6245734409239758E-02 a      1128     0    47     1    24
  1.7859205771156106E-01 a      1129     0    48     1     1
  1.9945397319227262E-01 a      1130     0    48     1     2
 -2.0275599142666839E-01 a      1131     0    48     1     3
 -1.9827495771098208E-01 a      1132     0    48     1     4
  2.8705212375609322E-02 a      1133     0    48     1     5
 -1.1781980445095996E-01 a      1134     0    48     1     6
 -8.0735316250752531E-02 a      1135     0    48     1     7
  3.0274744666660316E-02 a      1136     0    48     1     8
 -9.8659065882563693E-02 a      1137     0    48     1     9
  3.7156187322968726E-01 a      1138     0    48     1    10
  2.5642640460720637E-02 a      1139     0    48     1    11
  4.0877565970760789E-02 a      1140     0    48     1    12
  1.4605005961746320E-01 a      1141     0    48     1    13
  2.2167076762447793E-01 a      1142     0    48     1    14
  7.5689031068985391E-02 a      1143     0    48     1    15
 -1.8766052622983478E-01 a      1144     0    48     1    16
 -1.8195552014294072E-01 a      1145     0    48     1    17
  7.8342499502873295E-02 a      1146     0    48     1    18
  5.6751398874863898E-02 a      1147     0    48     1    19
  2.1498368116710065E-01 a      1148     0    48     1    20
  1.8325976132801611E-02 a      1149     0    48     1    21
  3.6978912102969436E-01 a      1150     0    48     1    22
  3.2623822278480819E-01 a      1151     0    48     1    23
  2.1968933476030456E-01 a      1152     0    48     1    24
  6.2115491642965544E-02 a      1153     0    49     1     1
  2.6989031154340964E-01 a      1154     0    49     1     2
 -6.6266781729612645E-02 a      1155     0    49     1     3
  1.2431357685508766E-01 a      1156     0    49     1     4
  4.5024928255065454E-02 a      1157     0    49     1     5
  7.8779108796288855E-02 a      1158     0    49     1     6
  4.0464206212780615E-02 a      1159     0    49     1     7
 -7.6732057622560385E-02 a      1160     0    49     1     8
 -5.7156377912148559E-02 a      1161     0    49     1     9
 -2.5550911852399660E-02 a      1162     0    49     1    10
  2.2014344291384599E-02 a      1163     0    49     1    11
  1.5573732112315896E-02 a      1164     0    49     1    12
 -5.7975087054702473E-02 a      1165     0    49     1    13
  2.3029778377090675E-02 a      1166     0    49     1    14
  3.5235761782866235E-02 a      1167     0    49     1    15
  2.4250625762463796E-01 a      1168     0    49     1    16
  3.1251757262185431E-02 a      1169     0    49     1    17
 -3.6728611587604917E-02 a      1170     0    49     1    18
  4.5594043501219962E-02 a      1171     0    49     1    19
 -3.9676611879140428E-03 a      1172     0    49     1    20
  5.6282246057269884E-02 a      1173     0    49     1    21
 -2.6346432895317896E-02 a      1174     0    49     1    22
  6.9691874732869486E-03 a      1175     0    49     1    23
  1.5928834096729599E-01 a      1176     0    49     1    24
  7.8379398767753850E-02 a      1177     0    50     1     1
  1.2890535192801591E-02 a      1178     0    50     1     2
 -5.6459398905551371E-02 a      1179     0    50     1     3
  2.2729189535218747E-01 a      1180     0    50     1     4
 -1.6879719021163517E-01 a      1181     0    50     1     5
  8.2421829561388341E-02 a      1182     0    50     1     6
 -1.3513219959307723E-01 a      1183     0    50     1     7
  3.1407414578941958E-02 a      1184     0    50     1     8
  1.0290581086129702E-01 a      1185     0    50     1     9
 -3.3127285927345177E-03 a      1186     0    50     1    10
  1.5011895185326002E-01 a      1187     0    50     1    11
 -1.5057851143049059E-01 a      1188     0    50     1    12
  1.7458850537060838E-01 a      1189     0    50     1    13
  7.6890041249516483E-02 a      1190     0    50     1    14
 -2.3460702448864559E-01 a      1191     0    50     1    15
  9.4258882649784118E-02 a      1192     0    50     1    16
  2.0706397177814584E-02 a      1193     0    50     1    17
  3.5940361246933165E-02 a      1194     0    50     1    18
  5.6518994437540285E-02 a      1195     0    50     1    19
  4.0511276695383770E-02 a      1196     0    50     1    20
  1.0691250371684023E-01 a      1197     0    50     1    21
 -2.9868152921950886E-01 a      1198     0    50     1    22
  9.4396358881789863E-02 a      1199     0    50     1    23
 -3.6793852349294234E-02 a      1200     0    50     1    24
  2.3031598922712665E-01 a      1201     0    51     1     1
 -6.2879630521826047E-02 a      1202     0    51     1     2
  1.2283984833880862E-01 a      1203     0    51     1     3
 -4.9011619158135740E-02 a      1204     0    51     1     4
  7.9523758118058535E-02 a      1205     0    51     1     5
 -1.2379573022557511E-01 a      1206     0    51     1     6
  1.5190190250245902E-01 a      1207     0    51     1     7
 -1.2237549122159845E-01 a      1208     0    51     1     8
 -1.9129001276744545E-01 a      1209     0    51     1     9
  1.7364736587851221E-01 a      1210     0    51     1    10
  1.4407253492973104E-01 a      1211     0    51     1    11
 -1.9110047168478948E-02 a      1212     0    51     1    12
 -1.6827748884831001E-01 a      1213     0    51     1    13
 -1.1613298059699652E-01 a      1214     0    51     1    14
  1.4927005603628934E-01 a      1215     0    51     1    15
  3.4374956813550919E-02 a      1216     0    51     1    16
  5.4876744685652463E-02 a      1217     0    51     1    17
  1.3730165714842826E-01 a      1218     0    51     1    18
 -5.3415716460721449E-02 a      1219     0    51     1    19
 -3.3966642809195504E-03 a      1220     0    51     1    20
 -1.7179564627077312E-01 a      1221     0    51     1    21
  5.1631075734463378E-02 a      1222     0    51     1    22
  1.6227399740101234E-01 a      1223     0    51     1    23
  5.4336036836626418E-02 a      1224     0    51     1    24
  3.9020819236337809E-02 a      1225     0    52     1     1
 -1.9267061341612871E-01 a      1226     0    52     1     2
  7.9215570140906466E-02 a      1227     0    52     1     3
 -2.5257204419104331E-03 a      1228     0    52     1     4
  1.1683713385658075E-01 a      1229     0    52     1     5
 -1.2864164077744381E-01 a      1230     0    52     1     6
  3.9872858770804084E-02 a      1231     0    52     1     7
  8.4636009333562981E-02 a      1232     0    52     1     8
 -3.1174418960167514E-02 a      1233     0    52     1     9
  3.1742032299188511E-02 a      1234     0    52     1    10
  1.5348856287415188E-01 a      1235     0    52     1    11
  6.2607910693606814E-02 a      1236     0    52     1    12
  6.0133188125187954E-02 a      1237     0    52     1    13
 -2.0180284108096039E-01 a      1238     0    52     1    14
 -1.0591750038030195E-01 a      1239     0    52     1    15
 -8.9858493896147501E-02 a      1240     0    52     1    16
 -7.5109312540931186E-02 a      1241     0    52     1    17
  7.8908481591643403E-02 a      1242     0    52     1    18
 -8.8939942267521083E-02 a      1243     0    52     1    19
 -1.3712575741650641E-02 a      1244     0    52     1    20
  2.5217712827076154E-02 a      1245     0    52     1    21
  1.6493692717224628E-02 a      1246     0    52     1    22
  4.0583127769320597E-02 a      1247     0    52     1    23
  3.5532471819841524E-02 a      1248     0    52     1    24
  1.4666290662059894E-01 a      1249     0    53     1     1
 -6.9365629012023283E-02 a      1250     0    53     1     2
  1.9916507076711748E-01 a      1251     0    53     1     3
 -1.6737528834747678E-01 a      1252     0    53     1     4
  1.3198243650591943E-01 a      1253     0    53     1     5
 -3.5912868742475901E-02 a      1254     0    53     1     6
  1.3143149189667139E-01 a      1255     0    53     1     7
 -1.3865971385313031E-01 a      1256     0    53     1     8
 -3.0864162316179094E-02 a      1257     0    53     1     9
  1.8009506586994534E-01 a      1258     0    53     1    10
  2.7347125850712178E-01 a      1259     0    53     1    11
  1.6997077503855362E-01 a      1260     0    53     1    12
  1.9741333490785939E-01 a      1261     0    53     1    13
 -6.6484153443271021E-02 a      1262     0    53     1    14
  2.4869844630112756E-01 a      1263     0    53     1    15
 -1.3892386242138632E-01 a      1264     0    53     1    16
  3.2411418497111408E-03 a      1265     0    53     1    17
 -1.0193245869673338E-01 a      1266     0    53     1    18
 -2.6573419916941898E-02 a      1267     0    53     1    19
  2.2700537580017321E-01 a      1268     0    53     1    20
  9.5075637579006292E-02 a      1269     0    53     1    21
  1.0455135631773814E-01 a      1270     0    53     1    22
  8.5851893104187775E-03 a      1271     0    53     1    23
  1.4917744512951764E-01 a      1272     0    53     1    24
  9.7291310941203094E-02 a      1273     0    54     1     1
 -1.1382389087769110E-01 a      1274     0    54     1     2
 -1.3951534134632504E-01 a      1275     0    54     1     3
  1.8810989992108510E-02 a      1276     0    54     1     4
 -1.3317915841255845E-01 a      1277     0    54     1     5
  3.1188770890561546E-02 a      1278     0    54     1     6
  9.7276811482466616E-03 a      1279     0    54     1     7
 -1.8756664835179329E-01 a      1280     0    54     1     8
  1.4215650937423077E-01 a      1281     0    54     1     9
 -1.3051246537649860E-01 a      1282     0    54     1    10
 -1.5950424038407695E-02 a      1283     0    54     1    11
 -1.9901726613017967E-01 a      1284     0    54     1    12
  1.1767860726070470E-01 a      1285     0    54     1    13
 -5.2713373691505888E-02 a      1286     0    54     1    14
 -7.1499797326814676E-02 a      1287     0    54     1    15
 -4.0885087832513947E-02 a      1288     0    54     1    16
  1.9104602199954551E-01 a      1289     0    54     1    17
  2.0518475067149555E-02 a      1290     0    54     1    18
  2.2102581863168543E-02 a      1291     0    54     1    19
  9.1210999443091505E-03 a      1292     0    54     1    20
  1.0373780200633614E-01 a      1293     0    54     1    21
  1.7616779026672222E-01 a      1294     0    54     1    22
  1.2368997468228360E-01 a      1295     0    54     1    23
 -2.0062757247754318E-01 a      1296     0    54     1    24
  1.3693275259023485E-01 a      1297     0    55     1     1
 -1.0412521434094112E-01 a      1298     0    55     1     2
  9.6616908061766260E-02 a      1299     0    55     1     3
  6.3075817229328687E-02 a      1300     0    55     1     4
  1.4382610843050000E-01 a      1301     0    55     1     5
 -8.0995283800062406E-02 a      1302     0    55     1     6
  1.3644402772366926E-01 a      1303     0    55     1     7
 -4.1109372636277994E-02 a      1304     0    55     1     8
  5.0118973860902867E-02 a      1305     0    55     1     9
 -1.6342161211333535E-02 a      1306     0    55     1    10
  8.4556665371517167E-02 a      1307     0    55     1    11
  1.9148543529435565E-02 a      1308     0    55     1    12
 -2.3436316773410463E-02 a      1309     0    55     1    13
 -1.9700030598491319E-01 a      1310     0    55     1    14
 -1.1870036310926389E-01 a      1311     0    55     1    15
 -1.5577779693487026E-02 a      1312     0    55     1    16
  6.1064905394757542E-02 a      1313     0    55     1    17
 -5.0270718137259196E-02 a      1314     0    55     1    18
  1.1719667161345713E-01 a      1315     0    55     1    19
  6.0998551205914395E-02 a      1316     0    55     1    20
 -1.2194121439208262E-02 a      1317     0    55     1    21
  1.7024088854553571E-01 a      1318     0    55     1    22
 -1.3808929631290304E-01 a      1319     0    55     1    23
  7.5340409175209067E-02 a      1320     0    55     1    24
 -2.3517754398650575E-01 a      1321     0    56     1     1
  7.6053513935289224E-02 a      1322     0    56     1     2
 -1.0084798340370708E-01 a      1323     0    56     1     3
  2.5897848520580630E-01 a      1324     0    56     1     4
  3.3865134639474014E-02 a      1325     0    56     1     5
 -1.4141940932363398E-01 a      1326     0    56     1     6
  1.4841417880219889E-02 a      1327     0    56     1     7
  7.6236063346729208E-02 a      1328     0    56     1     8
 -4.6588062861333364E-03 a      1329     0    56     1     9
 -4.1255958597893015E-02 a      1330     0    56     1    10
  1.2560583472960374E-01 a      1331     0    56     1    11
 -1.1242173516273730E-01 a      1332     0    56     1    12
 -1.2446037757342812E-01 a      1333     0    56     1    13
 -2.0434458836754130E-02 a      1334     0    56     1    14
 -1.0149751220215197E-01 a      1335     0    56     1    15
 -1.7025034459532171E-01 a      1336     0    56     1    16
 -1.8237531041693733E-02 a      1337     0    56     1    17
 -2.6399978237472160E-01 a      1338     0    56     1    18
 -7.7589214255762975E-03 a      1339     0    56     1    19
 -9.5148482024836778E-02 a      1340     0    56     1    20
  5.0868636618146848E-02 a      1341     0    56     1    21
 -1.5700261903112366E-02 a      1342     0    56     1    22
  9.0396946051466864E-02 a      1343     0    56     1    23
 -6.9534838152404618E-02 a      1344     0    56     1    24
 -8.8551467129287256E-02 a      1345     0    57     1     1
 -6.5410655272266402E-02 a      1346     0    57     1     2
 -2.3967505537529868E-01 a      1347     0    57     1     3
  1.8718820071224981E-01 a      1348     0    57     1     4
 -2.9935707325639192E-02 a      1349     0    57     1     5
 -7.8858901868641654E-02 a      1350     0    57     1     6
 -1.2664008483214643E-02 a      1351     0    57     1     7
 -2.7142415035966597E-02 a      1352     0    57     1     8
  1.0999324204165585E-01 a      1353     0    57     1     9
  1.0202172721560908E-01 a      1354     0    57     1    10
  5.8233831427933508E-02 a      1355     0    57     1    11
 -1.3658814410045717E-01 a      1356     0    57     1    12
 -1.7522687920116906E-01 a      1357     0    57     1    13
  3.8350754933631714E-02 a      1358     0    57     1    14
  1.8804222820343763E-01 a      1359     0    57     1    15
 -1.8099944003698350E-02 a      1360     0    57     1    16
  1.6358783392043461E-01 a      1361     0    57     1    17
 -1.9749905417485152E-02 a      1362     0    57     1    18
  1.7160049042149270E-01 a      1363     0    57     1    19
 -1.0522792954536887E-01 a      1364     0    57     1    20
  9.9092169710240860E-02 a      1365     0    57     1    21
  1.4703242108514433E-01 a      1366     0    57     1    22
 -8.8616273251566971E-02 a      1367     0    57     1    23
 -7.6839491386546291E-02 a      1368     0    57     1    24
 -3.3733298757518369E-02 a      1369     0    58     1     1
 -2.8670641307482449E-02 a      1370     0    58     1     2
 -3.8184938001434687E-02 a      1371     0    58     1     3
 -5.4097228851181872E-02 a      1372     0    58     1     4
 -2.4912669672222770E-01 a      1373     0    58     1     5
  1.3554303282106364E-01 a      1374     0    58     1     6
 -3.7097166639263629E-02 a      1375     0    58     1     7
  8.4190613568199332E-02 a      1376     0    58     1     8
  1.0787930658640686E-01 a      1377     0    58     1     9
 -1.2274482169431125E-01 a      1378     0    58     1    10
  1.4518104045394856E-01 a      1379     0    58     1    11
 -3.7004680979748364E-02 a      1380     0    58     1    12
 -1.2399305357019390E-01 a      1381     0    58     1    13
 -1.7498340835146664E-01 a      1382     0    58     1    14
  1.0163207549261763E-01 a      1383     0    58     1    15
  3.1410081939222713E-02 a      1384     0    58     1    16
  3.7949665984601567E-02 a      1385     0    58     1    17
 -1.9241941604085022E-01 a      1386     0    58     1    18
  6.8319658187938725E-02 a      1387     0    58     1    19
 -1.1700663958279550E-01 a      1388     0    58     1    20
 -2.2313430284381573E-02 a      1389     0    58     1    21
  2.7384248593477378E-01 a      1390     0    58     1    22
 -1.9284809918414542E-02 a      1391     0    58     1    23
  8.1173650736341946E-02 a      1392     0    58     1    24
  8.8995126646014694E-02 a      1393     0    59     1     1
  3.3976282092129717E-02 a      1394     0    59     1     2
 -3.8574085571089281E-02 a      1395     0    59     1     3
 -1.3415210105612788E-01 a      1396     0    59     1     4
  1.8347493415730258E-03 a      1397     0    59     1     5
  5.9860799274087335E-02 a      1398     0    59     1     6
  1.4023132352506337E-03 a      1399     0    59     1     7
  5.6171422333448566E-02 a      1400     0    59     1     8
 -2.3213330596605131E-02 a      1401     0    59     1     9
  2.9582541358134637E-02 a      1402     0    59     1    10
 -6.8627819857692327E-02 a      1403     0    59     1    11
 -5.6576906056939498E-02 a      1404     0    59     1    12
  1.0372484637153323E-01 a      1405     0    59     1    13
 -9.9684315382442823E-03 a      1406     0    59     1    14
  1.7626333204503533E-01 a      1407     0    59     1    15
 -2.0800420738818742E-02 a      1408     0    59     1    16
 -1.5896799231636459E-03 a      1409     0    59     1    17
  9.1755069687799062E-02 a      1410     0    59     1    18
  5.6646569695528150E-02 a      1411     0    59     1    19
 -7.6973659912625350E-02 a      1412     0    59     1    20
  9.7380577201515495E-02 a      1413     0    59     1    21
  9.7675073737885074E-02 a      1414     0    59     1    22
 -2.1466126940431157E-01 a      1415     0    59     1    23
 -1.0318911095174557E-01 a      1416     0    59     1    24
 -5.9625647172014988E-03 a      1417     0    60     1     1
 -2.8604666265860505E-02 a      1418     0    60     1     2
 -3.7415540296442451E-02 a      1419     0    60     1     3
 -1.9521643753318410E-01 a      1420     0    60     1     4
  6.6718580430155786E-02 a      1421     0    60     1     5
  1.2350341259930518E-01 a      1422     0    60     1     6
  9.0980114420321098E-02 a      1423     0    60     1     7
  1.0221901145567575E-01 a      1424     0    60     1     8
  1.2050680596952423E-02 a      1425     0    60     1     9
  1.0538912976002396E-01 a      1426     0    60     1    10
  6.9569927875673468E-02 a      1427     0    60     1    11
  4.4141920896011788E-03 a      1428     0    60     1    12
 -1.2284938068121243E-01 a      1429     0    60     1    13
 -1.9610631991797502E-02 a      1430     0    60     1    14
 -4.7985713080076257E-02 a      1431     0    60     1    15
 -1.5558491193705296E-01 a      1432     0    60     1    16
 -5.1957408311354966E-02 a      1433     0    60     1    17
 -3.4094632279346887E-01 a      1434     0    60     1    18
 -7.8331450832139674E-02 a      1435     0    60     1    19
  2.0096939270783917E-01 a      1436     0    60     1    20
  1.3511545637193798E-01 a      1437     0    60     1    21
  2.4298088954013855E-01 a      1438     0    60     1    22
  9.2192900681744572E-02 a      1439     0    60     1    23
  6.1126127249907201E-02 a      1440     0    60     1    24
  1.2256160281864070E-01 a      1441     0    61     1     1
  4.5616622277843931E-02 a      1442     0    61     1     2
 -8.4168878795992691E-02 a      1443     0    61     1     3
 -1.3717426865808227E-01 a      1444     0    61     1     4
  4.1251111741968896E-02 a      1445     0    61     1     5
 -7.4707637920045158E-02 a      1446     0    61     1     6
 -1.4464603594299349E-01 a      1447     0    61     1     7
  1.3838791971173015E-01 a      1448     0    61     1     8
  9.8262579935393390E-02 a      1449     0    61     1     9
  1.3145213758488183E-03 a      1450     0    61     1    10
 -6.4502254116935456E-02 a      1451     0    61     1    11
  2.2990345937039242E-01 a      1452     0    61     1    12
  1.2686651124036680E-01 a      1453     0    61     1    13
  4.0035686171350206E-02 a      1454     0    61     1    14
 -8.6320729197094624E-03 a      1455     0    61     1    15
 -1.9559434647408891E-01 a      1456     0    61     1    16
  3.4805249582148375E-02 a      1457     0    61     1    17
 -2.6844470193146518E-02 a      1458     0    61     1    18
  6.0375924417444840E-02 a      1459     0    61     1    19
 -2.5398511063180747E-02 a      1460     0    61     1    20
  5.4230959271005116E-02 a      1461     0    61     1    21
 -6.7687043925262523E-03 a      1462     0    61     1    22
 -1.7369985057870529E-01 a      1463     0    61     1    23
  1.5859304227550072E-01 a      1464     0    61     1    24
  2.6162901271590183E-01 a      1465     0    62     1     1
 -1.0030199692768861E-01 a      1466     0    62     1     2
 -4.0740689678606154E-02 a      1467     0    62     1     3
 -4.6488223353395142E-02 a      1468     0    62     1     4
 -1.0205588677899442E-01 a      1469     0    62     1     5
 -7.9713058069457218E-03 a      1470     0    62     1     6
 -1.2006569230155773E-02 a      1471     0    62     1     7
 -4.6116368011273598E-02 a      1472     0    62     1     8
 -3.3405499295513758E-02 a      1473     0    62     1     9
  1.0471639912517677E-01 a      1474     0    62     1    10
  1.4373292802838730E-01 a      1475     0    62     1    11
  3.3635208862578293E-02 a      1476     0    62     1    12
 -1.2888101929067242E-01 a      1477     0    62     1    13
 -2.3810800353124720E-01 a      1478     0    62     1    14
 -1.0246998254385919E-01 a      1479     0    62     1    15
 -9.7278808602407577E-02 a      1480     0    62     1    16
  2.1179747312756766E-01 a      1481     0    62     1    17
  1.0753087444499378E-01 a      1482     0    62     1    18
 -2.5612072582249490E-01 a      1483     0    62     1    19
 -2.0598907865963592E-01 a      1484     0    62     1    20
 -1.5180499944420173E-01 a      1485     0    62     1    21
  1.8032402564614948E-02 a      1486     0    62     1    22
  1.8788458814407474E-01 a      1487     0    62     1    23
 -5.8063546898925504E-02 a      1488     0    62     1    24
 -2.3801763435034393E-01 a      1489     0    63     1     1
 -3.3002955595509247E-02 a      1490     0    63     1     2
 -1.4453122212978059E-01 a      1491     0    63     1     3
  1.7767467963813138E-01 a      1492     0    63     1     4
 -3.9196266384912734E-02 a      1493     0    63     1     5
  5.8061672278576721E-03 a      1494     0    63     1     6
  1.2359431017921081E-01 a      1495     0    63     1     7
 -9.2811817242887187E-02 a      1496     0    63     1     8
 -1.5753760930055559E-02 a      1497     0    63     1     9
 -1.5267569006529474E-01 a      1498     0    63     1    10
 -2.0377629526308019E-01 a      1499     0    63     1    11
 -7.9897936493130248E-02 a      1500     0    63     1    12
 -1.8358745338379417E-01 a      1501     0    63     1    13
 -8.6013488384665809E-03 a      1502     0    63     1    14
 -2.0911644531725260E-01 a      1503     0    63     1    15
  9.5698319830075096E-03 a      1504     0    63     1    16
  6.5688565389518866E-02 a      1505     0    63     1    17
 -3.7397255064174328E-01 a      1506     0    63     1    18
 -1.6586235635566945E-01 a      1507     0    63     1    19
 -1.7037911406271483E-01 a      1508     0    63     1    20
 -9.6934257452199718E-02 a      1509     0    63     1    21
 -1.9525247391130199E-01 a      1510     0    63     1    22
 -1.5250379158267169E-01 a      1511     0    63     1    23
 -3.3985932104145639E-01 a      1512     0    63     1    24
 -2.7613443442428676E-01 a      1513     0    64     1     1
 -7.0439014465104699E-02 a      1514     0    64     1     2
  2.1861734377195283E-01 a      1515     0    64     1     3
  1.1580561344994618E-01 a      1516     0    64     1     4
  4.7324991454143477E-02 a      1517     0    64     1     5
 -6.3148593185421098E-02 a      1518     0    64     1     6
 -1.3151937470712688E-01 a      1519     0    64     1     7
 -8.0287782965708362E-02 a      1520     0    64     1     8
 -5.7333025120112027E-02 a      1521     0    64     1     9
 -3.6746781432868719E-02 a      1522     0    64     1    10
 -6.2171951350500965E-02 a      1523     0    64     1    11
  5.4355655880850076E-03 a      1524     0    64     1    12
 -3.7702178209512896E-02 a      1525     0    64     1    13
 -1.8807837288438181E-01 a      1526     0    64     1    14
  9.4841170212475553E-02 a      1527     0    64     1    15
 -2.0131408597011849E-01 a      1528     0    64     1    16
 -1.9284049675121429E-01 a      1529     0    64     1    17
 -1.8943241280579579E-01 a      1530     0    64     1    18
 -3.3234481645371190E-02 a      1531     0    64     1    19
 -2.0208797132721331E-02 a      1532     0    64     1    20
 -6.9049041275407674E-02 a      1533     0    64     1    21
 -3.4144480411523626E-02 a      1534     0    64     1    22
  2.0319375330466208E-01 a      1535     0    64     1    23
  1.0556203709882583E-01 a      1536     0    64     1    24
 -7.8908239142536189E-03 a      1537     0    65     1     1
 -3.1220942050349702E-02 a      1538     0    65     1     2
  1.5264561537513287E-02 a      1539     0    65     1     3
  1.3788965956635618E-01 a      1540     0    65     1     4
  1.3365196699195966E-01 a      1541     0    65     1     5
  1.1253446352847957E-01 a      1542     0    65     1     6
 -1.0236004132113642E-01 a      1543     0    65     1     7
  1.1943763295672143E-01 a      1544     0    65     1     8
  2.5464269969013920E-01 a      1545     0    65     1     9
 -2.0926772929704190E-01 a      1546     0    65     1    10
  4.4107857909626057E-03 a      1547     0    65     1    11
  3.3120058881157088E-03 a      1548     0    65     1    12
 -2.1925177802603578E-02 a      1549     0    65     1    13
 -1.6785143035704168E-02 a      1550     0    65     1    14
 -1.8258655014985173E-01 a      1551     0    65     1    15
 -3.4239609880180250E-01 a      1552     0    65     1    16
  4.3281586792895461E-02 a      1553     0    65     1    17
  2.7997875959570429E-02 a      1554     0    65     1    18
  1.2646776735883139E-01 a      1555     0    65     1    19
 -1.0177624240533494E-01 a      1556     0    65     1    20
  1.2022884924413270E-01 a      1557     0    65     1    21
 -6.3737700299430641E-02 a      1558     0    65     1    22
  8.9898869727113376E-02 a      1559     0    65     1    23
 -4.2931104224319167E-01 a      1560     0    65     1    24
 -9.0035335654149548E-02 a      1561     0    66     1     1
  7.2145738423688571E-02 a      1562     0    66     1     2
  2.2285275293269946E-01 a      1563     0    66     1     3
 -5.5136492837785038E-02 a      1564     0    66     1     4
  7.2906933807935170E-02 a      1565     0    66     1     5
  6.6249739815080963E-02 a      1566     0    66     1     6
 -1.9815534042953559E-01 a      1567     0    66     1     7
  1.3048684822595169E-02 a      1568     0    66     1     8
  2.6139573205456415E-02 a      1569     0    66     1     9
 -2.6769633342445715E-02 a      1570     0    66     1    10
 -2.6581738465292895E-02 a      1571     0    66     1    11
 -1.7590215356608527E-01 a      1572     0    66     1    12
 -1.2003252253706509E-01 a      1573     0    66     1    13
 -6.2131708192968205E-02 a      1574     0    66     1    14
  8.1316817907780226E-02 a      1575     0    66     1    15
 -5.6921586243744299E-02 a      1576     0    66     1    16
  3.6522255970142803E-02 a      1577     0    66     1    17
 -1.4004319567553453E-01 a      1578     0    66     1    18
  1.4821370221379102E-01 a      1579     0    66     1    19
  1.5544303662899728E-01 a      1580     0    66     1    20
 -8.9717764508106448E-03 a      1581     0    66     1    21
 -1.0020432987758806E-02 a      1582     0    66     1    22
 -9.7522320037432650E-02 a      1583     0    66     1    23
  9.2855095533177612E-02 a      1584     0    66     1    24
 -8.9456315622447991E-02 a      1585     0    67     1     1
  1.3268898422925843E-01 a      1586     0    67     1     2
  1.7727501139786184E-01 a      1587     0    67     1     3
  4.8805940571895717E-02 a      1588     0    67     1     4
  5.1449878353699761E-02 a      1589     0    67     1     5
  1.2193725612498925E-01 a      1590     0    67     1     6
 -1.4841201401805812E-01 a      1591     0    67     1     7
 -1.4993769312136926E-01 a      1592     0    67     1     8
 -1.7128737215377873E-01 a      1593     0    67     1     9
 -1.9463720576193536E-01 a      1594     0    67     1    10
  3.4389367049609543E-02 a      1595     0    67     1    11
  2.0408135017872289E-01 a      1596     0    67     1    12
  7.9232948801830853E-03 a      1597     0    67     1    13
 -3.1009472093784810E-02 a      1598     0    67     1    14
  1.1305209381754945E-01 a      1599     0    67     1    15
 -3.4448258799837962E-02 a      1600     0    67     1    16
 -5.5914785302474047E-02 a      1601     0    67     1    17
 -1.0301039150454570E-01 a      1602     0    67     1    18
 -8.6627709563702138E-02 a      1603     0    67     1    19
 -4.8848531156055974E-02 a      1604     0    67     1    20
 -1.4411921756752583E-01 a      1605     0    67     1    21
  3.7029596464857727E-02 a      1606     0    67     1    22
  1.2309172342188819E-01 a      1607     0    67     1    23
 -1.1433574103685776E-01 a      1608     0    67     1    24
  1.8787745234913583E-01 a      1609     0    68     1     1
  7.7432542919305972E-02 a      1610     0    68     1     2
  1.0309216314605057E-01 a      1611     0    68     1     3
 -6.8724819963223039E-03 a      1612     0    68     1     4
 -1.1053525231163153E-01 a      1613     0    68     1     5
  1.5438544822058323E-01 a      1614     0    68     1     6
  7.0515911705660739E-02 a      1615     0    68     1     7
  1.0235794854737428E-01 a      1616     0    68     1     8
  5.6700541444863091E-02 a      1617     0    68     1     9
 -3.2873212127456100E-02 a      1618     0    68     1    10
 -1.0998507882831988E-01 a      1619     0    68     1    11
  2.0876340494535256E-01 a      1620     0    68     1    12
  2.4665863064339488E-02 a      1621     0    68     1    13
 -1.3882364483219548E-01 a      1622     0    68     1    14
  1.5224915822017882E-01 a      1623     0    68     1    15
