################################################################################
# Neural network connection values (weights and biases).
################################################################################
# Col  Name       Description
################################################################################
# 1    connection Neural network connection value.
# 2    t          Connection type (a = weight, b = bias).
# 3    index      Index enumerating weights.
# 4    l_s        Starting point layer (end point layer for biases).
# 5    n_s        Starting point neuron in starting layer (end point neuron for biases).
# 6    l_e        End point layer.
# 7    n_e        End point neuron in end layer.
################################################################################
#                      1 2         3     4     5     6     7
#             connection t     index   l_s   n_s   l_e   n_e
############################################################
  2.0397393059495353E-01 a         1     0     1     1     1
 -4.0699575383611630E-02 a         2     0     1     1     2
 -1.1485669541618759E-01 a         3     0     1     1     3
 -6.3196128999455523E-02 a         4     0     1     1     4
 -3.5850942314036577E-01 a         5     0     1     1     5
 -5.1011081279122938E-01 a         6     0     1     1     6
  6.8939228522068008E-01 a         7     0     1     1     7
  2.1472837800569789E-03 a         8     0     1     1     8
 -1.8196800311556194E-01 a         9     0     1     1     9
 -2.0209917250059564E-01 a        10     0     1     1    10
 -1.6014005825913241E-01 a        11     0     1     1    11
  6.7095935337240595E-03 a        12     0     1     1    12
  1.1386944897283031E-01 a        13     0     1     1    13
 -5.9899745564528928E-01 a        14     0     1     1    14
 -1.1879953179046863E+00 a        15     0     1     1    15
 -5.6545117548273827E-01 a        16     0     1     1    16
 -4.7899040110891772E-01 a        17     0     1     1    17
  2.3688455526796967E-01 a        18     0     1     1    18
 -4.5785777312800985E-01 a        19     0     1     1    19
 -4.5252927830605921E-01 a        20     0     1     1    20
 -2.5125104074682207E-02 a        21     0     1     1    21
  1.0680485943456154E-01 a        22     0     1     1    22
 -4.1530425154943318E-01 a        23     0     1     1    23
  3.2411654320487837E-01 a        24     0     1     1    24
 -1.6957743665720915E+00 a        25     0     2     1     1
  2.8011680861775558E-02 a        26     0     2     1     2
 -4.8670994833912856E-01 a        27     0     2     1     3
  9.8970967998997161E-01 a        28     0     2     1     4
 -1.1321176403390465E+00 a        29     0     2     1     5
 -3.9575286144630317E-01 a        30     0     2     1     6
  1.0593592893960586E+00 a        31     0     2     1     7
 -1.3694917617787967E+00 a        32     0     2     1     8
 -7.1260457693004708E-01 a        33     0     2     1     9
 -8.2166419217635478E-01 a        34     0     2     1    10
  1.0833547744978829E+00 a        35     0     2     1    11
  1.3102762011756117E-01 a        36     0     2     1    12
  3.0592519289148790E-01 a        37     0     2     1    13
 -4.6906469684335100E-01 a        38     0     2     1    14
  2.8976577750782373E-01 a        39     0     2     1    15
 -1.2753386991035909E+00 a        40     0     2     1    16
  1.5713902168541543E+00 a        41     0     2     1    17
 -1.9325679235352083E-01 a        42     0     2     1    18
 -7.9373889253506080E-01 a        43     0     2     1    19
 -2.7395696287360599E-01 a        44     0     2     1    20
 -2.6264831407610792E-03 a        45     0     2     1    21
 -1.7006717099099103E-01 a        46     0     2     1    22
  6.0358808596210634E-01 a        47     0     2     1    23
 -4.1692941721030102E-01 a        48     0     2     1    24
  6.8176294319760933E-01 a        49     0     3     1     1
 -4.8532884489518535E-01 a        50     0     3     1     2
 -2.1554030657936321E-01 a        51     0     3     1     3
  1.3583061784297731E-01 a        52     0     3     1     4
 -2.0477917584587907E-01 a        53     0     3     1     5
 -1.9907067489760086E-01 a        54     0     3     1     6
  9.8894096724300207E-01 a        55     0     3     1     7
  3.1629974514673409E-01 a        56     0     3     1     8
 -4.0855121634558483E-01 a        57     0     3     1     9
 -3.5834991308260961E-01 a        58     0     3     1    10
  8.2510153437428546E-01 a        59     0     3     1    11
  9.9141921269843333E-03 a        60     0     3     1    12
  7.0969194562587934E-01 a        61     0     3     1    13
 -1.9029964600180940E-01 a        62     0     3     1    14
 -1.4745294650396474E+00 a        63     0     3     1    15
 -3.4094661876787297E-01 a        64     0     3     1    16
  4.3670330601661556E-01 a        65     0     3     1    17
  1.0357568640592534E+00 a        66     0     3     1    18
 -2.2038905440131767E-01 a        67     0     3     1    19
 -6.2275590289623417E-01 a        68     0     3     1    20
  3.0834246015572336E-01 a        69     0     3     1    21
  2.2117965437928663E-01 a        70     0     3     1    22
 -1.4248040571051970E-01 a        71     0     3     1    23
 -3.5516173727802564E-01 a        72     0     3     1    24
  2.1201368593593684E-01 a        73     0     4     1     1
  3.5109987901639386E-03 a        74     0     4     1     2
 -6.0109124901358135E-01 a        75     0     4     1     3
 -6.2753750644857476E-01 a        76     0     4     1     4
  9.1747128349252513E-02 a        77     0     4     1     5
  5.0278248216725807E-01 a        78     0     4     1     6
 -3.9501862230905738E-01 a        79     0     4     1     7
  2.7243880701325374E-01 a        80     0     4     1     8
 -1.6271737266547279E-01 a        81     0     4     1     9
  4.6629327441501250E-01 a        82     0     4     1    10
  8.4817083234758028E-01 a        83     0     4     1    11
  3.0260213753223700E-02 a        84     0     4     1    12
  2.4801113693935828E-01 a        85     0     4     1    13
  2.2020846295252031E-01 a        86     0     4     1    14
  1.7227507441645321E-01 a        87     0     4     1    15
  5.3974855621141460E-01 a        88     0     4     1    16
 -2.4057225231697016E-01 a        89     0     4     1    17
  4.9036530160647747E-02 a        90     0     4     1    18
 -2.6459574073033475E-02 a        91     0     4     1    19
  2.2203761339559949E-01 a        92     0     4     1    20
  3.3445064020551162E-02 a        93     0     4     1    21
  3.9620740657892872E-01 a        94     0     4     1    22
  3.6298346804987974E-01 a        95     0     4     1    23
 -2.0415060797682183E-01 a        96     0     4     1    24
 -6.3173265077803997E-01 a        97     0     5     1     1
  4.0809527937983342E-01 a        98     0     5     1     2
  5.7451355650862443E-02 a        99     0     5     1     3
 -4.2474698816852424E-01 a       100     0     5     1     4
 -2.9045592930235470E-01 a       101     0     5     1     5
 -3.5042847804690364E-01 a       102     0     5     1     6
 -4.0013635130423625E-01 a       103     0     5     1     7
 -1.8800044653872758E-01 a       104     0     5     1     8
  3.5128626975708127E-01 a       105     0     5     1     9
 -2.4516356427750685E-01 a       106     0     5     1    10
 -5.3970843744960151E-01 a       107     0     5     1    11
 -2.1319762460938893E-01 a       108     0     5     1    12
 -7.9513216844771351E-01 a       109     0     5     1    13
  5.1527317428493513E-01 a       110     0     5     1    14
  1.0124055068378675E+00 a       111     0     5     1    15
  1.4304385836991404E-01 a       112     0     5     1    16
 -1.3657169201989255E-01 a       113     0     5     1    17
 -5.0027056831663264E-01 a       114     0     5     1    18
 -2.5530654680941195E-01 a       115     0     5     1    19
  4.4094076183823661E-01 a       116     0     5     1    20
 -2.8358863434385462E-01 a       117     0     5     1    21
 -2.9211769530917020E-01 a       118     0     5     1    22
  2.4091805906324565E-01 a       119     0     5     1    23
  1.2212639620060756E-01 a       120     0     5     1    24
  4.1289708395252323E-01 a       121     0     6     1     1
 -9.4355193066162912E-01 a       122     0     6     1     2
 -7.4667176043087791E-01 a       123     0     6     1     3
 -6.2741589282713572E-01 a       124     0     6     1     4
  3.0826088464824503E-01 a       125     0     6     1     5
 -1.8690670409953994E-01 a       126     0     6     1     6
 -2.3614153331711316E-01 a       127     0     6     1     7
  6.2635087086924635E-01 a       128     0     6     1     8
 -6.8228667950564503E-01 a       129     0     6     1     9
  1.1213541542593104E-01 a       130     0     6     1    10
  6.9231319456430052E-01 a       131     0     6     1    11
  1.3073438778461973E-02 a       132     0     6     1    12
 -1.3215504813273132E-01 a       133     0     6     1    13
  1.9497751887408823E-01 a       134     0     6     1    14
  6.4749830664669106E-02 a       135     0     6     1    15
  2.8711441355960299E-01 a       136     0     6     1    16
 -5.4462350997272202E-01 a       137     0     6     1    17
 -5.4480329729739296E-01 a       138     0     6     1    18
 -4.4978000408502006E-01 a       139     0     6     1    19
 -1.2576139536145506E-01 a       140     0     6     1    20
 -4.3692094950487986E-01 a       141     0     6     1    21
  4.8524421225454667E-01 a       142     0     6     1    22
  8.1351520041579550E-01 a       143     0     6     1    23
  2.9400322766682627E-02 a       144     0     6     1    24
 -1.0247981047524752E+00 a       145     0     7     1     1
  1.7411910015587223E-01 a       146     0     7     1     2
  1.1604643625502833E+00 a       147     0     7     1     3
 -9.5178436366452035E-01 a       148     0     7     1     4
  1.5228391144232606E-01 a       149     0     7     1     5
 -1.1691401643545810E-01 a       150     0     7     1     6
 -3.0123169656287030E-01 a       151     0     7     1     7
 -5.8797947798488248E-01 a       152     0     7     1     8
  1.9132976129375351E-01 a       153     0     7     1     9
  3.5181679891114359E-01 a       154     0     7     1    10
 -9.9140683439015320E-01 a       155     0     7     1    11
 -8.8763089690328756E-01 a       156     0     7     1    12
 -1.6280126600581435E-01 a       157     0     7     1    13
  1.2528581278108959E+00 a       158     0     7     1    14
 -4.6829102758569774E-02 a       159     0     7     1    15
  1.0600224414810020E+00 a       160     0     7     1    16
  1.8650457035118345E-01 a       161     0     7     1    17
  9.5210386105118727E-01 a       162     0     7     1    18
  5.0454644430639672E-01 a       163     0     7     1    19
  8.5697117971063963E-01 a       164     0     7     1    20
 -8.8665403944652765E-01 a       165     0     7     1    21
 -6.4872242022065896E-01 a       166     0     7     1    22
 -1.7373793625777439E-01 a       167     0     7     1    23
 -9.2889194819200183E-01 a       168     0     7     1    24
 -3.3780618435638043E-01 a       169     0     8     1     1
  2.7328038664768843E-02 a       170     0     8     1     2
  4.2308654103460158E-01 a       171     0     8     1     3
 -9.7028455283055204E-02 a       172     0     8     1     4
 -3.5781482497169453E-01 a       173     0     8     1     5
 -2.3105750886182636E-02 a       174     0     8     1     6
 -1.7639149272071725E-01 a       175     0     8     1     7
 -3.4200515206448473E-01 a       176     0     8     1     8
  4.7828363449560804E-02 a       177     0     8     1     9
  5.7935453495739886E-01 a       178     0     8     1    10
 -8.2080030256330971E-01 a       179     0     8     1    11
  8.9659040727767647E-02 a       180     0     8     1    12
 -8.4457912502854549E-01 a       181     0     8     1    13
  1.9209508711979043E-01 a       182     0     8     1    14
 -3.8893352131737735E-01 a       183     0     8     1    15
  4.3774687930378542E-01 a       184     0     8     1    16
 -5.4746856714503989E-01 a       185     0     8     1    17
 -1.2189855419455584E-02 a       186     0     8     1    18
 -6.9651832156041416E-01 a       187     0     8     1    19
 -1.4574586021349251E-01 a       188     0     8     1    20
 -3.0522639682259212E-02 a       189     0     8     1    21
 -3.4829569730023435E-01 a       190     0     8     1    22
  5.1358846157582139E-01 a       191     0     8     1    23
  4.4234005153355282E-01 a       192     0     8     1    24
  5.6982023509905326E-02 a       193     0     9     1     1
 -8.4624592163163959E-01 a       194     0     9     1     2
 -1.2254818881472530E-01 a       195     0     9     1     3
  2.4486229736596515E-01 a       196     0     9     1     4
 -2.8827597176749847E-02 a       197     0     9     1     5
  1.0351969155018039E+00 a       198     0     9     1     6
  7.6509323361055592E-01 a       199     0     9     1     7
  4.6807857298168658E-02 a       200     0     9     1     8
 -3.3929519289567306E-01 a       201     0     9     1     9
  9.5329331417715657E-01 a       202     0     9     1    10
 -1.1440060597258554E-01 a       203     0     9     1    11
  3.3783402092465953E-01 a       204     0     9     1    12
  7.5079179146232300E-02 a       205     0     9     1    13
  8.2475783231808403E-02 a       206     0     9     1    14
  7.3083393707723976E-01 a       207     0     9     1    15
  7.5742287273136610E-01 a       208     0     9     1    16
 -2.3955598439732784E-01 a       209     0     9     1    17
  3.9511093195215391E-01 a       210     0     9     1    18
  2.1175313767085530E-01 a       211     0     9     1    19
  5.4555450334271127E-01 a       212     0     9     1    20
  1.4251227384414993E-02 a       213     0     9     1    21
 -2.7974444277897387E-01 a       214     0     9     1    22
 -9.1326516034877359E-01 a       215     0     9     1    23
  3.1393667952716559E-02 a       216     0     9     1    24
  5.6557779216437593E-02 a       217     0    10     1     1
  6.2382127321616399E-01 a       218     0    10     1     2
  7.0150905518811391E-01 a       219     0    10     1     3
  2.4963207512100555E-01 a       220     0    10     1     4
 -5.9779998557614311E-01 a       221     0    10     1     5
 -2.0263760889458433E-02 a       222     0    10     1     6
  3.3546592640802120E-02 a       223     0    10     1     7
 -3.6843497003498260E-01 a       224     0    10     1     8
  1.1218871849291343E+00 a       225     0    10     1     9
  4.3445113489537246E-01 a       226     0    10     1    10
  2.2959508308361098E-01 a       227     0    10     1    11
  3.8898884654198912E-01 a       228     0    10     1    12
  4.2525374497147377E-02 a       229     0    10     1    13
 -2.9562168573128860E-02 a       230     0    10     1    14
  7.8617195169523746E-01 a       231     0    10     1    15
  6.3232499744889953E-02 a       232     0    10     1    16
  3.1979656291610192E-01 a       233     0    10     1    17
 -6.2797635694875542E-01 a       234     0    10     1    18
  1.0654981276989499E-01 a       235     0    10     1    19
 -3.8186021050248625E-01 a       236     0    10     1    20
 -1.8128621052081076E-01 a       237     0    10     1    21
 -9.8072882066469608E-02 a       238     0    10     1    22
 -2.5947413613031162E-01 a       239     0    10     1    23
 -5.1822431455206019E-01 a       240     0    10     1    24
  1.0134987912125992E+00 a       241     0    11     1     1
 -3.4743013557035733E-02 a       242     0    11     1     2
 -1.5038139353125388E-01 a       243     0    11     1     3
  2.4658977468391433E-01 a       244     0    11     1     4
  9.5713599646064851E-02 a       245     0    11     1     5
 -8.9671006325638083E-02 a       246     0    11     1     6
  1.5963850681125422E-01 a       247     0    11     1     7
  1.2960542094823016E-01 a       248     0    11     1     8
 -1.9058220844500981E-01 a       249     0    11     1     9
  1.3768158303294567E-01 a       250     0    11     1    10
  4.2201614136508769E-01 a       251     0    11     1    11
  2.4987182066197181E-01 a       252     0    11     1    12
 -2.3946773336399993E-01 a       253     0    11     1    13
 -6.2691105007435777E-01 a       254     0    11     1    14
 -4.7719328222966102E-02 a       255     0    11     1    15
 -3.7060233041709201E-01 a       256     0    11     1    16
  8.3019523523280153E-02 a       257     0    11     1    17
 -4.1235471647054023E-01 a       258     0    11     1    18
 -9.5123936902821088E-02 a       259     0    11     1    19
 -5.4492098335620742E-01 a       260     0    11     1    20
  1.5669066183862893E-01 a       261     0    11     1    21
  1.8503120768379205E-01 a       262     0    11     1    22
  2.1325596512100922E-01 a       263     0    11     1    23
  5.4111267787834857E-02 a       264     0    11     1    24
 -3.2729469415741064E-02 a       265     0    12     1     1
 -1.5257833991987921E-01 a       266     0    12     1     2
  9.6869822467245764E-02 a       267     0    12     1     3
 -3.3718599260278523E-02 a       268     0    12     1     4
  3.8546321207362921E-01 a       269     0    12     1     5
 -5.4911084729603578E-02 a       270     0    12     1     6
  2.5526638551085523E-01 a       271     0    12     1     7
 -1.3325724387105506E-01 a       272     0    12     1     8
  2.2122227784283238E-01 a       273     0    12     1     9
  2.3183067720645428E-01 a       274     0    12     1    10
  7.2852030265347811E-02 a       275     0    12     1    11
  8.8980760554443795E-03 a       276     0    12     1    12
 -1.3301690667790611E-01 a       277     0    12     1    13
 -2.0016402069359875E-02 a       278     0    12     1    14
 -6.5112377718151745E-02 a       279     0    12     1    15
  1.5049311419439473E-01 a       280     0    12     1    16
 -3.7205606247669325E-02 a       281     0    12     1    17
  5.0946553888611641E-02 a       282     0    12     1    18
 -1.0426461208742926E-01 a       283     0    12     1    19
  2.6239780934879352E-02 a       284     0    12     1    20
 -6.6355855132231561E-03 a       285     0    12     1    21
  2.5451762468368274E-02 a       286     0    12     1    22
  7.9955634039581558E-02 a       287     0    12     1    23
  1.3257659279457973E-01 a       288     0    12     1    24
  8.5507650204393854E-02 a       289     0    13     1     1
 -4.5606556700699064E-01 a       290     0    13     1     2
 -1.6437058337974080E-02 a       291     0    13     1     3
  3.2414960102142953E-01 a       292     0    13     1     4
  1.8201597887498244E-01 a       293     0    13     1     5
  4.0108373983509871E-01 a       294     0    13     1     6
  2.9675552655205711E-01 a       295     0    13     1     7
  4.1090550697190246E-02 a       296     0    13     1     8
  9.0692207752545079E-02 a       297     0    13     1     9
  3.5809612927090662E-01 a       298     0    13     1    10
 -1.0015518485224069E-01 a       299     0    13     1    11
  8.0620895844777316E-03 a       300     0    13     1    12
  6.4202843870623361E-01 a       301     0    13     1    13
 -2.7261314195283048E-01 a       302     0    13     1    14
  8.4311795111772975E-02 a       303     0    13     1    15
  1.3287608795578193E-01 a       304     0    13     1    16
 -4.1425004127374425E-02 a       305     0    13     1    17
  1.6662699824197194E-01 a       306     0    13     1    18
 -1.1752778417829582E-02 a       307     0    13     1    19
  1.0339851201649387E-01 a       308     0    13     1    20
  9.9090188327726468E-04 a       309     0    13     1    21
 -1.6211229559616108E-01 a       310     0    13     1    22
 -1.4296260541246589E-01 a       311     0    13     1    23
  4.2994916813490186E-02 a       312     0    13     1    24
 -7.8726065168520083E-04 a       313     0    14     1     1
  1.5841198924104355E-01 a       314     0    14     1     2
  1.3763316715974316E-01 a       315     0    14     1     3
  2.9189023308350593E-02 a       316     0    14     1     4
 -4.1141885822905916E-01 a       317     0    14     1     5
  2.5267958948333041E-01 a       318     0    14     1     6
  5.5599880280785152E-01 a       319     0    14     1     7
 -2.0621673914441463E-01 a       320     0    14     1     8
 -2.2201247840256536E-01 a       321     0    14     1     9
 -4.8134460408469454E-01 a       322     0    14     1    10
  3.8911621678023250E-01 a       323     0    14     1    11
 -3.7546211781270983E-01 a       324     0    14     1    12
  8.6316907396783077E-02 a       325     0    14     1    13
 -4.2386314840768338E-02 a       326     0    14     1    14
 -2.1050397015680139E-01 a       327     0    14     1    15
 -7.4309254253405266E-01 a       328     0    14     1    16
  3.1027980461870547E-01 a       329     0    14     1    17
 -1.7455251443789122E-01 a       330     0    14     1    18
  1.0416043613181147E-01 a       331     0    14     1    19
 -3.4822417795924143E-01 a       332     0    14     1    20
  2.2442766071865006E-01 a       333     0    14     1    21
  6.4273252556473737E-01 a       334     0    14     1    22
  3.3107796472396189E-01 a       335     0    14     1    23
 -1.3818066122782158E-01 a       336     0    14     1    24
 -2.4248686030403280E-01 a       337     0    15     1     1
 -6.9628015247099759E-02 a       338     0    15     1     2
  2.8912903014394553E-01 a       339     0    15     1     3
 -3.3223054488499482E-01 a       340     0    15     1     4
 -1.3165854240947322E-01 a       341     0    15     1     5
  4.1405408827981119E-02 a       342     0    15     1     6
  2.1849618729840953E-01 a       343     0    15     1     7
 -2.4632234719135324E-01 a       344     0    15     1     8
 -3.4159413466768551E-01 a       345     0    15     1     9
  3.7564254730415070E-01 a       346     0    15     1    10
  2.7844789771868463E-02 a       347     0    15     1    11
 -2.0179062855899088E-01 a       348     0    15     1    12
 -2.5884217649229424E-01 a       349     0    15     1    13
  3.1414969817103083E-01 a       350     0    15     1    14
  4.7021943037874450E-02 a       351     0    15     1    15
  1.6401716952400822E-01 a       352     0    15     1    16
  1.4339767208614121E-01 a       353     0    15     1    17
  3.0420921670362333E-01 a       354     0    15     1    18
  3.0845854903684515E-02 a       355     0    15     1    19
 -4.3130203138213481E-02 a       356     0    15     1    20
 -5.6124471990681678E-02 a       357     0    15     1    21
 -2.1816519379377447E-01 a       358     0    15     1    22
  1.6789029638511885E-01 a       359     0    15     1    23
 -1.9556178227497056E-01 a       360     0    15     1    24
  4.7230473946324431E-02 a       361     0    16     1     1
  1.4071596487425955E-01 a       362     0    16     1     2
  1.2370660548788710E-01 a       363     0    16     1     3
  2.6089439670347592E-01 a       364     0    16     1     4
 -7.1323296138520023E-02 a       365     0    16     1     5
 -2.3006138904284218E-01 a       366     0    16     1     6
 -1.3017819415273918E-01 a       367     0    16     1     7
  3.4623840077237861E-01 a       368     0    16     1     8
  2.5499880712206291E-01 a       369     0    16     1     9
 -9.1055717183392476E-02 a       370     0    16     1    10
 -5.3656104547004113E-01 a       371     0    16     1    11
  1.8124173637946096E-02 a       372     0    16     1    12
 -8.8331307315296925E-02 a       373     0    16     1    13
 -4.7912771411314342E-01 a       374     0    16     1    14
 -3.8110540489267797E-01 a       375     0    16     1    15
 -6.4139680093943430E-01 a       376     0    16     1    16
 -1.9830951753340911E-01 a       377     0    16     1    17
  1.2853716117374708E-01 a       378     0    16     1    18
  4.5324270905521519E-01 a       379     0    16     1    19
 -3.7453385812539242E-01 a       380     0    16     1    20
  1.3413005367348044E-01 a       381     0    16     1    21
 -5.6370019828226792E-01 a       382     0    16     1    22
 -5.5716081283666763E-01 a       383     0    16     1    23
  4.5444044697177088E-01 a       384     0    16     1    24
  2.8266887152038817E-01 a       385     0    17     1     1
  2.4843439418720539E-01 a       386     0    17     1     2
 -8.0257887317083457E-02 a       387     0    17     1     3
  7.1248333122975335E-02 a       388     0    17     1     4
 -2.9681678177507370E-01 a       389     0    17     1     5
  2.0011814979735476E-02 a       390     0    17     1     6
 -8.5263417710857725E-01 a       391     0    17     1     7
  3.6730888592615185E-01 a       392     0    17     1     8
 -1.1011649504300743E-01 a       393     0    17     1     9
  7.1466527588272032E-03 a       394     0    17     1    10
  6.0255313529450472E-01 a       395     0    17     1    11
  2.7684532794401667E-01 a       396     0    17     1    12
 -2.6623455741811902E-01 a       397     0    17     1    13
  4.8918050912965694E-02 a       398     0    17     1    14
 -2.4094854430747045E-01 a       399     0    17     1    15
  2.4986549323348789E-01 a       400     0    17     1    16
 -3.8222885496719212E-02 a       401     0    17     1    17
  3.9490991681732512E-01 a       402     0    17     1    18
  3.9131430056637950E-01 a       403     0    17     1    19
 -1.5207146538001454E-01 a       404     0    17     1    20
  3.7540603622202462E-01 a       405     0    17     1    21
 -1.7779134125070703E-01 a       406     0    17     1    22
  2.9322107095626837E-01 a       407     0    17     1    23
 -2.8405487852395599E-02 a       408     0    17     1    24
 -3.8317940380989524E-01 a       409     0    18     1     1
  1.3134337124893342E-02 a       410     0    18     1     2
 -4.2756134152231916E-02 a       411     0    18     1     3
 -2.5188698078258304E-01 a       412     0    18     1     4
  2.8729594766259137E-02 a       413     0    18     1     5
 -1.4217271841137522E-01 a       414     0    18     1     6
  2.1333152053560167E-01 a       415     0    18     1     7
 -6.9253198143026815E-02 a       416     0    18     1     8
  3.0625331821530294E-01 a       417     0    18     1     9
  3.2005643225711672E-01 a       418     0    18     1    10
 -4.1209160302870203E-02 a       419     0    18     1    11
  3.3241361187474068E-02 a       420     0    18     1    12
  1.2937832476670574E-01 a       421     0    18     1    13
 -7.3967348162540095E-02 a       422     0    18     1    14
  9.3870971370204476E-02 a       423     0    18     1    15
 -2.4075684404225636E-01 a       424     0    18     1    16
  9.0996500921730769E-02 a       425     0    18     1    17
 -1.3269640280674658E-01 a       426     0    18     1    18
 -2.4443785057585782E-01 a       427     0    18     1    19
  1.6586050768906779E-01 a       428     0    18     1    20
  9.1095245829445795E-02 a       429     0    18     1    21
 -6.0324236254077707E-02 a       430     0    18     1    22
 -1.3163879851972990E-01 a       431     0    18     1    23
 -4.4457837132405795E-02 a       432     0    18     1    24
  2.6505545004602510E-01 a       433     0    19     1     1
 -7.3436394402719346E-02 a       434     0    19     1     2
  2.2912015764289512E-01 a       435     0    19     1     3
  3.6147274316826389E-01 a       436     0    19     1     4
 -5.5600475845628372E-01 a       437     0    19     1     5
  1.0295854229767004E-02 a       438     0    19     1     6
  1.4712244307921440E-01 a       439     0    19     1     7
  1.4114681282720351E-02 a       440     0    19     1     8
  9.7094148454299097E-03 a       441     0    19     1     9
  4.5996810470946509E-01 a       442     0    19     1    10
  3.5839345979835979E-01 a       443     0    19     1    11
 -4.1446781461586590E-01 a       444     0    19     1    12
 -1.7575259549980604E-01 a       445     0    19     1    13
  1.6999260531231998E-02 a       446     0    19     1    14
  1.4835143212671281E-01 a       447     0    19     1    15
 -3.4878706227957812E-01 a       448     0    19     1    16
 -2.1967448739441253E-01 a       449     0    19     1    17
 -5.5454126503612939E-03 a       450     0    19     1    18
 -2.5617702286504057E-01 a       451     0    19     1    19
  4.4067896441290311E-01 a       452     0    19     1    20
  4.7159740919792768E-02 a       453     0    19     1    21
 -5.2094824164261933E-01 a       454     0    19     1    22
 -2.1068366699325637E-02 a       455     0    19     1    23
  4.1383989135193605E-01 a       456     0    19     1    24
 -1.1784950608552250E-01 a       457     0    20     1     1
  2.1907859013161277E-01 a       458     0    20     1     2
 -8.3704481049506674E-02 a       459     0    20     1     3
 -9.5338687098830022E-03 a       460     0    20     1     4
 -2.6979625162093723E-01 a       461     0    20     1     5
 -4.0462585749821735E-02 a       462     0    20     1     6
 -2.3613276311514439E-01 a       463     0    20     1     7
 -6.1521589903657262E-02 a       464     0    20     1     8
 -1.6430290364888664E-01 a       465     0    20     1     9
 -9.2621829396812211E-02 a       466     0    20     1    10
  5.4373966198661652E-02 a       467     0    20     1    11
 -1.1662463908450162E-01 a       468     0    20     1    12
 -5.0263088052083993E-01 a       469     0    20     1    13
  2.3653200400653343E-02 a       470     0    20     1    14
 -1.8001923466825142E-04 a       471     0    20     1    15
 -2.8348206107373242E-01 a       472     0    20     1    16
  8.2876907553467383E-02 a       473     0    20     1    17
 -7.3389853456395635E-02 a       474     0    20     1    18
  4.2417649868229670E-02 a       475     0    20     1    19
  2.8911226969991211E-01 a       476     0    20     1    20
  1.5450309072878021E-01 a       477     0    20     1    21
 -1.0382727428948094E-01 a       478     0    20     1    22
  4.7215365148650557E-01 a       479     0    20     1    23
 -1.9449265356748779E-01 a       480     0    20     1    24
 -2.1765231826796780E-01 a       481     0    21     1     1
 -2.1007575615471655E-01 a       482     0    21     1     2
 -2.4904690505163299E-01 a       483     0    21     1     3
  2.7671396533949264E-02 a       484     0    21     1     4
  8.2763946386364209E-02 a       485     0    21     1     5
  1.6159676552845423E-01 a       486     0    21     1     6
  4.1997209034953603E-01 a       487     0    21     1     7
 -2.0977732915155906E-01 a       488     0    21     1     8
 -9.1018017412931793E-02 a       489     0    21     1     9
  7.2423868016298487E-01 a       490     0    21     1    10
 -2.3746017878031433E-01 a       491     0    21     1    11
  1.0202274172785730E-01 a       492     0    21     1    12
 -5.2605289597906280E-01 a       493     0    21     1    13
  4.6710284348715136E-01 a       494     0    21     1    14
  3.0797947912420043E-01 a       495     0    21     1    15
 -2.7477791292902447E-02 a       496     0    21     1    16
 -3.4014192953166233E-01 a       497     0    21     1    17
  5.3151194840590346E-02 a       498     0    21     1    18
 -2.3676059975715555E-01 a       499     0    21     1    19
  4.6278356506865037E-01 a       500     0    21     1    20
 -1.5200847152631546E-02 a       501     0    21     1    21
 -2.8120328641523151E-01 a       502     0    21     1    22
 -2.0826444475478437E-01 a       503     0    21     1    23
  2.7958629727610712E-01 a       504     0    21     1    24
  7.0194983177648648E-02 a       505     0    22     1     1
  3.6693888810328153E-02 a       506     0    22     1     2
  3.5571822002383770E-02 a       507     0    22     1     3
 -4.2985137913830199E-02 a       508     0    22     1     4
  1.1900926180564550E-02 a       509     0    22     1     5
 -2.8467557346396666E-01 a       510     0    22     1     6
 -5.7338652935179930E-02 a       511     0    22     1     7
  2.0922620993665739E-01 a       512     0    22     1     8
  5.7955947830921270E-03 a       513     0    22     1     9
  2.1350953462384062E-01 a       514     0    22     1    10
 -2.0348053321456672E-01 a       515     0    22     1    11
 -3.1471436073437185E-02 a       516     0    22     1    12
  4.8448531196760139E-02 a       517     0    22     1    13
 -1.8962715794144219E-01 a       518     0    22     1    14
 -1.1025322732285815E-01 a       519     0    22     1    15
  6.6684990565898702E-02 a       520     0    22     1    16
  1.7399843253444174E-02 a       521     0    22     1    17
 -3.0010911528872691E-01 a       522     0    22     1    18
  1.1872391666576532E-01 a       523     0    22     1    19
 -1.8747127086748150E-01 a       524     0    22     1    20
  1.3950378112078207E-01 a       525     0    22     1    21
 -3.2809306587908171E-01 a       526     0    22     1    22
 -2.0397863664435487E-01 a       527     0    22     1    23
  1.7415239961934184E-01 a       528     0    22     1    24
 -2.2827996739229247E-02 a       529     0    23     1     1
  7.1221397126134747E-02 a       530     0    23     1     2
 -2.5151589782725520E-01 a       531     0    23     1     3
 -1.7405238475305954E-01 a       532     0    23     1     4
 -2.1554265688270377E-01 a       533     0    23     1     5
  1.0040617584123009E-01 a       534     0    23     1     6
 -1.9753155577729922E-01 a       535     0    23     1     7
 -1.0169754405182305E-01 a       536     0    23     1     8
 -2.7849797415042438E-01 a       537     0    23     1     9
  1.0679517458919313E-01 a       538     0    23     1    10
  2.7879668485745807E-01 a       539     0    23     1    11
  2.3633796368141297E-02 a       540     0    23     1    12
 -3.0482993195433317E-01 a       541     0    23     1    13
  2.6211427014215810E-01 a       542     0    23     1    14
  7.6514241186366308E-02 a       543     0    23     1    15
  2.4466330850065998E-01 a       544     0    23     1    16
 -3.7557579883024383E-02 a       545     0    23     1    17
 -2.5446142961975046E-03 a       546     0    23     1    18
 -1.9882118859714371E-01 a       547     0    23     1    19
  2.6145708671782775E-01 a       548     0    23     1    20
 -4.7208492390865366E-02 a       549     0    23     1    21
  1.3862732146957524E-01 a       550     0    23     1    22
  5.2070412566359037E-01 a       551     0    23     1    23
 -1.5937790169265206E-01 a       552     0    23     1    24
 -2.5442312909406090E-01 a       553     0    24     1     1
 -1.3142448123188208E-01 a       554     0    24     1     2
 -1.1005316408608742E-01 a       555     0    24     1     3
  6.7844168117834641E-02 a       556     0    24     1     4
  3.4854173728979580E-02 a       557     0    24     1     5
 -1.0538678710582046E-01 a       558     0    24     1     6
  4.0112360178061457E-01 a       559     0    24     1     7
 -3.8051675546666441E-01 a       560     0    24     1     8
 -2.4805331909276404E-02 a       561     0    24     1     9
  6.1638921026020310E-01 a       562     0    24     1    10
 -6.4616356233739036E-01 a       563     0    24     1    11
 -6.5673071805221507E-03 a       564     0    24     1    12
 -4.2611559986801972E-01 a       565     0    24     1    13
  2.4649072700199764E-01 a       566     0    24     1    14
  5.3197052573995940E-01 a       567     0    24     1    15
  7.2705976394265875E-02 a       568     0    24     1    16
 -2.7041162783569062E-01 a       569     0    24     1    17
 -9.8295512013597888E-02 a       570     0    24     1    18
 -5.5184485067034994E-01 a       571     0    24     1    19
  5.4204049922943787E-01 a       572     0    24     1    20
 -1.7399173228365933E-01 a       573     0    24     1    21
 -1.2090573955451775E-01 a       574     0    24     1    22
 -3.5850446533871294E-01 a       575     0    24     1    23
  1.9936964678351862E-01 a       576     0    24     1    24
 -2.6133307970029546E-01 a       577     0    25     1     1
 -1.6727361671495578E-02 a       578     0    25     1     2
  3.3016525241792843E-01 a       579     0    25     1     3
  3.3686182719706920E-01 a       580     0    25     1     4
 -1.7721719057325597E-01 a       581     0    25     1     5
  1.5788034933628420E-01 a       582     0    25     1     6
  2.3550587468000880E-01 a       583     0    25     1     7
 -6.1265873737445820E-01 a       584     0    25     1     8
 -3.0014421797423774E-01 a       585     0    25     1     9
 -6.4276792014881123E-01 a       586     0    25     1    10
 -3.3704352496277423E-01 a       587     0    25     1    11
 -9.2108943769904889E-02 a       588     0    25     1    12
  3.0678458853000290E-01 a       589     0    25     1    13
  2.4926442657851625E-01 a       590     0    25     1    14
  3.7758758853142987E-01 a       591     0    25     1    15
 -3.1661934601487723E-01 a       592     0    25     1    16
  4.4356597853868235E-01 a       593     0    25     1    17
 -2.3466520562609197E-01 a       594     0    25     1    18
  4.0449024324966117E-02 a       595     0    25     1    19
  1.6379638093934909E-01 a       596     0    25     1    20
  1.1148903191409650E-02 a       597     0    25     1    21
  1.8381429112705219E-01 a       598     0    25     1    22
 -2.4361948649137866E-01 a       599     0    25     1    23
 -4.6321198736708546E-01 a       600     0    25     1    24
  2.2787455628883133E-01 a       601     0    26     1     1
  1.8782805055122428E-01 a       602     0    26     1     2
 -3.6564814161820708E-01 a       603     0    26     1     3
 -2.5095346126635820E-01 a       604     0    26     1     4
  4.5202218775609276E-01 a       605     0    26     1     5
 -1.2100976629260136E-01 a       606     0    26     1     6
 -5.2148810050472105E-01 a       607     0    26     1     7
  1.8283310210003517E-01 a       608     0    26     1     8
  1.1894140797511765E-01 a       609     0    26     1     9
 -9.2119863048366613E-01 a       610     0    26     1    10
  1.9278213469349118E-01 a       611     0    26     1    11
  6.4791813075786009E-01 a       612     0    26     1    12
  2.8169715386006255E-01 a       613     0    26     1    13
 -6.4505545792153299E-02 a       614     0    26     1    14
 -6.3761723537183312E-01 a       615     0    26     1    15
  3.4564612566589709E-01 a       616     0    26     1    16
  1.5935574617891829E-01 a       617     0    26     1    17
 -3.5648486327567630E-01 a       618     0    26     1    18
  6.6102808991601336E-01 a       619     0    26     1    19
 -7.6221796832493927E-01 a       620     0    26     1    20
 -2.3299613188304566E-01 a       621     0    26     1    21
  2.1117264860515556E-01 a       622     0    26     1    22
 -1.3289893754633267E-01 a       623     0    26     1    23
 -5.1037287611871363E-01 a       624     0    26     1    24
  5.9823361521619149E-02 a       625     0    27     1     1
 -1.7785558158992125E-02 a       626     0    27     1     2
 -2.6304099750343774E-02 a       627     0    27     1     3
 -1.1780726128671933E-02 a       628     0    27     1     4
 -2.6693497275878053E-02 a       629     0    27     1     5
 -9.5451185541837805E-03 a       630     0    27     1     6
  1.3429653045664122E-02 a       631     0    27     1     7
  6.5178301732750410E-02 a       632     0    27     1     8
 -6.0286628968912858E-03 a       633     0    27     1     9
  3.5471081119250875E-02 a       634     0    27     1    10
  3.6290138217656462E-02 a       635     0    27     1    11
  4.0143724623034366E-02 a       636     0    27     1    12
 -3.6960841430521980E-02 a       637     0    27     1    13
  2.9631855163393390E-03 a       638     0    27     1    14
 -4.7025776451348457E-02 a       639     0    27     1    15
  6.3581953291734189E-02 a       640     0    27     1    16
 -5.3400733312706929E-02 a       641     0    27     1    17
  2.8740131288020079E-02 a       642     0    27     1    18
  6.7468818429098154E-03 a       643     0    27     1    19
 -7.4141987577344068E-03 a       644     0    27     1    20
 -1.9292143150188325E-02 a       645     0    27     1    21
 -1.9097758647091130E-02 a       646     0    27     1    22
  1.1650318912056968E-02 a       647     0    27     1    23
  7.0305089690237924E-02 a       648     0    27     1    24
 -5.1053590949363577E-02 a       649     0    28     1     1
  6.2586357104793544E-02 a       650     0    28     1     2
  3.1133696111145706E-02 a       651     0    28     1     3
  4.9555128382697752E-02 a       652     0    28     1     4
 -5.7063558074096396E-02 a       653     0    28     1     5
 -2.7505474235626281E-02 a       654     0    28     1     6
 -6.5895966899667813E-02 a       655     0    28     1     7
 -3.2864236303633304E-02 a       656     0    28     1     8
 -5.3111324382926824E-02 a       657     0    28     1     9
  3.5198190113595387E-02 a       658     0    28     1    10
 -4.9984866440369771E-02 a       659     0    28     1    11
 -8.2954549305876354E-02 a       660     0    28     1    12
 -3.6138885021175529E-02 a       661     0    28     1    13
 -3.9866946730176211E-02 a       662     0    28     1    14
  6.6046714778813839E-02 a       663     0    28     1    15
 -4.0927405283620724E-02 a       664     0    28     1    16
  7.5307287857258850E-03 a       665     0    28     1    17
  3.1937352278154002E-02 a       666     0    28     1    18
 -1.5376772094175042E-01 a       667     0    28     1    19
  3.7894382667876231E-02 a       668     0    28     1    20
 -3.8786066292809240E-03 a       669     0    28     1    21
  1.0024617957164148E-02 a       670     0    28     1    22
  1.8053096827941574E-02 a       671     0    28     1    23
 -2.8220367423989353E-03 a       672     0    28     1    24
 -6.1006173351143334E-02 a       673     0    29     1     1
  4.3190108686871537E-02 a       674     0    29     1     2
 -7.6296179265641473E-02 a       675     0    29     1     3
 -1.1480524811549701E-01 a       676     0    29     1     4
  3.6860727561413009E-02 a       677     0    29     1     5
 -4.5324334491658250E-02 a       678     0    29     1     6
 -9.3782161145738469E-03 a       679     0    29     1     7
  6.5377663775795875E-02 a       680     0    29     1     8
  9.9091989686351897E-02 a       681     0    29     1     9
  1.9191660933881152E-01 a       682     0    29     1    10
  5.0683348251788905E-02 a       683     0    29     1    11
  6.9470898504519389E-03 a       684     0    29     1    12
 -1.4524103642798319E-01 a       685     0    29     1    13
 -8.8349199950268603E-02 a       686     0    29     1    14
 -5.5987649761320125E-02 a       687     0    29     1    15
 -3.9857809467808668E-02 a       688     0    29     1    16
 -5.6260568141900946E-02 a       689     0    29     1    17
  8.6519821562393191E-03 a       690     0    29     1    18
 -1.6580499863272140E-02 a       691     0    29     1    19
  4.4512044732758820E-02 a       692     0    29     1    20
  5.6513034669046294E-02 a       693     0    29     1    21
 -2.5739628067737459E-02 a       694     0    29     1    22
  4.6846982601288334E-02 a       695     0    29     1    23
  4.0527076431517310E-02 a       696     0    29     1    24
 -1.9113879987796786E-02 a       697     0    30     1     1
 -1.3237145417940677E-01 a       698     0    30     1     2
  1.3747426382637290E-01 a       699     0    30     1     3
  5.8717561441460418E-02 a       700     0    30     1     4
 -2.1466328704999288E-01 a       701     0    30     1     5
  1.0722098480320678E-01 a       702     0    30     1     6
  3.0301819081424064E-01 a       703     0    30     1     7
 -4.9675982027429875E-03 a       704     0    30     1     8
 -4.8019957257320257E-02 a       705     0    30     1     9
  3.6665767482703415E-01 a       706     0    30     1    10
  5.8604875621794228E-02 a       707     0    30     1    11
 -2.3121515590089747E-01 a       708     0    30     1    12
 -7.7474369665146106E-02 a       709     0    30     1    13
  1.4666398290897703E-01 a       710     0    30     1    14
  1.9503157075147240E-01 a       711     0    30     1    15
 -1.4308156665874189E-01 a       712     0    30     1    16
 -1.1103442221649881E-01 a       713     0    30     1    17
  1.1715073165973770E-01 a       714     0    30     1    18
 -1.9823952221290583E-01 a       715     0    30     1    19
  2.4205288848283327E-01 a       716     0    30     1    20
  5.2668728445906983E-02 a       717     0    30     1    21
 -2.0425217031876061E-01 a       718     0    30     1    22
 -3.5464612516669589E-02 a       719     0    30     1    23
  2.5801752381574394E-01 a       720     0    30     1    24
 -6.8418770180805066E-01 a       721     0    31     1     1
 -3.1701653244408029E-01 a       722     0    31     1     2
 -1.2252457823782597E+00 a       723     0    31     1     3
  8.4171147980181704E-01 a       724     0    31     1     4
  1.1896071608460351E-02 a       725     0    31     1     5
  1.1852326948493535E+00 a       726     0    31     1     6
 -3.2503919788767127E-01 a       727     0    31     1     7
 -7.0817480663100130E-01 a       728     0    31     1     8
 -3.0984778515594120E-02 a       729     0    31     1     9
 -3.4125519653760011E-01 a       730     0    31     1    10
 -4.3845465974417380E-02 a       731     0    31     1    11
  5.2426620935754709E-01 a       732     0    31     1    12
  1.1227971786633990E-01 a       733     0    31     1    13
  1.0611991415627688E+00 a       734     0    31     1    14
  1.4825009853819449E+00 a       735     0    31     1    15
 -6.3621817883172871E-01 a       736     0    31     1    16
 -7.5501781899488407E-01 a       737     0    31     1    17
 -1.0997959537143758E+00 a       738     0    31     1    18
 -4.2724639856265034E-01 a       739     0    31     1    19
  8.2036495183710545E-01 a       740     0    31     1    20
  5.8614435680793708E-01 a       741     0    31     1    21
  1.0514806783152779E+00 a       742     0    31     1    22
  1.1153700132027036E-01 a       743     0    31     1    23
  4.7204369920523304E-01 a       744     0    31     1    24
  5.5638304569244779E-01 a       745     0    32     1     1
 -7.0533326636741528E-02 a       746     0    32     1     2
 -6.0180823345486550E-02 a       747     0    32     1     3
  2.1683564737029695E-01 a       748     0    32     1     4
  7.0703516585688381E-02 a       749     0    32     1     5
  1.4626971860480389E-01 a       750     0    32     1     6
 -3.0884261709357441E-01 a       751     0    32     1     7
  2.6709658831559768E-01 a       752     0    32     1     8
 -2.5911109266673016E-01 a       753     0    32     1     9
 -1.2787220348520398E-01 a       754     0    32     1    10
  1.7876125721981473E-01 a       755     0    32     1    11
 -2.9659622760437850E-03 a       756     0    32     1    12
 -6.8986639769784613E-02 a       757     0    32     1    13
  2.7504400529246415E-03 a       758     0    32     1    14
 -2.2625159001415926E-01 a       759     0    32     1    15
  4.2657911963531570E-01 a       760     0    32     1    16
 -2.7005916153554010E-01 a       761     0    32     1    17
  2.4083524448117360E-01 a       762     0    32     1    18
  2.4186747739511374E-01 a       763     0    32     1    19
 -2.8357810235819586E-01 a       764     0    32     1    20
 -1.5363330158237651E-01 a       765     0    32     1    21
  1.3786881581998971E-02 a       766     0    32     1    22
  1.6642308671617861E-01 a       767     0    32     1    23
  2.5465958235535008E-01 a       768     0    32     1    24
 -2.6726159367820740E-01 a       769     0    33     1     1
  1.1822955499567617E-01 a       770     0    33     1     2
 -2.1890153338610757E-01 a       771     0    33     1     3
 -1.3438127752460347E-01 a       772     0    33     1     4
  4.7081000046896609E-01 a       773     0    33     1     5
 -1.2915875241750488E-01 a       774     0    33     1     6
 -3.5469359249033161E-01 a       775     0    33     1     7
  5.3997064289115770E-02 a       776     0    33     1     8
  1.4503892388548509E-01 a       777     0    33     1     9
 -4.4317875069439061E-01 a       778     0    33     1    10
 -6.0701058868127278E-01 a       779     0    33     1    11
  3.4442118988882847E-01 a       780     0    33     1    12
  2.0203788799437880E-01 a       781     0    33     1    13
 -2.5845229655376561E-01 a       782     0    33     1    14
  8.0861792486350725E-02 a       783     0    33     1    15
  3.5839054739097798E-01 a       784     0    33     1    16
  1.7739590936162145E-01 a       785     0    33     1    17
  1.0066916072584704E-02 a       786     0    33     1    18
 -7.4724135210297207E-02 a       787     0    33     1    19
 -2.3058036256224834E-01 a       788     0    33     1    20
 -1.5469867617507837E-03 a       789     0    33     1    21
  5.8471739597135031E-01 a       790     0    33     1    22
  2.0755128915819310E-03 a       791     0    33     1    23
 -2.7227795901555552E-01 a       792     0    33     1    24
 -2.3234248190727148E-02 a       793     0    34     1     1
  1.0927332298319757E-02 a       794     0    34     1     2
 -4.4851887906573079E-01 a       795     0    34     1     3
 -1.3724705360907821E-01 a       796     0    34     1     4
  2.7542446486282582E-02 a       797     0    34     1     5
  3.6850200841723968E-01 a       798     0    34     1     6
 -4.0031922771123662E-01 a       799     0    34     1     7
  2.4619196063487966E-01 a       800     0    34     1     8
 -6.1795311328035374E-01 a       801     0    34     1     9
 -4.8348196511690594E-01 a       802     0    34     1    10
 -8.7684035883131550E-01 a       803     0    34     1    11
 -8.0880540836692871E-01 a       804     0    34     1    12
 -2.0321730825213574E-01 a       805     0    34     1    13
  2.7558654746225841E-01 a       806     0    34     1    14
 -9.8338466359960297E-01 a       807     0    34     1    15
  2.6618585889897112E-01 a       808     0    34     1    16
  8.0246491413894908E-02 a       809     0    34     1    17
  9.9722892527950735E-01 a       810     0    34     1    18
  6.6960922991153282E-01 a       811     0    34     1    19
  4.8026405325369337E-01 a       812     0    34     1    20
  4.3991715582399460E-01 a       813     0    34     1    21
 -1.0327264911598319E-01 a       814     0    34     1    22
 -5.9884424000601089E-01 a       815     0    34     1    23
  4.1363624866427151E-01 a       816     0    34     1    24
  1.6847656032696998E-01 a       817     0    35     1     1
 -2.9345778354518443E-01 a       818     0    35     1     2
 -1.8579780778290207E-02 a       819     0    35     1     3
 -2.4221973583896533E-01 a       820     0    35     1     4
  5.6570862775181852E-01 a       821     0    35     1     5
  5.4833455679517001E-02 a       822     0    35     1     6
  2.9292503696902977E-01 a       823     0    35     1     7
  1.5120318842911123E-01 a       824     0    35     1     8
  3.9197933159503817E-01 a       825     0    35     1     9
  4.4342053094214451E-01 a       826     0    35     1    10
  2.9766223227158034E-01 a       827     0    35     1    11
  1.4146970664572783E-01 a       828     0    35     1    12
  3.7421365445410548E-01 a       829     0    35     1    13
 -8.5983797380130178E-02 a       830     0    35     1    14
 -5.1552429411662326E-02 a       831     0    35     1    15
  5.4656347494758539E-01 a       832     0    35     1    16
 -1.7515448300258094E-01 a       833     0    35     1    17
  1.0111181351508541E-01 a       834     0    35     1    18
 -1.4018413088878834E-01 a       835     0    35     1    19
 -1.9629370139096552E-01 a       836     0    35     1    20
 -1.3458955011987433E-01 a       837     0    35     1    21
  2.6294385648230051E-01 a       838     0    35     1    22
 -2.7012745652414127E-01 a       839     0    35     1    23
  2.9623224745299415E-01 a       840     0    35     1    24
  2.6637853733296202E-01 a       841     0    36     1     1
 -5.3535540950715603E-02 a       842     0    36     1     2
  2.9752437847212587E-01 a       843     0    36     1     3
  3.4088202511449184E-01 a       844     0    36     1     4
 -1.2477496801535318E-02 a       845     0    36     1     5
 -1.1101392081315478E-01 a       846     0    36     1     6
 -2.9744379746217897E-01 a       847     0    36     1     7
  3.1156934805255593E-01 a       848     0    36     1     8
  4.5369572423114835E-01 a       849     0    36     1     9
 -5.2148395413970694E-01 a       850     0    36     1    10
 -2.5668420735097400E-02 a       851     0    36     1    11
 -3.1048190498276823E-01 a       852     0    36     1    12
  8.9482273195287909E-01 a       853     0    36     1    13
 -7.6705154618334626E-01 a       854     0    36     1    14
  1.9825528402334321E-03 a       855     0    36     1    15
 -8.3697476184154448E-02 a       856     0    36     1    16
  1.2078234674733836E-01 a       857     0    36     1    17
 -1.0966452439840813E-01 a       858     0    36     1    18
 -1.7117858668227892E-01 a       859     0    36     1    19
 -9.1543881579187400E-02 a       860     0    36     1    20
 -4.7137751051695702E-02 a       861     0    36     1    21
  1.1255897126065452E-01 a       862     0    36     1    22
 -1.2745198321013331E-02 a       863     0    36     1    23
  9.8627671302998751E-02 a       864     0    36     1    24
  3.4911270735988381E-01 a       865     0    37     1     1
 -4.9752270372143453E-01 a       866     0    37     1     2
  2.9423853301109051E-02 a       867     0    37     1     3
 -1.7433403900951538E-01 a       868     0    37     1     4
 -8.7311660723218415E-02 a       869     0    37     1     5
  1.8660814631609782E-01 a       870     0    37     1     6
 -6.8757261781993506E-01 a       871     0    37     1     7
  1.5106368635524001E-01 a       872     0    37     1     8
  1.3339179058611006E-01 a       873     0    37     1     9
  5.0573763238247436E-02 a       874     0    37     1    10
 -5.1062546854923729E-01 a       875     0    37     1    11
  8.0288697641452589E-01 a       876     0    37     1    12
 -2.2194891151315235E-01 a       877     0    37     1    13
  1.3863259494478586E+00 a       878     0    37     1    14
  4.2762704868770107E-01 a       879     0    37     1    15
  3.9232599384613659E-01 a       880     0    37     1    16
 -7.2175352691258077E-01 a       881     0    37     1    17
  2.2447917690940632E-02 a       882     0    37     1    18
  1.2901063727928563E+00 a       883     0    37     1    19
  3.4903486656298027E-01 a       884     0    37     1    20
  6.1189425335566228E-01 a       885     0    37     1    21
  3.4707767403533307E-01 a       886     0    37     1    22
 -5.5154879563256953E-01 a       887     0    37     1    23
 -1.1350930279547553E+00 a       888     0    37     1    24
 -1.0181426766627479E+00 a       889     0    38     1     1
  9.0780916207094042E-01 a       890     0    38     1     2
 -1.0860673601122794E+00 a       891     0    38     1     3
  1.5510183282038342E-01 a       892     0    38     1     4
  6.8412439450246137E-02 a       893     0    38     1     5
  8.4205896879573994E-01 a       894     0    38     1     6
  1.4363686237213356E+00 a       895     0    38     1     7
  1.8079708727208213E-03 a       896     0    38     1     8
 -3.4335549818848782E-01 a       897     0    38     1     9
 -7.9200392469919612E-01 a       898     0    38     1    10
  1.6908504975071650E+00 a       899     0    38     1    11
  5.6073837801361159E-01 a       900     0    38     1    12
  8.5912283857167537E-01 a       901     0    38     1    13
  2.7956718328418950E-01 a       902     0    38     1    14
  1.4769244081206911E+00 a       903     0    38     1    15
  3.8776110238312628E-01 a       904     0    38     1    16
 -1.7924822139876986E-01 a       905     0    38     1    17
  1.9304283735231520E-02 a       906     0    38     1    18
  2.4183588167145099E-02 a       907     0    38     1    19
 -1.5885184301986979E-01 a       908     0    38     1    20
  1.5200051981724128E+00 a       909     0    38     1    21
  3.7155457114089491E-02 a       910     0    38     1    22
  5.0993672981066518E-01 a       911     0    38     1    23
 -1.5587961516675117E+00 a       912     0    38     1    24
 -2.8136651163219567E-01 a       913     0    39     1     1
 -1.4537799138085583E-01 a       914     0    39     1     2
  4.3794568370297504E-01 a       915     0    39     1     3
 -8.4949963056604072E-01 a       916     0    39     1     4
  6.2710189192057475E-01 a       917     0    39     1     5
 -9.2280342178911789E-01 a       918     0    39     1     6
  5.7296515963379413E-01 a       919     0    39     1     7
 -2.8415336941898628E-02 a       920     0    39     1     8
 -2.1546427706886997E-01 a       921     0    39     1     9
 -5.9635609221412911E-01 a       922     0    39     1    10
 -4.6606939826339400E-01 a       923     0    39     1    11
 -9.0545487487100951E-01 a       924     0    39     1    12
  3.5970902882542943E-01 a       925     0    39     1    13
 -5.0947084159377898E-01 a       926     0    39     1    14
  8.2905074164115566E-01 a       927     0    39     1    15
  8.0631600131648751E-01 a       928     0    39     1    16
 -5.1862955031646685E-01 a       929     0    39     1    17
  6.6291319142865332E-02 a       930     0    39     1    18
 -3.0677149867298514E-01 a       931     0    39     1    19
 -2.3603530636481063E-01 a       932     0    39     1    20
  4.5831827373368733E-01 a       933     0    39     1    21
  2.6904186638232380E-01 a       934     0    39     1    22
  8.4112500919811661E-01 a       935     0    39     1    23
 -1.3459576549979639E+00 a       936     0    39     1    24
  1.0791797885254923E+00 a       937     0    40     1     1
  1.2061320333084919E+00 a       938     0    40     1     2
  2.8903680426203643E-01 a       939     0    40     1     3
 -4.8563875135394458E-01 a       940     0    40     1     4
 -4.6246185898411374E-01 a       941     0    40     1     5
  3.8573283629505734E-01 a       942     0    40     1     6
 -6.2053399594558190E-01 a       943     0    40     1     7
  1.2470251914332577E-01 a       944     0    40     1     8
  1.1638434665388659E-02 a       945     0    40     1     9
  1.6610166748102122E+00 a       946     0    40     1    10
 -2.2437097507116466E-01 a       947     0    40     1    11
  8.9763194673462249E-02 a       948     0    40     1    12
  7.1744104139812426E-01 a       949     0    40     1    13
  8.2064952036639693E-01 a       950     0    40     1    14
 -2.2746115366509989E+00 a       951     0    40     1    15
 -1.2184933149477903E+00 a       952     0    40     1    16
 -2.7534935482127881E-01 a       953     0    40     1    17
  1.1316577707914812E+00 a       954     0    40     1    18
  6.1761019924136418E-01 a       955     0    40     1    19
  3.1325145636429619E-01 a       956     0    40     1    20
  4.7693701175572822E-01 a       957     0    40     1    21
  2.1481458166211670E-01 a       958     0    40     1    22
 -1.5670547340779356E-01 a       959     0    40     1    23
  8.5621808263127663E-01 a       960     0    40     1    24
 -4.0599049942005710E-01 a       961     0    41     1     1
  5.6287317221358317E-02 a       962     0    41     1     2
 -4.0238709645174386E-01 a       963     0    41     1     3
 -7.5060474551973275E-02 a       964     0    41     1     4
  3.6521332726689915E-01 a       965     0    41     1     5
  1.4879579093027038E-02 a       966     0    41     1     6
  7.6248676021619965E-01 a       967     0    41     1     7
 -1.7944736192369967E-01 a       968     0    41     1     8
  3.9343297708274094E-01 a       969     0    41     1     9
  3.8333165411277420E-01 a       970     0    41     1    10
 -1.9974899491646617E-01 a       971     0    41     1    11
 -3.3736251339184720E-01 a       972     0    41     1    12
 -1.9239959668939494E-01 a       973     0    41     1    13
 -2.1864385866453989E-01 a       974     0    41     1    14
  7.3038818779209103E-01 a       975     0    41     1    15
 -3.5406035879012643E-01 a       976     0    41     1    16
  1.0999031012817162E+00 a       977     0    41     1    17
 -3.3625906381036585E-01 a       978     0    41     1    18
 -4.2170745995028153E-01 a       979     0    41     1    19
  2.0621780712907903E-01 a       980     0    41     1    20
 -8.6828682053689529E-02 a       981     0    41     1    21
 -2.1545664358097114E-01 a       982     0    41     1    22
 -3.3803913443435857E-01 a       983     0    41     1    23
  9.2473575248240003E-01 a       984     0    41     1    24
  7.3905646339844011E-01 a       985     0    42     1     1
 -4.4862550139977758E-01 a       986     0    42     1     2
  1.6733297206923388E+00 a       987     0    42     1     3
 -1.4559303579878811E+00 a       988     0    42     1     4
  1.6249137350309287E-01 a       989     0    42     1     5
 -8.0506828230634531E-01 a       990     0    42     1     6
 -5.0015902098337317E-01 a       991     0    42     1     7
  1.0023252111665236E-01 a       992     0    42     1     8
  7.4847052760139066E-01 a       993     0    42     1     9
  1.2542167629149472E+00 a       994     0    42     1    10
 -1.1909823885484683E+00 a       995     0    42     1    11
 -8.2090424372059445E-01 a       996     0    42     1    12
  6.4305284409154306E-01 a       997     0    42     1    13
 -3.7241134980056267E-01 a       998     0    42     1    14
 -1.5852278503029169E+00 a       999     0    42     1    15
  8.3473114674394788E-01 a      1000     0    42     1    16
 -6.5984895357657947E-01 a      1001     0    42     1    17
  9.0486578806301587E-01 a      1002     0    42     1    18
 -7.4234723587306117E-01 a      1003     0    42     1    19
  4.1436301061892772E-01 a      1004     0    42     1    20
 -1.0148837914596180E+00 a      1005     0    42     1    21
 -5.2994561641094573E-01 a      1006     0    42     1    22
 -6.9889816643301395E-01 a      1007     0    42     1    23
  2.6659439537572749E+00 a      1008     0    42     1    24
 -1.8652341281274706E-01 a      1009     0    43     1     1
 -3.6977258147083519E-01 a      1010     0    43     1     2
 -2.6931186765533777E-01 a      1011     0    43     1     3
 -1.0932849403106348E-01 a      1012     0    43     1     4
 -9.9916761054035116E-02 a      1013     0    43     1     5
  6.9967438445987140E-01 a      1014     0    43     1     6
 -2.5230501126545860E-02 a      1015     0    43     1     7
 -7.6743652896639936E-04 a      1016     0    43     1     8
 -1.2461468918466101E+00 a      1017     0    43     1     9
  7.5062572975798514E-01 a      1018     0    43     1    10
 -1.0111785625801809E-01 a      1019     0    43     1    11
  1.0699826072624012E+00 a      1020     0    43     1    12
  1.8142537697525404E-01 a      1021     0    43     1    13
 -3.7867751244977566E-01 a      1022     0    43     1    14
 -5.0162905533856994E-01 a      1023     0    43     1    15
 -8.6726588386867853E-01 a      1024     0    43     1    16
  5.4850371379705543E-01 a      1025     0    43     1    17
  1.8808600176583941E+00 a      1026     0    43     1    18
  7.2628982726115288E-01 a      1027     0    43     1    19
 -6.6880288369117269E-01 a      1028     0    43     1    20
 -7.3488499898521709E-01 a      1029     0    43     1    21
 -3.3752071664982325E-01 a      1030     0    43     1    22
  2.6736250650336929E-01 a      1031     0    43     1    23
  4.0164414146518645E-01 a      1032     0    43     1    24
  3.9300477464698412E-02 a      1033     0    44     1     1
  9.1816330018116676E-02 a      1034     0    44     1     2
 -1.0457305404827548E+00 a      1035     0    44     1     3
  9.1366244120532769E-01 a      1036     0    44     1     4
  2.2076679281788603E-01 a      1037     0    44     1     5
 -2.1048692387916418E-01 a      1038     0    44     1     6
  5.2691678467695835E-01 a      1039     0    44     1     7
 -6.1030360806506179E-01 a      1040     0    44     1     8
  9.2505756232503830E-02 a      1041     0    44     1     9
 -9.2571310127622541E-01 a      1042     0    44     1    10
  4.8506378489272728E-01 a      1043     0    44     1    11
 -6.5425032671305783E-02 a      1044     0    44     1    12
 -1.7241232214440877E-01 a      1045     0    44     1    13
  3.4049543496548296E-01 a      1046     0    44     1    14
  1.5688970483502362E-01 a      1047     0    44     1    15
  6.0384896243592334E-01 a      1048     0    44     1    16
 -4.0483962584000327E-01 a      1049     0    44     1    17
  1.6069406139107709E-01 a      1050     0    44     1    18
  2.5151784102068642E-01 a      1051     0    44     1    19
  9.1787597598142723E-01 a      1052     0    44     1    20
 -3.0832177522201593E-01 a      1053     0    44     1    21
  2.2739647482694769E-01 a      1054     0    44     1    22
 -2.0516557702385248E-02 a      1055     0    44     1    23
 -4.8679923723700952E-01 a      1056     0    44     1    24
  4.1094022687861451E-03 a      1057     0    45     1     1
 -1.0229102459266131E+00 a      1058     0    45     1     2
 -1.5639749473765310E-01 a      1059     0    45     1     3
 -1.7007631862456296E+00 a      1060     0    45     1     4
 -6.5148861130375535E-01 a      1061     0    45     1     5
 -6.4415509975524077E-01 a      1062     0    45     1     6
  4.7571212085333808E-01 a      1063     0    45     1     7
 -4.8093575091282159E-01 a      1064     0    45     1     8
 -9.4632702953606540E-01 a      1065     0    45     1     9
 -1.6580382256510223E-01 a      1066     0    45     1    10
 -8.8316077940283677E-01 a      1067     0    45     1    11
 -1.0293764659517814E+00 a      1068     0    45     1    12
  1.0028771850929878E-01 a      1069     0    45     1    13
  2.8558196953552833E-01 a      1070     0    45     1    14
 -2.5612666615856178E-01 a      1071     0    45     1    15
 -5.7530652456923670E-01 a      1072     0    45     1    16
  1.9532725586772657E+00 a      1073     0    45     1    17
 -4.5472703142110682E-01 a      1074     0    45     1    18
  8.2121368249694560E-01 a      1075     0    45     1    19
 -6.4925919158707457E-01 a      1076     0    45     1    20
 -1.8897931799522454E+00 a      1077     0    45     1    21
 -2.7500433426080784E-01 a      1078     0    45     1    22
  1.7043706107962225E-02 a      1079     0    45     1    23
  4.7736585587580715E-01 a      1080     0    45     1    24
  1.7124359455818794E-01 a      1081     0    46     1     1
 -3.1448702774898607E-01 a      1082     0    46     1     2
  1.6496432928622637E-01 a      1083     0    46     1     3
  1.4289695518279604E+00 a      1084     0    46     1     4
 -6.7972242056934984E-01 a      1085     0    46     1     5
  1.6112702282566696E-01 a      1086     0    46     1     6
  2.7690391199367459E-01 a      1087     0    46     1     7
  5.1344144973875605E-01 a      1088     0    46     1     8
 -4.5716215768412359E-02 a      1089     0    46     1     9
  1.2392819348116926E-01 a      1090     0    46     1    10
  7.5678824888258223E-01 a      1091     0    46     1    11
 -7.7750864881624679E-02 a      1092     0    46     1    12
 -1.1223808928916097E-01 a      1093     0    46     1    13
 -5.2888358574059758E-04 a      1094     0    46     1    14
 -5.2622087343932374E-02 a      1095     0    46     1    15
 -9.0421800009261311E-02 a      1096     0    46     1    16
 -2.1336073422380433E-01 a      1097     0    46     1    17
 -2.5166416485799070E-01 a      1098     0    46     1    18
 -4.7361584223015474E-01 a      1099     0    46     1    19
  9.7981420674350206E-01 a      1100     0    46     1    20
 -5.5686317129487385E-02 a      1101     0    46     1    21
 -1.0199052582595032E+00 a      1102     0    46     1    22
 -3.6563724158588928E-01 a      1103     0    46     1    23
 -9.2830946405469528E-01 a      1104     0    46     1    24
 -1.6426196887446460E+00 a      1105     0    47     1     1
  6.2608392640227162E-01 a      1106     0    47     1     2
 -1.4590461305211821E+00 a      1107     0    47     1     3
  7.0397203411971787E-01 a      1108     0    47     1     4
  9.1992938565211968E-01 a      1109     0    47     1     5
  5.4794250141628156E-02 a      1110     0    47     1     6
  3.7258699874932973E-02 a      1111     0    47     1     7
 -1.0626523521884528E+00 a      1112     0    47     1     8
  5.5882277268763547E-02 a      1113     0    47     1     9
 -1.2038237251617386E-01 a      1114     0    47     1    10
 -1.5096259602661567E-02 a      1115     0    47     1    11
 -1.7017721739180587E+00 a      1116     0    47     1    12
  1.3770170919639452E-01 a      1117     0    47     1    13
  1.9770721999388301E+00 a      1118     0    47     1    14
 -2.3271255311203207E-01 a      1119     0    47     1    15
  1.5139901534174571E+00 a      1120     0    47     1    16
 -5.2019304439012592E-01 a      1121     0    47     1    17
  1.5167996562012148E-01 a      1122     0    47     1    18
  1.1150002044613105E+00 a      1123     0    47     1    19
  9.2936063573838645E-01 a      1124     0    47     1    20
  5.7638034928511317E-01 a      1125     0    47     1    21
 -1.5002860266853832E-02 a      1126     0    47     1    22
 -1.9439205419348244E+00 a      1127     0    47     1    23
 -1.0383824119612897E+00 a      1128     0    47     1    24
 -4.3935480026635831E-02 a      1129     0    48     1     1
  4.1790853604118322E-01 a      1130     0    48     1     2
 -1.8880271160674250E-01 a      1131     0    48     1     3
 -4.4572032710490328E-01 a      1132     0    48     1     4
  1.6297170474131892E-01 a      1133     0    48     1     5
  9.4732193419730049E-02 a      1134     0    48     1     6
 -4.6452169415001832E-01 a      1135     0    48     1     7
  2.9370854690454279E-01 a      1136     0    48     1     8
  2.0434837046738474E-01 a      1137     0    48     1     9
  2.8015731496033197E-01 a      1138     0    48     1    10
 -4.5395393960590821E-02 a      1139     0    48     1    11
 -2.9131281742923604E-01 a      1140     0    48     1    12
  5.0569668799735268E-01 a      1141     0    48     1    13
 -3.1232393393710245E-01 a      1142     0    48     1    14
 -2.3068949049320031E-01 a      1143     0    48     1    15
  9.9794974044972362E-01 a      1144     0    48     1    16
  1.3952204454597278E-01 a      1145     0    48     1    17
 -9.1613195039595541E-01 a      1146     0    48     1    18
  9.1570384904141752E-02 a      1147     0    48     1    19
 -3.5313466034582391E-01 a      1148     0    48     1    20
  9.5195351343138923E-01 a      1149     0    48     1    21
 -3.0170457315188365E-01 a      1150     0    48     1    22
  5.1568042893633315E-01 a      1151     0    48     1    23
  1.1192870123266427E+00 a      1152     0    48     1    24
 -8.0234779371669510E-03 a      1153     0    49     1     1
  4.9611358960650048E-01 a      1154     0    49     1     2
  1.0148201034473054E+00 a      1155     0    49     1     3
 -1.3925442590692397E-01 a      1156     0    49     1     4
  8.7345680082935662E-01 a      1157     0    49     1     5
  1.9604832863610971E-01 a      1158     0    49     1     6
  2.0116255463897892E-01 a      1159     0    49     1     7
  2.6993751555202606E-02 a      1160     0    49     1     8
 -7.7206254119238441E-02 a      1161     0    49     1     9
  5.2384651968569329E-01 a      1162     0    49     1    10
 -7.2812293592169408E-01 a      1163     0    49     1    11
  2.5610686629180829E-01 a      1164     0    49     1    12
  2.1132900827797438E-01 a      1165     0    49     1    13
 -4.8404118658158198E-02 a      1166     0    49     1    14
  3.2149138745743555E-01 a      1167     0    49     1    15
 -5.7269756076916378E-01 a      1168     0    49     1    16
 -3.7328309398584097E-01 a      1169     0    49     1    17
 -3.2179669871358696E-01 a      1170     0    49     1    18
 -3.2525646245761430E-01 a      1171     0    49     1    19
  1.4062885215589652E-01 a      1172     0    49     1    20
  4.3474645041994475E-01 a      1173     0    49     1    21
 -6.2651160867885192E-02 a      1174     0    49     1    22
  7.8680258916412546E-02 a      1175     0    49     1    23
 -1.7145326790278151E-01 a      1176     0    49     1    24
 -1.5434052149986406E+00 a      1177     0    50     1     1
  1.1702657098718894E+00 a      1178     0    50     1     2
 -1.6308175119754589E-01 a      1179     0    50     1     3
  1.4542387648341977E+00 a      1180     0    50     1     4
  8.9942134785582051E-01 a      1181     0    50     1     5
  2.7301748199801039E-03 a      1182     0    50     1     6
 -7.3267287599114161E-02 a      1183     0    50     1     7
 -6.4067485663676382E-01 a      1184     0    50     1     8
 -1.0661417053365065E-02 a      1185     0    50     1     9
 -5.1440564827196122E-01 a      1186     0    50     1    10
  2.8287147562489286E-02 a      1187     0    50     1    11
  3.9754682240855110E-01 a      1188     0    50     1    12
  5.9893699925763055E-01 a      1189     0    50     1    13
 -1.5585947147984813E-01 a      1190     0    50     1    14
  1.4480541718037820E+00 a      1191     0    50     1    15
  2.0286965634088225E-01 a      1192     0    50     1    16
 -7.9025387431373206E-01 a      1193     0    50     1    17
 -8.1500986365403993E-01 a      1194     0    50     1    18
 -3.1854920132937969E-01 a      1195     0    50     1    19
  6.9334769267641316E-01 a      1196     0    50     1    20
  2.2086554794841837E+00 a      1197     0    50     1    21
  8.0299582711953310E-01 a      1198     0    50     1    22
 -3.4296914973792303E-01 a      1199     0    50     1    23
  4.8705059624873204E-01 a      1200     0    50     1    24
  3.5887678464399477E-03 a      1201     0    51     1     1
  6.8395621292372177E-01 a      1202     0    51     1     2
 -9.3635177011132098E-01 a      1203     0    51     1     3
  7.7066434781545901E-01 a      1204     0    51     1     4
 -4.1484791863262166E-01 a      1205     0    51     1     5
  4.5700240373734197E-01 a      1206     0    51     1     6
  5.9453131341959609E-01 a      1207     0    51     1     7
 -6.1533870097564458E-01 a      1208     0    51     1     8
  6.4943393985974807E-01 a      1209     0    51     1     9
 -3.9905676681093427E-01 a      1210     0    51     1    10
 -2.0555326271156735E-01 a      1211     0    51     1    11
 -4.4370610056805720E-01 a      1212     0    51     1    12
 -1.4823643682378665E-01 a      1213     0    51     1    13
 -5.6953082643741071E-01 a      1214     0    51     1    14
 -6.6760331959515626E-02 a      1215     0    51     1    15
 -1.1612311584785533E+00 a      1216     0    51     1    16
 -8.3933407266666649E-01 a      1217     0    51     1    17
 -1.1679781524268180E+00 a      1218     0    51     1    18
 -5.8305385895996542E-01 a      1219     0    51     1    19
  3.3935204328501140E-01 a      1220     0    51     1    20
  1.7704389441598758E-01 a      1221     0    51     1    21
 -1.0229019182680148E+00 a      1222     0    51     1    22
 -8.3453320725718535E-03 a      1223     0    51     1    23
  8.3479036188039912E-01 a      1224     0    51     1    24
 -1.7333333922860653E-01 a      1225     0    52     1     1
  5.2255890825981199E-01 a      1226     0    52     1     2
 -1.4730539750316980E+00 a      1227     0    52     1     3
  1.1519073666054853E+00 a      1228     0    52     1     4
  2.6198578768808413E-02 a      1229     0    52     1     5
 -3.3761987059213094E-01 a      1230     0    52     1     6
 -3.0315869070621276E-01 a      1231     0    52     1     7
 -2.6148937370250036E-01 a      1232     0    52     1     8
  9.1247540267632943E-01 a      1233     0    52     1     9
 -9.6525403812785915E-01 a      1234     0    52     1    10
  6.8190117708127784E-01 a      1235     0    52     1    11
 -5.0189486471916223E-01 a      1236     0    52     1    12
 -6.8262805479787314E-01 a      1237     0    52     1    13
  2.2019178977523490E-01 a      1238     0    52     1    14
  9.7244479210757917E-01 a      1239     0    52     1    15
 -3.0386380391880402E-01 a      1240     0    52     1    16
 -8.6670349625679910E-01 a      1241     0    52     1    17
 -1.2201180306110664E+00 a      1242     0    52     1    18
 -3.7820842839608909E-01 a      1243     0    52     1    19
  1.1364308929511044E+00 a      1244     0    52     1    20
  9.2061063606495641E-01 a      1245     0    52     1    21
  1.4039137673665419E-01 a      1246     0    52     1    22
 -6.3580979198348475E-01 a      1247     0    52     1    23
  5.8895518980922801E-01 a      1248     0    52     1    24
  1.1687799334914224E+00 a      1249     0    53     1     1
  3.4076290680541285E-02 a      1250     0    53     1     2
 -3.2550068387260345E-01 a      1251     0    53     1     3
  7.8639598827733681E-01 a      1252     0    53     1     4
 -6.3293269888067591E-02 a      1253     0    53     1     5
  7.0232222128435007E-01 a      1254     0    53     1     6
 -1.3166331130533009E+00 a      1255     0    53     1     7
  8.8670659625831671E-01 a      1256     0    53     1     8
  6.9219590921211283E-01 a      1257     0    53     1     9
  3.7953561822232751E-01 a      1258     0    53     1    10
  5.4846104994066180E-01 a      1259     0    53     1    11
  1.8558037634238098E-01 a      1260     0    53     1    12
 -3.7529040616378234E-01 a      1261     0    53     1    13
 -8.0948642657342543E-03 a      1262     0    53     1    14
 -1.3702892846862789E+00 a      1263     0    53     1    15
 -1.3650699208526351E-01 a      1264     0    53     1    16
 -1.4251479438282089E+00 a      1265     0    53     1    17
  6.6215302990968083E-01 a      1266     0    53     1    18
  3.4601856820198557E-01 a      1267     0    53     1    19
 -6.8471658391590084E-01 a      1268     0    53     1    20
  3.5884923537310531E-01 a      1269     0    53     1    21
 -7.7543647870073162E-01 a      1270     0    53     1    22
 -2.7297007069572443E-01 a      1271     0    53     1    23
 -8.6183301822819314E-01 a      1272     0    53     1    24
  5.4841311423014882E-01 a      1273     0    54     1     1
 -1.4456562207729434E-01 a      1274     0    54     1     2
 -4.3644420511914322E-01 a      1275     0    54     1     3
 -3.1422121680482756E-01 a      1276     0    54     1     4
  2.6098797854792244E-01 a      1277     0    54     1     5
 -5.1612161958676384E-01 a      1278     0    54     1     6
 -1.5925436845253660E-01 a      1279     0    54     1     7
  2.0850830196231619E-02 a      1280     0    54     1     8
  3.3297350234967084E-02 a      1281     0    54     1     9
 -7.8855913513331474E-02 a      1282     0    54     1    10
 -1.2432485912473114E-01 a      1283     0    54     1    11
  1.0419049034400606E-01 a      1284     0    54     1    12
  7.1815059359992384E-01 a      1285     0    54     1    13
 -6.0446521911255968E-01 a      1286     0    54     1    14
 -7.7052897833858602E-01 a      1287     0    54     1    15
 -5.7520886712529484E-01 a      1288     0    54     1    16
  2.8507745297587057E-02 a      1289     0    54     1    17
 -5.2741779136347026E-02 a      1290     0    54     1    18
  6.3305621234738804E-02 a      1291     0    54     1    19
 -6.0631208904599565E-01 a      1292     0    54     1    20
 -2.6407192635434096E-01 a      1293     0    54     1    21
 -2.6260313608695945E-02 a      1294     0    54     1    22
  1.9137557511075390E-01 a      1295     0    54     1    23
  6.2962574558825868E-02 a      1296     0    54     1    24
  1.0392080592618598E+00 a      1297     0    55     1     1
 -2.8610187749244081E-01 a      1298     0    55     1     2
  6.0754621458378644E-01 a      1299     0    55     1     3
 -1.0596448117973838E+00 a      1300     0    55     1     4
 -6.1629680498876827E-01 a      1301     0    55     1     5
 -5.8254616019851428E-03 a      1302     0    55     1     6
  4.4554084588232312E-01 a      1303     0    55     1     7
 -3.0542210160372217E-03 a      1304     0    55     1     8
  2.3717583565288222E-01 a      1305     0    55     1     9
  1.0557589451186200E+00 a      1306     0    55     1    10
 -3.2426787348266684E-01 a      1307     0    55     1    11
  3.8991918170766271E-01 a      1308     0    55     1    12
  4.4227051174055831E-01 a      1309     0    55     1    13
  7.0092313873453757E-03 a      1310     0    55     1    14
 -9.3169976936552518E-02 a      1311     0    55     1    15
 -1.4115508865155582E+00 a      1312     0    55     1    16
  4.8514393022956842E-01 a      1313     0    55     1    17
 -1.1202599870191518E-01 a      1314     0    55     1    18
 -2.6152525532651549E-01 a      1315     0    55     1    19
  1.4450669982540468E-01 a      1316     0    55     1    20
 -1.0996338781387216E+00 a      1317     0    55     1    21
 -2.2038334894960457E-01 a      1318     0    55     1    22
  2.1376300804818618E-01 a      1319     0    55     1    23
 -1.0330361689735908E-01 a      1320     0    55     1    24
  3.1233145976073334E-01 a      1321     0    56     1     1
 -3.0047349937113643E-01 a      1322     0    56     1     2
 -1.0633785301313606E-01 a      1323     0    56     1     3
 -9.5689675908138716E-01 a      1324     0    56     1     4
 -2.7148472413910557E-01 a      1325     0    56     1     5
 -6.0790766600199519E-01 a      1326     0    56     1     6
  5.1739181169245130E-01 a      1327     0    56     1     7
  2.4860252630893306E-01 a      1328     0    56     1     8
  4.1785635312438846E-01 a      1329     0    56     1     9
  8.0361601186852183E-01 a      1330     0    56     1    10
  2.5560228781645183E-01 a      1331     0    56     1    11
 -3.4060103058431807E-01 a      1332     0    56     1    12
 -3.7848575681932822E-01 a      1333     0    56     1    13
 -2.8925309255666404E-01 a      1334     0    56     1    14
 -5.7994646979641873E-01 a      1335     0    56     1    15
  2.8851797878600205E-01 a      1336     0    56     1    16
  6.7625422903911736E-01 a      1337     0    56     1    17
  7.9064360412152312E-01 a      1338     0    56     1    18
  7.1098157714208177E-01 a      1339     0    56     1    19
 -7.7261285006825275E-01 a      1340     0    56     1    20
 -4.8965532918300114E-01 a      1341     0    56     1    21
  1.6669960822622648E-02 a      1342     0    56     1    22
 -1.0643862564704418E-01 a      1343     0    56     1    23
  6.7613159140038437E-01 a      1344     0    56     1    24
  5.9642683843313227E-01 a      1345     0    57     1     1
  7.8622171490443267E-03 a      1346     0    57     1     2
  3.4248539951129314E-01 a      1347     0    57     1     3
 -8.6490394906554435E-01 a      1348     0    57     1     4
 -3.7718963384850690E-01 a      1349     0    57     1     5
  4.6514416459745206E-01 a      1350     0    57     1     6
 -5.4023331910227468E-01 a      1351     0    57     1     7
  3.2088127657154680E-01 a      1352     0    57     1     8
 -7.6931939833463336E-01 a      1353     0    57     1     9
  1.4958762623248212E+00 a      1354     0    57     1    10
  4.8557522829636733E-02 a      1355     0    57     1    11
  7.0576769323248156E-01 a      1356     0    57     1    12
 -3.3610654289103807E-02 a      1357     0    57     1    13
  8.1907563545741102E-01 a      1358     0    57     1    14
 -2.2771209806497658E-01 a      1359     0    57     1    15
 -2.4386814934102585E-01 a      1360     0    57     1    16
  6.2508994337289958E-01 a      1361     0    57     1    17
  1.9943960850334189E-01 a      1362     0    57     1    18
  5.5405974897163002E-01 a      1363     0    57     1    19
  5.6018804559945212E-01 a      1364     0    57     1    20
 -2.1901659382014099E-01 a      1365     0    57     1    21
  1.0689729064886437E+00 a      1366     0    57     1    22
 -1.1229728737416809E-01 a      1367     0    57     1    23
  7.8729145090481367E-01 a      1368     0    57     1    24
  3.1230174155742246E-01 a      1369     0    58     1     1
 -1.2933364443703019E-01 a      1370     0    58     1     2
  2.8253491055059921E-01 a      1371     0    58     1     3
 -8.0636361051679739E-01 a      1372     0    58     1     4
  3.1330974519615223E-01 a      1373     0    58     1     5
 -2.5621220136418404E-01 a      1374     0    58     1     6
 -5.1084548883833531E-03 a      1375     0    58     1     7
  4.6575801741854744E-01 a      1376     0    58     1     8
  3.9009943963172172E-01 a      1377     0    58     1     9
 -3.5028643350602151E-01 a      1378     0    58     1    10
 -5.5333315647181158E-01 a      1379     0    58     1    11
 -1.5464448949377746E-01 a      1380     0    58     1    12
 -8.7532672022248348E-02 a      1381     0    58     1    13
 -2.0773029816936042E-02 a      1382     0    58     1    14
 -6.5960043477725327E-01 a      1383     0    58     1    15
  1.3420477710413603E-01 a      1384     0    58     1    16
  2.7712520551122766E-01 a      1385     0    58     1    17
  2.9409122533965643E-01 a      1386     0    58     1    18
  7.5122167545614205E-01 a      1387     0    58     1    19
 -1.3728688865076648E+00 a      1388     0    58     1    20
  5.2967973779751459E-02 a      1389     0    58     1    21
  4.6584505702124324E-01 a      1390     0    58     1    22
 -1.5867028077312967E-01 a      1391     0    58     1    23
  1.5376425499877200E+00 a      1392     0    58     1    24
  1.4245809527788751E+00 a      1393     0    59     1     1
 -1.3477062835445675E+00 a      1394     0    59     1     2
  1.7089366600709097E+00 a      1395     0    59     1     3
 -7.0732149250730492E-01 a      1396     0    59     1     4
 -3.5686830455440348E-02 a      1397     0    59     1     5
  1.5791654360250754E-01 a      1398     0    59     1     6
 -3.9753562363077019E-02 a      1399     0    59     1     7
  6.0791211161670078E-01 a      1400     0    59     1     8
 -8.3172780812287539E-01 a      1401     0    59     1     9
  1.4554907333275040E+00 a      1402     0    59     1    10
 -8.2894915370925049E-01 a      1403     0    59     1    11
  2.0533725222379453E+00 a      1404     0    59     1    12
 -1.5709744568424919E-01 a      1405     0    59     1    13
 -1.5492818422930470E+00 a      1406     0    59     1    14
  1.2754484532942516E+00 a      1407     0    59     1    15
 -2.3180820264476814E+00 a      1408     0    59     1    16
 -5.1499157392732775E-01 a      1409     0    59     1    17
 -4.0057829562961689E-01 a      1410     0    59     1    18
 -5.7145003473398237E-01 a      1411     0    59     1    19
 -1.7577485899144423E+00 a      1412     0    59     1    20
 -2.6318769409272141E-01 a      1413     0    59     1    21
 -2.0627737444346295E-01 a      1414     0    59     1    22
  1.1201536042963329E+00 a      1415     0    59     1    23
 -4.3454177105318564E-01 a      1416     0    59     1    24
 -9.5771405565872145E-02 a      1417     0    60     1     1
  3.0907219286437598E-01 a      1418     0    60     1     2
  1.2689642555269570E-01 a      1419     0    60     1     3
  1.5126824043082981E-01 a      1420     0    60     1     4
 -2.3301439669899521E-02 a      1421     0    60     1     5
  3.6393139932330854E-01 a      1422     0    60     1     6
 -9.0821486878184948E-02 a      1423     0    60     1     7
  2.4246797063584238E-01 a      1424     0    60     1     8
  5.5779131695013806E-01 a      1425     0    60     1     9
  2.6458625040640094E-01 a      1426     0    60     1    10
  3.6671433791916919E-01 a      1427     0    60     1    11
 -4.5718003702481758E-01 a      1428     0    60     1    12
  1.0840733281788824E-01 a      1429     0    60     1    13
 -1.1053386578361382E-01 a      1430     0    60     1    14
 -7.1200837887109814E-01 a      1431     0    60     1    15
  5.1524049846073017E-01 a      1432     0    60     1    16
  4.8652070019814908E-01 a      1433     0    60     1    17
  5.2071606581508667E-01 a      1434     0    60     1    18
  3.3683144532954978E-01 a      1435     0    60     1    19
 -5.6034821180808748E-02 a      1436     0    60     1    20
 -2.4338793948961462E-01 a      1437     0    60     1    21
 -7.4381684708608686E-01 a      1438     0    60     1    22
 -1.3246330172626614E-01 a      1439     0    60     1    23
 -4.2845501526896129E-01 a      1440     0    60     1    24
  1.4137367636076590E+00 a      1441     0    61     1     1
 -1.0209854745600030E-01 a      1442     0    61     1     2
 -7.0987548280729962E-01 a      1443     0    61     1     3
  5.6604444509640828E-01 a      1444     0    61     1     4
  3.1559630305303826E-01 a      1445     0    61     1     5
  2.3375949343865823E-01 a      1446     0    61     1     6
 -6.8041753562131113E-01 a      1447     0    61     1     7
  7.8381911095086465E-01 a      1448     0    61     1     8
  7.8030859567864796E-01 a      1449     0    61     1     9
  1.4846421696435286E+00 a      1450     0    61     1    10
  1.0457999398040030E+00 a      1451     0    61     1    11
  1.2327400740818313E+00 a      1452     0    61     1    12
 -2.8567408878867057E-01 a      1453     0    61     1    13
 -3.6803326934134084E-01 a      1454     0    61     1    14
 -9.4732079564563387E-01 a      1455     0    61     1    15
 -1.1005388597469268E+00 a      1456     0    61     1    16
 -9.6444967089065292E-01 a      1457     0    61     1    17
  1.7076652240497938E+00 a      1458     0    61     1    18
 -1.9044781885540915E-02 a      1459     0    61     1    19
  5.0960260583467004E-02 a      1460     0    61     1    20
 -3.4731480823382982E-02 a      1461     0    61     1    21
 -1.0813463391706983E+00 a      1462     0    61     1    22
 -3.5410442267739051E-01 a      1463     0    61     1    23
 -2.5757427016997334E+00 a      1464     0    61     1    24
 -1.2252930717084108E-01 a      1465     0    62     1     1
 -3.9727040210718739E-01 a      1466     0    62     1     2
  1.1249490047717778E+00 a      1467     0    62     1     3
 -6.3325657413897085E-01 a      1468     0    62     1     4
  1.1753868982709316E-01 a      1469     0    62     1     5
 -6.2284663850991895E-01 a      1470     0    62     1     6
  1.0473144925369315E+00 a      1471     0    62     1     7
 -2.2421138478480887E-01 a      1472     0    62     1     8
 -2.7789984403527729E-01 a      1473     0    62     1     9
 -2.7971220888645687E-01 a      1474     0    62     1    10
 -2.1774670836515791E-01 a      1475     0    62     1    11
 -4.7178620959620754E-01 a      1476     0    62     1    12
 -7.2452435482045580E-02 a      1477     0    62     1    13
 -8.5554022223132420E-01 a      1478     0    62     1    14
  1.1397597927376235E+00 a      1479     0    62     1    15
  1.4658472300353322E+00 a      1480     0    62     1    16
  3.6773986919971802E-01 a      1481     0    62     1    17
 -6.4670446752457844E-01 a      1482     0    62     1    18
 -6.9201096234591519E-01 a      1483     0    62     1    19
 -5.0373592915450172E-01 a      1484     0    62     1    20
 -2.9461615525517554E-01 a      1485     0    62     1    21
  4.2404293777678542E-02 a      1486     0    62     1    22
  6.1161318508894280E-01 a      1487     0    62     1    23
 -1.1499065107252444E+00 a      1488     0    62     1    24
  6.5529150098488032E-02 a      1489     0    63     1     1
  9.9694931938830955E-01 a      1490     0    63     1     2
  1.2792882145051692E+00 a      1491     0    63     1     3
 -8.9471876737111788E-01 a      1492     0    63     1     4
 -4.6998832278809499E-01 a      1493     0    63     1     5
  8.0159810779834340E-01 a      1494     0    63     1     6
 -5.3193225570394541E-02 a      1495     0    63     1     7
  3.4162634803826708E-01 a      1496     0    63     1     8
 -3.5288491051330662E-01 a      1497     0    63     1     9
  1.9295697833222211E-01 a      1498     0    63     1    10
 -6.0002528126205412E-01 a      1499     0    63     1    11
  8.2302003078440578E-01 a      1500     0    63     1    12
 -1.5540100128347398E-01 a      1501     0    63     1    13
 -3.9635061681536016E-01 a      1502     0    63     1    14
  7.9023555876257945E-01 a      1503     0    63     1    15
 -1.1496466486830663E+00 a      1504     0    63     1    16
 -2.0364716794990873E-01 a      1505     0    63     1    17
 -1.1150096600580235E+00 a      1506     0    63     1    18
 -1.3329037134672975E-01 a      1507     0    63     1    19
 -1.2139453660861879E+00 a      1508     0    63     1    20
  6.1507941066756566E-01 a      1509     0    63     1    21
  2.5449350672840160E-01 a      1510     0    63     1    22
  8.2753454950589589E-01 a      1511     0    63     1    23
  3.3874588698405311E-01 a      1512     0    63     1    24
 -1.6330890701557281E+00 a      1513     0    64     1     1
  2.0761741840796701E+00 a      1514     0    64     1     2
  1.7580509261306425E+00 a      1515     0    64     1     3
  3.7211439957752873E-01 a      1516     0    64     1     4
  1.6809950109667041E-01 a      1517     0    64     1     5
 -9.3752537546261172E-01 a      1518     0    64     1     6
 -7.3381144578112165E-02 a      1519     0    64     1     7
  2.4938629792074674E-01 a      1520     0    64     1     8
  1.0576228150298652E+00 a      1521     0    64     1     9
 -5.3701761059766295E-01 a      1522     0    64     1    10
  8.0575394195506123E-01 a      1523     0    64     1    11
 -1.3437667724797917E+00 a      1524     0    64     1    12
  5.2417588310074903E-01 a      1525     0    64     1    13
  1.0520274308232418E+00 a      1526     0    64     1    14
 -8.2270635696690908E-01 a      1527     0    64     1    15
  2.5489479321455484E+00 a      1528     0    64     1    16
  1.0375619505601154E-01 a      1529     0    64     1    17
  1.7446248074796535E+00 a      1530     0    64     1    18
  8.7849251267956818E-01 a      1531     0    64     1    19
  2.5880098829140585E-01 a      1532     0    64     1    20
  8.3543327378800170E-01 a      1533     0    64     1    21
 -1.2075696229308683E+00 a      1534     0    64     1    22
 -5.9475397021719412E-01 a      1535     0    64     1    23
 -1.6326917834288108E+00 a      1536     0    64     1    24
 -5.2455186099069351E-02 a      1537     0    65     1     1
  1.9577396006172160E-01 a      1538     0    65     1     2
  9.1840106511242414E-01 a      1539     0    65     1     3
  3.0892330149710290E-01 a      1540     0    65     1     4
 -6.0816323403061678E-01 a      1541     0    65     1     5
 -5.7952661225748781E-01 a      1542     0    65     1     6
  2.4617850533401653E-01 a      1543     0    65     1     7
  1.2479253797540348E-01 a      1544     0    65     1     8
  9.9569672905196316E-01 a      1545     0    65     1     9
 -2.9082852002568434E-02 a      1546     0    65     1    10
  2.1093974495923104E-01 a      1547     0    65     1    11
 -2.3131256464751160E-01 a      1548     0    65     1    12
 -1.1527541421095886E+00 a      1549     0    65     1    13
  4.8516123161957567E-02 a      1550     0    65     1    14
  8.9820409419236924E-01 a      1551     0    65     1    15
  2.0885459277583007E-02 a      1552     0    65     1    16
  5.3707252379779813E-01 a      1553     0    65     1    17
 -6.2096665465744150E-01 a      1554     0    65     1    18
 -1.1027758473751217E-01 a      1555     0    65     1    19
  8.8920943650812245E-01 a      1556     0    65     1    20
 -1.3094815053488458E+00 a      1557     0    65     1    21
 -1.1729692073690723E+00 a      1558     0    65     1    22
 -8.4253305798501588E-01 a      1559     0    65     1    23
  5.1349029458463008E-02 a      1560     0    65     1    24
 -5.0861453688246983E-01 a      1561     0    66     1     1
 -9.0960054272852364E-01 a      1562     0    66     1     2
 -3.9560040889128734E-01 a      1563     0    66     1     3
  3.1738799304211057E-03 a      1564     0    66     1     4
 -1.0235154185213247E-01 a      1565     0    66     1     5
 -2.2725986232688131E-01 a      1566     0    66     1     6
 -5.1295968655807567E-01 a      1567     0    66     1     7
  3.3470169390139681E-01 a      1568     0    66     1     8
 -7.4543633468973192E-01 a      1569     0    66     1     9
 -5.3728248707837559E-02 a      1570     0    66     1    10
  9.0538320916676784E-01 a      1571     0    66     1    11
  4.3841813511083955E-01 a      1572     0    66     1    12
 -3.3125005013775533E-01 a      1573     0    66     1    13
  7.0121060437143024E-01 a      1574     0    66     1    14
  1.5131399278299404E+00 a      1575     0    66     1    15
  7.6248343280755770E-01 a      1576     0    66     1    16
  1.0658200125976991E+00 a      1577     0    66     1    17
 -3.6185075620494489E-01 a      1578     0    66     1    18
  3.7205363252123747E-01 a      1579     0    66     1    19
  1.4076321344978951E-01 a      1580     0    66     1    20
 -6.0462173443636646E-01 a      1581     0    66     1    21
  6.9195408394176461E-01 a      1582     0    66     1    22
 -3.0229288809009508E-01 a      1583     0    66     1    23
 -4.1461227801876682E-01 a      1584     0    66     1    24
 -5.1565890653375712E-01 a      1585     0    67     1     1
  9.8641829406421799E-01 a      1586     0    67     1     2
 -2.8579596129669014E-02 a      1587     0    67     1     3
  4.0787928795061379E-01 a      1588     0    67     1     4
 -1.8737258973378557E-01 a      1589     0    67     1     5
 -2.4507528358320618E-01 a      1590     0    67     1     6
 -1.0252085832633923E-01 a      1591     0    67     1     7
 -2.9445342760017934E-01 a      1592     0    67     1     8
 -2.3396522493694902E-01 a      1593     0    67     1     9
 -2.7411437228281721E-01 a      1594     0    67     1    10
  6.2794100215037596E-01 a      1595     0    67     1    11
 -3.2271329705574497E-01 a      1596     0    67     1    12
  8.6560562562930576E-01 a      1597     0    67     1    13
 -5.4067019874488080E-02 a      1598     0    67     1    14
 -1.3591638274171376E+00 a      1599     0    67     1    15
  1.0303849486353707E+00 a      1600     0    67     1    16
  1.1175225336579710E-01 a      1601     0    67     1    17
  9.0792824527129512E-01 a      1602     0    67     1    18
 -4.1533016569877235E-01 a      1603     0    67     1    19
  7.4092403887479297E-01 a      1604     0    67     1    20
 -2.5384875983621613E-01 a      1605     0    67     1    21
 -8.6003356584348900E-01 a      1606     0    67     1    22
 -4.4464442362840495E-01 a      1607     0    67     1    23
 -1.0005583286788911E+00 a      1608     0    67     1    24
  1.4320076902821194E-01 a      1609     0    68     1     1
  7.2389068222554975E-02 a      1610     0    68     1     2
 -2.4176295612658851E+00 a      1611     0    68     1     3
  1.2827651641455433E+00 a      1612     0    68     1     4
 -2.5118268555037104E-01 a      1613     0    68     1     5
  9.1317342583784966E-01 a      1614     0    68     1     6
 -2.8887392000858697E-01 a      1615     0    68     1     7
 -1.6640868566453995E-01 a      1616     0    68     1     8
 -1.4314065207632706E-01 a      1617     0    68     1     9
 -1.1118331227009919E+00 a      1618     0    68     1    10
  5.7726509380739555E-01 a      1619     0    68     1    11
  3.7017615511832380E-01 a      1620     0    68     1    12
 -3.2475167739238892E-01 a      1621     0    68     1    13
  1.3035845776925239E-01 a      1622     0    68     1    14
  1.5377225219025659E+00 a      1623     0    68     1    15
