################################################################################
# Neural network connection values (weights and biases).
################################################################################
# Col  Name       Description
################################################################################
# 1    connection Neural network connection value.
# 2    t          Connection type (a = weight, b = bias).
# 3    index      Index enumerating weights.
# 4    l_s        Starting point layer (end point layer for biases).
# 5    n_s        Starting point neuron in starting layer (end point neuron for biases).
# 6    l_e        End point layer.
# 7    n_e        End point neuron in end layer.
################################################################################
#                      1 2         3     4     5     6     7
#             connection t     index   l_s   n_s   l_e   n_e
############################################################
 -2.3154993108156602E-01 a         1     0     1     1     1
 -5.4970584023366931E-01 a         2     0     1     1     2
 -2.8419857498416035E-01 a         3     0     1     1     3
  2.2206054626893626E-01 a         4     0     1     1     4
 -2.1646586852731489E-01 a         5     0     1     1     5
  3.4385224726617103E-01 a         6     0     1     1     6
 -1.9667169350362171E-01 a         7     0     1     1     7
  2.2134481578106774E-01 a         8     0     1     1     8
  2.5875092016054541E-01 a         9     0     1     1     9
  2.2830431740179113E-01 a        10     0     1     1    10
 -5.3241776279418410E-02 a        11     0     1     1    11
 -1.7471169866642350E-01 a        12     0     1     1    12
 -1.0309672927428036E-01 a        13     0     1     1    13
  2.2924397045958286E-01 a        14     0     1     1    14
  5.9135223497499445E-01 a        15     0     1     1    15
  4.2948773851556160E-01 a        16     0     1     1    16
 -1.9571843024160093E-01 a        17     0     1     1    17
 -8.1949572207652560E-02 a        18     0     1     1    18
  2.2576644889505054E-01 a        19     0     1     1    19
  2.3919980903324781E-01 a        20     0     1     1    20
 -8.9915351763241266E-02 a        21     0     1     1    21
 -1.1339877059560572E+00 a        22     0     1     1    22
  1.0859318926657631E-01 a        23     0     1     1    23
 -4.8813216351996891E-01 a        24     0     1     1    24
  7.7955099891827540E-01 a        25     0     2     1     1
 -3.7870960625090988E-01 a        26     0     2     1     2
  1.5903975797426029E-02 a        27     0     2     1     3
 -5.4382950007264907E-01 a        28     0     2     1     4
  3.5174517751618317E-01 a        29     0     2     1     5
  1.3868636484872637E-01 a        30     0     2     1     6
 -8.1394864103448805E-01 a        31     0     2     1     7
  5.7267630759027144E-01 a        32     0     2     1     8
  1.2149724838643369E-01 a        33     0     2     1     9
  2.0873163888384977E-01 a        34     0     2     1    10
 -9.0792958761445020E-01 a        35     0     2     1    11
 -8.5481533373463495E-02 a        36     0     2     1    12
 -6.5585491031276089E-02 a        37     0     2     1    13
  3.9433379676748143E-01 a        38     0     2     1    14
  4.3113879070511790E-01 a        39     0     2     1    15
  1.6583100779076840E-01 a        40     0     2     1    16
 -5.7738620711843591E-01 a        41     0     2     1    17
 -6.4881779461289035E-01 a        42     0     2     1    18
 -1.3012157585737341E-01 a        43     0     2     1    19
  1.1911036614012641E-01 a        44     0     2     1    20
  6.8730720243810134E-02 a        45     0     2     1    21
 -1.1594640457247181E+00 a        46     0     2     1    22
 -4.0032677467213484E-01 a        47     0     2     1    23
 -2.9113492508285355E-01 a        48     0     2     1    24
 -1.9449801275786837E-02 a        49     0     3     1     1
  8.1281755548523821E-02 a        50     0     3     1     2
  5.9484272991828631E-02 a        51     0     3     1     3
 -1.1022934086377360E-01 a        52     0     3     1     4
  4.6291011841091710E-02 a        53     0     3     1     5
 -3.5575617428471831E-02 a        54     0     3     1     6
  1.8618693042277590E-01 a        55     0     3     1     7
  9.8906349086616288E-02 a        56     0     3     1     8
 -5.6072037652311646E-01 a        57     0     3     1     9
 -2.5599804676518090E-01 a        58     0     3     1    10
 -1.3315817246283740E-01 a        59     0     3     1    11
  3.3837402801581852E-02 a        60     0     3     1    12
 -1.5311136110850046E-01 a        61     0     3     1    13
 -1.4429446924235009E-01 a        62     0     3     1    14
  6.5821353682692665E-02 a        63     0     3     1    15
  4.6989411285983974E-02 a        64     0     3     1    16
 -5.0394831634394691E-02 a        65     0     3     1    17
  1.3365111109923089E-01 a        66     0     3     1    18
  3.9576663399850789E-02 a        67     0     3     1    19
 -1.9181544488863844E-02 a        68     0     3     1    20
 -1.1155386242719043E-02 a        69     0     3     1    21
 -3.9099838202201281E-02 a        70     0     3     1    22
 -8.4245032511003765E-02 a        71     0     3     1    23
  8.4603530262127288E-02 a        72     0     3     1    24
  2.2100962297285540E-01 a        73     0     4     1     1
  2.9549793054742413E-01 a        74     0     4     1     2
 -2.7435482792353605E-01 a        75     0     4     1     3
  4.0417769671049120E-01 a        76     0     4     1     4
  4.7744575234040154E-01 a        77     0     4     1     5
 -1.3349447649455010E-01 a        78     0     4     1     6
  4.5369789625432852E-02 a        79     0     4     1     7
 -6.3780752803934970E-01 a        80     0     4     1     8
  1.9919248667997286E-01 a        81     0     4     1     9
 -1.2796134982797702E-01 a        82     0     4     1    10
 -6.2101364826054106E-01 a        83     0     4     1    11
  7.2525987225029731E-01 a        84     0     4     1    12
 -4.1917746522742916E-01 a        85     0     4     1    13
  5.8598570679652373E-01 a        86     0     4     1    14
 -3.1659844404193521E-01 a        87     0     4     1    15
 -2.2104101076966770E-01 a        88     0     4     1    16
 -3.1481910491214499E-01 a        89     0     4     1    17
 -5.9748343584815844E-01 a        90     0     4     1    18
 -9.1218224951741297E-02 a        91     0     4     1    19
  3.2808051797651130E-02 a        92     0     4     1    20
  2.8886840197941005E-01 a        93     0     4     1    21
  1.5807184449610012E-01 a        94     0     4     1    22
  5.7087791393135662E-02 a        95     0     4     1    23
  4.1352525993019229E-01 a        96     0     4     1    24
 -3.4496720456882518E-01 a        97     0     5     1     1
 -2.0369714019813528E-01 a        98     0     5     1     2
 -4.7560851900116267E-02 a        99     0     5     1     3
  2.8027483874396644E-02 a       100     0     5     1     4
  3.5739397795412919E-01 a       101     0     5     1     5
 -9.2990228425899094E-04 a       102     0     5     1     6
 -6.6415513625683056E-02 a       103     0     5     1     7
  4.2306281920553906E-01 a       104     0     5     1     8
  7.9858412381455489E-03 a       105     0     5     1     9
  1.5320011235743067E-01 a       106     0     5     1    10
  5.4443776597484603E-02 a       107     0     5     1    11
  1.8573231884578871E-02 a       108     0     5     1    12
 -1.8197022833631177E-01 a       109     0     5     1    13
  2.3389310605604362E-02 a       110     0     5     1    14
 -2.9325332241542934E-02 a       111     0     5     1    15
 -2.0393202649029266E-01 a       112     0     5     1    16
 -8.9511391145599598E-02 a       113     0     5     1    17
  2.0045745802091117E-01 a       114     0     5     1    18
  3.9464330798406035E-02 a       115     0     5     1    19
 -2.3818304937244908E-01 a       116     0     5     1    20
  6.3244066897806955E-02 a       117     0     5     1    21
 -3.1226950010985442E-02 a       118     0     5     1    22
 -3.6388217033746811E-02 a       119     0     5     1    23
 -3.3067627368491898E-01 a       120     0     5     1    24
 -1.5411140754736169E-01 a       121     0     6     1     1
  2.8553767564100790E-01 a       122     0     6     1     2
  1.2499863860071223E-01 a       123     0     6     1     3
  2.7102531431814758E-01 a       124     0     6     1     4
 -2.2616137379691958E-01 a       125     0     6     1     5
 -8.7121633344794919E-02 a       126     0     6     1     6
 -1.6436401150321697E-01 a       127     0     6     1     7
  2.9601492494942960E-01 a       128     0     6     1     8
  2.9827086393046404E-01 a       129     0     6     1     9
  2.5116919238673546E-01 a       130     0     6     1    10
 -2.0972297106857999E-02 a       131     0     6     1    11
 -4.1548427202965053E-02 a       132     0     6     1    12
 -7.3579524408700248E-02 a       133     0     6     1    13
 -1.2558824827751499E-02 a       134     0     6     1    14
 -1.9233873005443540E-02 a       135     0     6     1    15
  6.0053375595160989E-02 a       136     0     6     1    16
 -1.4668924999386296E-01 a       137     0     6     1    17
  1.1110779083935116E-01 a       138     0     6     1    18
 -6.7674960617392754E-02 a       139     0     6     1    19
  4.8289130299870614E-02 a       140     0     6     1    20
 -1.0369663344365868E-01 a       141     0     6     1    21
  5.4801959621057293E-02 a       142     0     6     1    22
 -1.0148943251579055E-01 a       143     0     6     1    23
  1.4884871212373593E-01 a       144     0     6     1    24
 -2.9604898573746885E-01 a       145     0     7     1     1
  2.6860438313275552E-02 a       146     0     7     1     2
  3.0997610288434035E-01 a       147     0     7     1     3
 -4.2212086859303357E-03 a       148     0     7     1     4
  2.0912509508387140E-03 a       149     0     7     1     5
  3.1990069552757261E-01 a       150     0     7     1     6
  3.9077700129726423E-01 a       151     0     7     1     7
  3.1157195399618354E-02 a       152     0     7     1     8
  4.4131684739489158E-01 a       153     0     7     1     9
  8.3278026383362158E-01 a       154     0     7     1    10
  1.4124602055382532E-01 a       155     0     7     1    11
 -2.5351309576658354E-01 a       156     0     7     1    12
  5.0151425621346146E-01 a       157     0     7     1    13
 -1.2832736233579678E-01 a       158     0     7     1    14
 -6.9496689403300116E-01 a       159     0     7     1    15
  3.8530323795341037E-01 a       160     0     7     1    16
 -2.3819814266177411E-01 a       161     0     7     1    17
  5.5752599323323371E-01 a       162     0     7     1    18
 -9.7020803136348172E-02 a       163     0     7     1    19
 -9.2093174919202370E-01 a       164     0     7     1    20
  2.4526968501467125E-01 a       165     0     7     1    21
  5.0953028810362955E-01 a       166     0     7     1    22
  4.7588605157738889E-01 a       167     0     7     1    23
 -3.0821416250945499E-01 a       168     0     7     1    24
 -5.2141634848199610E-03 a       169     0     8     1     1
  3.7617270155857085E-01 a       170     0     8     1     2
 -1.7138623211709486E-01 a       171     0     8     1     3
 -1.5272886073067260E-01 a       172     0     8     1     4
 -3.8476429405875007E-01 a       173     0     8     1     5
 -3.8213785975285776E-02 a       174     0     8     1     6
 -1.0237154635258555E-01 a       175     0     8     1     7
 -6.1797591834244425E-01 a       176     0     8     1     8
  2.2000000905293575E-02 a       177     0     8     1     9
 -2.8938343891442531E-01 a       178     0     8     1    10
 -1.7872052376083056E-01 a       179     0     8     1    11
  4.6677555398814789E-02 a       180     0     8     1    12
  3.0308892939639398E-01 a       181     0     8     1    13
 -1.8330062173483894E-01 a       182     0     8     1    14
 -3.5513075438983449E-01 a       183     0     8     1    15
 -1.0985217425773602E-01 a       184     0     8     1    16
  7.0639279674205593E-02 a       185     0     8     1    17
 -3.4569070662201173E-01 a       186     0     8     1    18
  3.3055464337976445E-02 a       187     0     8     1    19
  1.4732261482460307E-01 a       188     0     8     1    20
 -1.4473833869936686E-01 a       189     0     8     1    21
 -3.8750461153146442E-03 a       190     0     8     1    22
  6.5847286980003111E-02 a       191     0     8     1    23
  1.1061599510082104E-01 a       192     0     8     1    24
 -1.1871926284913964E-01 a       193     0     9     1     1
 -3.8525803930361818E-01 a       194     0     9     1     2
  2.9260227997443411E-01 a       195     0     9     1     3
  6.1372448238794626E-02 a       196     0     9     1     4
 -2.1253163596081662E-01 a       197     0     9     1     5
 -4.1945045581698187E-01 a       198     0     9     1     6
 -8.2678823928757950E-01 a       199     0     9     1     7
 -2.0808198198146588E-01 a       200     0     9     1     8
 -2.3638772123474549E-02 a       201     0     9     1     9
 -1.7247343342469351E-01 a       202     0     9     1    10
 -2.2880956632843294E-01 a       203     0     9     1    11
  2.8678217614787987E-01 a       204     0     9     1    12
  7.9590908293906401E-02 a       205     0     9     1    13
 -2.1950912834736896E-01 a       206     0     9     1    14
  1.0770682097406552E+00 a       207     0     9     1    15
  4.4883766835919964E-01 a       208     0     9     1    16
 -3.1240505546377090E-01 a       209     0     9     1    17
 -2.5536849079424112E-01 a       210     0     9     1    18
 -3.7680925238997465E-01 a       211     0     9     1    19
  1.9428127333755646E-01 a       212     0     9     1    20
 -3.0188712269220708E-01 a       213     0     9     1    21
 -9.7288457406410078E-01 a       214     0     9     1    22
 -4.7276094726341256E-01 a       215     0     9     1    23
 -4.0465901160870912E-02 a       216     0     9     1    24
 -3.0186239463118880E-02 a       217     0    10     1     1
  1.5264851124370507E-01 a       218     0    10     1     2
  6.1281276717043781E-02 a       219     0    10     1     3
  2.8184616968127901E-01 a       220     0    10     1     4
 -1.6087024427074390E-01 a       221     0    10     1     5
 -1.6048796131280299E-01 a       222     0    10     1     6
 -1.4934886715087950E-01 a       223     0    10     1     7
  2.1676939997310119E-02 a       224     0    10     1     8
  3.0104369654088542E-01 a       225     0    10     1     9
  2.4732543484724048E-01 a       226     0    10     1    10
  2.3123776022155314E-03 a       227     0    10     1    11
 -1.2091159679454404E-01 a       228     0    10     1    12
 -3.7518287100554916E-02 a       229     0    10     1    13
  1.2925397792884036E-01 a       230     0    10     1    14
  2.4372791608960522E-03 a       231     0    10     1    15
 -1.7944387412596897E-03 a       232     0    10     1    16
 -1.0773647389805259E-01 a       233     0    10     1    17
  4.6929606641206559E-02 a       234     0    10     1    18
 -1.0010376813708413E-01 a       235     0    10     1    19
  3.0761064967401865E-02 a       236     0    10     1    20
 -2.1373817369442127E-01 a       237     0    10     1    21
  1.1153827004303211E-01 a       238     0    10     1    22
 -8.0744229869904593E-02 a       239     0    10     1    23
  5.7532545993367878E-02 a       240     0    10     1    24
 -1.3185364902698136E-02 a       241     0    11     1     1
 -2.7030995078247555E-01 a       242     0    11     1     2
 -2.2438460590281015E-01 a       243     0    11     1     3
 -7.2540395339421512E-02 a       244     0    11     1     4
 -1.5827490592772359E-01 a       245     0    11     1     5
 -4.1392879566107522E-02 a       246     0    11     1     6
 -8.0581741617731698E-02 a       247     0    11     1     7
 -1.7800657338855763E-01 a       248     0    11     1     8
  9.9848486134113054E-02 a       249     0    11     1     9
  3.8837867477787885E-01 a       250     0    11     1    10
 -1.8006765821450645E-02 a       251     0    11     1    11
 -2.1909134896467367E-01 a       252     0    11     1    12
  2.0147430348072459E-01 a       253     0    11     1    13
 -1.5970332239316817E-01 a       254     0    11     1    14
 -6.1097203250802999E-02 a       255     0    11     1    15
 -6.8950126886794583E-02 a       256     0    11     1    16
  3.4476004259313064E-01 a       257     0    11     1    17
  1.9716301101247144E-01 a       258     0    11     1    18
  8.6297176496589172E-03 a       259     0    11     1    19
 -1.6779191338077076E-01 a       260     0    11     1    20
  1.6572129560721027E-01 a       261     0    11     1    21
  6.7713061677978595E-02 a       262     0    11     1    22
 -5.9668715449491434E-02 a       263     0    11     1    23
 -2.6433304047110462E-01 a       264     0    11     1    24
 -2.3379588215617650E-01 a       265     0    12     1     1
 -4.4944095439145765E-01 a       266     0    12     1     2
 -2.4908981036346209E-03 a       267     0    12     1     3
 -6.3909089204707981E-01 a       268     0    12     1     4
 -2.6120567118254295E-01 a       269     0    12     1     5
 -6.9625069610878401E-02 a       270     0    12     1     6
 -2.4266921308938405E-01 a       271     0    12     1     7
  2.8135964891783122E-01 a       272     0    12     1     8
  2.2433738005125115E-01 a       273     0    12     1     9
 -3.7337864795001043E-02 a       274     0    12     1    10
  1.2752286398377079E-02 a       275     0    12     1    11
  4.4567202475269990E-01 a       276     0    12     1    12
  2.7890913441353604E-01 a       277     0    12     1    13
  8.2776899396450901E-02 a       278     0    12     1    14
 -1.1652992996213821E-02 a       279     0    12     1    15
  5.9421647007862988E-01 a       280     0    12     1    16
 -3.8022067888572680E-01 a       281     0    12     1    17
 -2.5322638027045135E-02 a       282     0    12     1    18
  5.1741036271729914E-02 a       283     0    12     1    19
  6.7291419473974601E-02 a       284     0    12     1    20
 -3.9784911985709093E-01 a       285     0    12     1    21
 -3.5222138986992113E-01 a       286     0    12     1    22
 -2.1866496511713771E-02 a       287     0    12     1    23
 -1.2322057208874447E-01 a       288     0    12     1    24
  1.4373356392087665E-02 a       289     0    13     1     1
 -1.3052225531638431E-01 a       290     0    13     1     2
 -1.3825455600170200E-01 a       291     0    13     1     3
 -2.7716564047294157E-01 a       292     0    13     1     4
 -4.3874301262230415E-02 a       293     0    13     1     5
  9.2030272175824008E-03 a       294     0    13     1     6
  1.8112339292640306E-01 a       295     0    13     1     7
  8.2715089437364053E-02 a       296     0    13     1     8
 -6.5894540119220602E-01 a       297     0    13     1     9
 -3.5157347131129613E-02 a       298     0    13     1    10
 -1.0381267660930575E-01 a       299     0    13     1    11
  8.5050024951181386E-02 a       300     0    13     1    12
 -3.9079178383221364E-02 a       301     0    13     1    13
 -9.2536803480595509E-02 a       302     0    13     1    14
 -7.3365097578974858E-02 a       303     0    13     1    15
  1.5763876944117819E-01 a       304     0    13     1    16
  2.4101960004189873E-01 a       305     0    13     1    17
  9.5392780564315591E-02 a       306     0    13     1    18
 -6.2244153764152349E-02 a       307     0    13     1    19
  1.5370890184113478E-01 a       308     0    13     1    20
  1.9828048837075138E-01 a       309     0    13     1    21
 -1.2605079115942294E-01 a       310     0    13     1    22
 -5.7668167454107425E-02 a       311     0    13     1    23
  7.7430589811759917E-02 a       312     0    13     1    24
 -1.7686924793405912E-01 a       313     0    14     1     1
  1.6797182040956063E-01 a       314     0    14     1     2
 -3.2395182782762204E-02 a       315     0    14     1     3
 -2.6194188775735044E-01 a       316     0    14     1     4
  3.8636733712482380E-01 a       317     0    14     1     5
  5.4583906780198820E-03 a       318     0    14     1     6
  6.6662761505754664E-01 a       319     0    14     1     7
  3.7752279369929187E-01 a       320     0    14     1     8
  1.7116364594676062E-01 a       321     0    14     1     9
 -2.1412434796724900E-01 a       322     0    14     1    10
  5.1118725289204858E-01 a       323     0    14     1    11
  2.9111534578568316E-01 a       324     0    14     1    12
  4.2772018389407518E-01 a       325     0    14     1    13
 -1.1646345933874146E-01 a       326     0    14     1    14
 -2.2334300885929645E-01 a       327     0    14     1    15
  2.0000672417192644E-01 a       328     0    14     1    16
  4.0742529754888063E-01 a       329     0    14     1    17
 -1.1044477514658790E-02 a       330     0    14     1    18
  3.3070951543712973E-01 a       331     0    14     1    19
  1.8384630810381478E-01 a       332     0    14     1    20
 -3.2996239895831281E-01 a       333     0    14     1    21
  8.1250083203903770E-02 a       334     0    14     1    22
 -3.0167616446395001E-01 a       335     0    14     1    23
  1.4730590609000829E-01 a       336     0    14     1    24
 -5.0109608456903287E-01 a       337     0    15     1     1
 -1.0833917347311652E-01 a       338     0    15     1     2
  9.4683374618331220E-02 a       339     0    15     1     3
 -1.4073361455296848E-01 a       340     0    15     1     4
  3.5056643802112092E-01 a       341     0    15     1     5
 -8.1683652862498304E-02 a       342     0    15     1     6
  3.8859390771505256E-02 a       343     0    15     1     7
  5.2315809508348424E-02 a       344     0    15     1     8
  3.4909424487193663E-01 a       345     0    15     1     9
  5.3111786853472553E-01 a       346     0    15     1    10
 -2.8135220948303408E-01 a       347     0    15     1    11
  5.5411008031551835E-02 a       348     0    15     1    12
 -2.0332861433574917E-01 a       349     0    15     1    13
 -9.4301120302021264E-03 a       350     0    15     1    14
 -1.0288276889653322E-02 a       351     0    15     1    15
  1.7751720507336288E-01 a       352     0    15     1    16
 -1.0006540565543974E-01 a       353     0    15     1    17
  2.1314835304098395E-01 a       354     0    15     1    18
 -7.4746013625854577E-02 a       355     0    15     1    19
  2.0248132436644969E-01 a       356     0    15     1    20
 -1.2926096050389413E-01 a       357     0    15     1    21
 -1.8496213373060177E-01 a       358     0    15     1    22
 -1.1931337776377314E-01 a       359     0    15     1    23
 -1.1601052041542156E-01 a       360     0    15     1    24
 -2.6086526883780703E-01 a       361     0    16     1     1
 -7.7404054337885608E-02 a       362     0    16     1     2
 -2.3230578614287126E-01 a       363     0    16     1     3
  5.1492891711484849E-02 a       364     0    16     1     4
  4.9099548193125633E-02 a       365     0    16     1     5
 -5.5310961944289649E-01 a       366     0    16     1     6
  1.3549349600659952E-01 a       367     0    16     1     7
  3.3413605840277172E-01 a       368     0    16     1     8
 -2.1813341634043439E-02 a       369     0    16     1     9
  1.9089042980240850E-01 a       370     0    16     1    10
 -2.2369482214152597E-01 a       371     0    16     1    11
 -6.7724096133608566E-02 a       372     0    16     1    12
 -7.6697054768948392E-01 a       373     0    16     1    13
 -2.5030137624516058E-02 a       374     0    16     1    14
 -4.0093688573013198E-01 a       375     0    16     1    15
 -9.6099442899338305E-02 a       376     0    16     1    16
  1.0114426461455253E-01 a       377     0    16     1    17
  4.2813393276090884E-02 a       378     0    16     1    18
  4.0077162176642295E-01 a       379     0    16     1    19
 -1.9928814211335166E-01 a       380     0    16     1    20
  7.1974064243828552E-03 a       381     0    16     1    21
  3.4661632611109210E-02 a       382     0    16     1    22
  1.6271367195847838E-01 a       383     0    16     1    23
  1.1613385418164493E-01 a       384     0    16     1    24
  6.4608935472045204E-01 a       385     0    17     1     1
  8.4766504744044935E-01 a       386     0    17     1     2
 -6.6346499048277219E-01 a       387     0    17     1     3
  1.9586004483147104E-01 a       388     0    17     1     4
  2.2934482805611198E-01 a       389     0    17     1     5
  5.5482076917975431E-01 a       390     0    17     1     6
  1.0999786502856790E+00 a       391     0    17     1     7
 -3.8736645914752216E-01 a       392     0    17     1     8
  3.9379777591841580E-01 a       393     0    17     1     9
 -1.2988503065666634E-01 a       394     0    17     1    10
 -2.4504811061962481E-01 a       395     0    17     1    11
 -5.5738036799056562E-02 a       396     0    17     1    12
 -6.8425194917517884E-01 a       397     0    17     1    13
  1.7758802885021499E-01 a       398     0    17     1    14
 -9.3094053012905920E-01 a       399     0    17     1    15
 -8.7257153558485356E-01 a       400     0    17     1    16
  6.4449797547073365E-03 a       401     0    17     1    17
  3.8220094437725677E-01 a       402     0    17     1    18
  4.6021340423071661E-01 a       403     0    17     1    19
 -2.4486340005618112E-01 a       404     0    17     1    20
  4.0493229355547417E-01 a       405     0    17     1    21
  1.8977291456072318E+00 a       406     0    17     1    22
  8.3133476655069283E-01 a       407     0    17     1    23
  3.7360012137284175E-02 a       408     0    17     1    24
 -2.1029573822771194E-01 a       409     0    18     1     1
 -1.6011184972866840E-01 a       410     0    18     1     2
  6.0298456178300507E-02 a       411     0    18     1     3
 -1.7146219275786002E-02 a       412     0    18     1     4
  1.3037647975213731E-01 a       413     0    18     1     5
  4.7903354616160007E-02 a       414     0    18     1     6
 -3.0873837224992019E-02 a       415     0    18     1     7
  4.1946095971537693E-02 a       416     0    18     1     8
  2.5444520388109193E-01 a       417     0    18     1     9
  3.0885722330067944E-01 a       418     0    18     1    10
 -5.1764962986890761E-02 a       419     0    18     1    11
  1.1748321171384894E-01 a       420     0    18     1    12
  1.7420036589086943E-01 a       421     0    18     1    13
  4.5293655297140765E-02 a       422     0    18     1    14
 -2.5336967576034447E-01 a       423     0    18     1    15
  1.4588518968734553E-02 a       424     0    18     1    16
  9.2482598108652656E-02 a       425     0    18     1    17
 -3.2591250658082452E-02 a       426     0    18     1    18
 -2.1111913134329660E-01 a       427     0    18     1    19
  3.2173081442929879E-01 a       428     0    18     1    20
  2.2617995822849557E-01 a       429     0    18     1    21
 -9.1261186745546750E-03 a       430     0    18     1    22
 -7.2401047549877570E-02 a       431     0    18     1    23
  1.4060805359338463E-01 a       432     0    18     1    24
  1.8221330682480658E-01 a       433     0    19     1     1
  4.1948690774329345E-01 a       434     0    19     1     2
 -5.1069636837023857E-01 a       435     0    19     1     3
  1.8305435480934035E-01 a       436     0    19     1     4
  5.4700120064532254E-01 a       437     0    19     1     5
  2.0146935409557271E-01 a       438     0    19     1     6
 -9.6495521732769193E-02 a       439     0    19     1     7
 -3.2608374883071417E-01 a       440     0    19     1     8
  2.8276575438986301E-01 a       441     0    19     1     9
  1.6225543665932571E-01 a       442     0    19     1    10
  7.6118358269900044E-02 a       443     0    19     1    11
  2.9621722019687224E-01 a       444     0    19     1    12
  2.9154300640924719E-01 a       445     0    19     1    13
  4.5842676417524242E-01 a       446     0    19     1    14
 -2.0911257954719237E-01 a       447     0    19     1    15
  1.3756243762112652E-01 a       448     0    19     1    16
 -1.6392241739092323E-01 a       449     0    19     1    17
 -9.5079181635201584E-02 a       450     0    19     1    18
  1.6875586543751063E-02 a       451     0    19     1    19
 -2.6478473303067657E-01 a       452     0    19     1    20
  2.2985881587456125E-01 a       453     0    19     1    21
 -2.5257376223210248E-01 a       454     0    19     1    22
  2.2847173081833119E-01 a       455     0    19     1    23
 -4.2365022639688599E-01 a       456     0    19     1    24
 -3.7863498332173795E-01 a       457     0    20     1     1
 -2.3018291569389782E-02 a       458     0    20     1     2
  3.2425781920772423E-01 a       459     0    20     1     3
 -1.7874380793656439E-01 a       460     0    20     1     4
  9.9309608027303473E-02 a       461     0    20     1     5
 -1.9136030670062154E-01 a       462     0    20     1     6
  2.5095915084870207E-01 a       463     0    20     1     7
  8.0860702628220496E-03 a       464     0    20     1     8
 -5.4100534704539731E-02 a       465     0    20     1     9
  3.8339680567512513E-01 a       466     0    20     1    10
  6.3056408292501576E-01 a       467     0    20     1    11
 -9.6216499970353309E-02 a       468     0    20     1    12
  3.5597663736082175E-01 a       469     0    20     1    13
  1.5759521607595011E-02 a       470     0    20     1    14
 -5.9712666295108158E-02 a       471     0    20     1    15
  2.3819719662607911E-01 a       472     0    20     1    16
  4.4276085246193903E-01 a       473     0    20     1    17
  5.7105489051845794E-02 a       474     0    20     1    18
  2.9898296441137437E-02 a       475     0    20     1    19
 -1.7939072063314582E-01 a       476     0    20     1    20
 -3.2615043851660683E-02 a       477     0    20     1    21
  4.9618695649302179E-02 a       478     0    20     1    22
 -9.3987490051129816E-02 a       479     0    20     1    23
  2.1971394675729606E-02 a       480     0    20     1    24
 -5.3686796834214998E-02 a       481     0    21     1     1
  5.0804826812015064E-02 a       482     0    21     1     2
  3.3242152723794861E-02 a       483     0    21     1     3
 -9.3152569782686878E-02 a       484     0    21     1     4
  8.2893806193634484E-02 a       485     0    21     1     5
  3.6463638981147614E-02 a       486     0    21     1     6
  1.3135375545899380E-01 a       487     0    21     1     7
  1.2360764852163862E-01 a       488     0    21     1     8
 -3.0731615320194250E-01 a       489     0    21     1     9
 -2.6042667448887036E-01 a       490     0    21     1    10
 -2.1493503032029806E-01 a       491     0    21     1    11
  4.6188462567852182E-02 a       492     0    21     1    12
  9.2235652916888511E-02 a       493     0    21     1    13
 -8.0458154933222850E-02 a       494     0    21     1    14
 -1.0563901531501213E-01 a       495     0    21     1    15
  1.3890259780288622E-01 a       496     0    21     1    16
  2.1180285730231960E-01 a       497     0    21     1    17
  2.3155246728702342E-02 a       498     0    21     1    18
  1.4688866842411396E-03 a       499     0    21     1    19
  2.2467170249437987E-01 a       500     0    21     1    20
  2.9598697000006147E-01 a       501     0    21     1    21
 -1.9780860005116172E-02 a       502     0    21     1    22
  1.4278246280287465E-02 a       503     0    21     1    23
  2.5434279418339983E-01 a       504     0    21     1    24
  1.4020574610261169E-01 a       505     0    22     1     1
  5.2503226504501910E-01 a       506     0    22     1     2
 -2.3423684222856320E-02 a       507     0    22     1     3
  2.7368886308944157E-01 a       508     0    22     1     4
 -7.6994742855410400E-02 a       509     0    22     1     5
  1.5950416207397619E-01 a       510     0    22     1     6
 -2.5045630304325484E-01 a       511     0    22     1     7
 -3.8395163878245392E-01 a       512     0    22     1     8
 -1.3967096131432588E-01 a       513     0    22     1     9
  7.0710002569029776E-02 a       514     0    22     1    10
 -4.3314121016313623E-01 a       515     0    22     1    11
  3.1047657754304553E-01 a       516     0    22     1    12
 -6.9226219412716072E-01 a       517     0    22     1    13
  3.4887581930254224E-01 a       518     0    22     1    14
 -5.1254136950725629E-02 a       519     0    22     1    15
 -8.5371670782563649E-03 a       520     0    22     1    16
 -5.1240856453093997E-01 a       521     0    22     1    17
 -2.3874978784840425E-01 a       522     0    22     1    18
 -1.6121115124406539E-02 a       523     0    22     1    19
 -1.9769304259472967E-01 a       524     0    22     1    20
  6.7472658942394237E-02 a       525     0    22     1    21
  1.6624064684073601E-02 a       526     0    22     1    22
  4.0482223882964913E-01 a       527     0    22     1    23
 -1.8785646440204681E-01 a       528     0    22     1    24
  4.2781222800502544E-01 a       529     0    23     1     1
  2.2683644871827828E-02 a       530     0    23     1     2
  6.7020738514899736E-01 a       531     0    23     1     3
  1.0341718342949786E-01 a       532     0    23     1     4
  3.5847502575727122E-02 a       533     0    23     1     5
  7.1966966537176991E-01 a       534     0    23     1     6
 -5.5035795745029406E-03 a       535     0    23     1     7
  1.5359471248927237E-01 a       536     0    23     1     8
 -2.7486868102194734E-01 a       537     0    23     1     9
  4.5083522456556901E-01 a       538     0    23     1    10
  3.0047071209516191E-01 a       539     0    23     1    11
 -3.0480572645746373E-01 a       540     0    23     1    12
  5.2037834645449932E-01 a       541     0    23     1    13
 -1.7121354172657857E-01 a       542     0    23     1    14
  6.0656936706817899E-01 a       543     0    23     1    15
  2.2811276423391990E-02 a       544     0    23     1    16
 -4.0975874126837775E-03 a       545     0    23     1    17
  1.4663584847617561E-01 a       546     0    23     1    18
 -1.3378745021131552E-01 a       547     0    23     1    19
 -7.7440454739818462E-02 a       548     0    23     1    20
 -2.0829000494763728E-01 a       549     0    23     1    21
 -5.1700964204436359E-02 a       550     0    23     1    22
 -2.4931051939451987E-01 a       551     0    23     1    23
 -6.8747425617389736E-03 a       552     0    23     1    24
  7.7278485145912065E-04 a       553     0    24     1     1
 -5.0130602438960614E-01 a       554     0    24     1     2
 -1.5933885121827498E-01 a       555     0    24     1     3
 -1.4408958045462328E-01 a       556     0    24     1     4
 -2.4853185325351720E-01 a       557     0    24     1     5
 -2.2110148199359297E-01 a       558     0    24     1     6
  1.0782824704850176E-01 a       559     0    24     1     7
 -3.8491756964699236E-01 a       560     0    24     1     8
 -3.8509148629969636E-01 a       561     0    24     1     9
  3.0270140002241180E-01 a       562     0    24     1    10
  4.2272696711310953E-02 a       563     0    24     1    11
 -1.2367222533560875E-01 a       564     0    24     1    12
 -2.8359939357340080E-01 a       565     0    24     1    13
  4.8414234103181580E-01 a       566     0    24     1    14
  2.8458393171246871E-01 a       567     0    24     1    15
 -2.0487850160862281E-01 a       568     0    24     1    16
  1.4980061482274831E-01 a       569     0    24     1    17
 -2.3399096116788673E-01 a       570     0    24     1    18
  1.1640738337896224E-02 a       571     0    24     1    19
  7.8743195311273412E-02 a       572     0    24     1    20
 -1.4627488822929965E-01 a       573     0    24     1    21
  2.5824895530588698E-01 a       574     0    24     1    22
 -4.6655120953480633E-01 a       575     0    24     1    23
 -3.0692643908635853E-01 a       576     0    24     1    24
  5.8812662966809225E-02 a       577     0    25     1     1
  4.5947836087240623E-02 a       578     0    25     1     2
  3.7855631603916196E-02 a       579     0    25     1     3
  8.2628635034551978E-02 a       580     0    25     1     4
 -1.3013948679897486E-01 a       581     0    25     1     5
 -2.0625946381968752E-01 a       582     0    25     1     6
 -1.4439034364751946E-02 a       583     0    25     1     7
  3.7784765490973045E-02 a       584     0    25     1     8
 -1.2006487452894238E-01 a       585     0    25     1     9
 -4.6933016610512926E-02 a       586     0    25     1    10
 -5.6257877905482295E-03 a       587     0    25     1    11
 -1.0753193650065007E-01 a       588     0    25     1    12
 -3.1805730891959649E-02 a       589     0    25     1    13
  9.1821100454831966E-02 a       590     0    25     1    14
  2.0747451717016981E-02 a       591     0    25     1    15
  1.1329240712438531E-02 a       592     0    25     1    16
  2.2308030491694435E-02 a       593     0    25     1    17
  3.6764300482033531E-02 a       594     0    25     1    18
  1.9613917785690878E-02 a       595     0    25     1    19
  6.9832704065800694E-02 a       596     0    25     1    20
 -1.0452222364604494E-01 a       597     0    25     1    21
 -2.5246354720521925E-02 a       598     0    25     1    22
  6.8235097440689840E-02 a       599     0    25     1    23
  6.0231940999941440E-02 a       600     0    25     1    24
 -7.3849281727051380E-02 a       601     0    26     1     1
  1.0656548133326156E-02 a       602     0    26     1     2
 -7.9081536895221821E-02 a       603     0    26     1     3
 -3.8618383301896986E-02 a       604     0    26     1     4
  2.5532427303469975E-02 a       605     0    26     1     5
  1.0417333565342604E-01 a       606     0    26     1     6
 -6.2150113848725187E-02 a       607     0    26     1     7
 -2.5418946832751695E-02 a       608     0    26     1     8
  2.3111824254471119E-01 a       609     0    26     1     9
 -6.5477209824844965E-02 a       610     0    26     1    10
  2.5731095290548112E-02 a       611     0    26     1    11
  4.6527971248529178E-02 a       612     0    26     1    12
 -2.2695896145911304E-02 a       613     0    26     1    13
 -5.6121877487968840E-02 a       614     0    26     1    14
 -4.9519152032624830E-02 a       615     0    26     1    15
 -2.5120636588880949E-02 a       616     0    26     1    16
 -9.5073539926795791E-02 a       617     0    26     1    17
 -9.2901876240231801E-02 a       618     0    26     1    18
 -7.2738698259494583E-02 a       619     0    26     1    19
 -6.1206421772912051E-02 a       620     0    26     1    20
  1.3303223424200808E-01 a       621     0    26     1    21
  1.0365343942271957E-01 a       622     0    26     1    22
 -1.8050265895628238E-02 a       623     0    26     1    23
  5.4758306266724566E-02 a       624     0    26     1    24
 -1.1366054686674315E-01 a       625     0    27     1     1
 -6.9682074125722776E-02 a       626     0    27     1     2
  7.7394393540109324E-02 a       627     0    27     1     3
 -2.7849584750228546E-02 a       628     0    27     1     4
  1.1518527394927509E-01 a       629     0    27     1     5
 -6.3816754847675905E-02 a       630     0    27     1     6
  3.7824831146083836E-02 a       631     0    27     1     7
 -4.8474734711672456E-03 a       632     0    27     1     8
 -5.1300533618253749E-02 a       633     0    27     1     9
  1.1719889748872840E-01 a       634     0    27     1    10
 -5.1113902607900413E-02 a       635     0    27     1    11
  2.0454192875003574E-03 a       636     0    27     1    12
 -3.2777920167228196E-03 a       637     0    27     1    13
 -1.7995547383676352E-02 a       638     0    27     1    14
 -3.8663526725952538E-02 a       639     0    27     1    15
 -1.3037900653157072E-02 a       640     0    27     1    16
 -2.0974212100490341E-03 a       641     0    27     1    17
  1.3526878418099172E-01 a       642     0    27     1    18
 -9.5300824811108825E-02 a       643     0    27     1    19
  1.2025356561101978E-01 a       644     0    27     1    20
  4.1009442047047567E-02 a       645     0    27     1    21
 -7.5598872618854993E-02 a       646     0    27     1    22
 -7.6368260943550870E-02 a       647     0    27     1    23
 -7.9086693509562128E-02 a       648     0    27     1    24
 -1.1659357937339122E-01 a       649     0    28     1     1
 -1.6324482464361852E-02 a       650     0    28     1     2
 -3.2664831524234428E-01 a       651     0    28     1     3
 -8.9877053407094676E-02 a       652     0    28     1     4
  1.5654300069280097E-01 a       653     0    28     1     5
 -2.2330284515724488E-01 a       654     0    28     1     6
  7.2559800169821873E-02 a       655     0    28     1     7
 -6.3292439422392696E-02 a       656     0    28     1     8
  2.7634203725283437E-02 a       657     0    28     1     9
 -7.5307756185344479E-02 a       658     0    28     1    10
 -1.8657200065383547E-01 a       659     0    28     1    11
  2.4478274022607172E-01 a       660     0    28     1    12
 -3.3298147810711054E-02 a       661     0    28     1    13
 -1.8692056453347549E-02 a       662     0    28     1    14
 -2.4391075753490946E-01 a       663     0    28     1    15
 -2.6526247429933487E-02 a       664     0    28     1    16
  1.7731238237641603E-01 a       665     0    28     1    17
  2.0389229043799001E-02 a       666     0    28     1    18
  1.3978391382642399E-01 a       667     0    28     1    19
 -1.0665767372096732E-01 a       668     0    28     1    20
  1.1155439322105286E-01 a       669     0    28     1    21
 -1.3833113354369919E-01 a       670     0    28     1    22
  1.3337540774609152E-01 a       671     0    28     1    23
 -1.3953769870549657E-01 a       672     0    28     1    24
  6.5191331727801394E-01 a       673     0    29     1     1
  2.9115296371218669E-01 a       674     0    29     1     2
 -1.9259468054596032E-01 a       675     0    29     1     3
  2.5036736068631371E-01 a       676     0    29     1     4
 -3.6282072702475776E-01 a       677     0    29     1     5
  8.8110563352995663E-02 a       678     0    29     1     6
 -5.9170783756821603E-02 a       679     0    29     1     7
 -6.6356951262237437E-02 a       680     0    29     1     8
 -2.2188702823977774E-01 a       681     0    29     1     9
 -6.7697376281980215E-01 a       682     0    29     1    10
  2.8996016901267302E-01 a       683     0    29     1    11
 -1.2355375264181947E-02 a       684     0    29     1    12
  2.8241493706695081E-01 a       685     0    29     1    13
  6.3306102934525738E-02 a       686     0    29     1    14
  7.5307697262776127E-02 a       687     0    29     1    15
 -1.2744993639786228E-01 a       688     0    29     1    16
  1.6827610455085104E-01 a       689     0    29     1    17
 -3.0996479364079771E-01 a       690     0    29     1    18
  2.5939886934104084E-01 a       691     0    29     1    19
 -2.2543186966481032E-01 a       692     0    29     1    20
  6.0533604842634571E-02 a       693     0    29     1    21
  2.2949690685231214E-01 a       694     0    29     1    22
  2.5929257880789147E-01 a       695     0    29     1    23
  3.1205205028416910E-01 a       696     0    29     1    24
  8.9229348554342641E-02 a       697     0    30     1     1
  1.9572106912434631E-01 a       698     0    30     1     2
  3.0507084188546874E-01 a       699     0    30     1     3
 -9.6883570362003377E-03 a       700     0    30     1     4
 -2.3468468205931889E-01 a       701     0    30     1     5
  3.5705673011127603E-01 a       702     0    30     1     6
 -1.3437513792361727E-01 a       703     0    30     1     7
 -4.4320106831572048E-01 a       704     0    30     1     8
  8.6507974557931855E-02 a       705     0    30     1     9
 -3.6874867852640314E-01 a       706     0    30     1    10
  9.4507810144876053E-02 a       707     0    30     1    11
  1.1875965791528244E-01 a       708     0    30     1    12
  2.6441352313381822E-01 a       709     0    30     1    13
  1.0724176179387511E-01 a       710     0    30     1    14
  2.8617622971901457E-01 a       711     0    30     1    15
 -1.0474789453993273E-01 a       712     0    30     1    16
 -2.0341697847206586E-01 a       713     0    30     1    17
 -9.2294295467504436E-02 a       714     0    30     1    18
 -3.5560570967316624E-01 a       715     0    30     1    19
  3.3206724693365242E-01 a       716     0    30     1    20
 -1.6477572215957453E-01 a       717     0    30     1    21
  1.6499112861969648E-01 a       718     0    30     1    22
 -6.7306039039208024E-02 a       719     0    30     1    23
 -1.9084934509040899E-01 a       720     0    30     1    24
  2.9932853528225646E-02 a       721     0    31     1     1
  7.4945336267448051E-02 a       722     0    31     1     2
 -3.7017767233354697E-02 a       723     0    31     1     3
  2.3135506490557453E-01 a       724     0    31     1     4
 -1.7173909947730805E-02 a       725     0    31     1     5
  2.0180609604183913E-02 a       726     0    31     1     6
 -2.0647380815405442E-01 a       727     0    31     1     7
  5.0596587733507159E-01 a       728     0    31     1     8
  4.2592051359462607E-01 a       729     0    31     1     9
 -5.4657559109802634E-02 a       730     0    31     1    10
  2.3765311927697753E-02 a       731     0    31     1    11
  3.6028528623626439E-02 a       732     0    31     1    12
  2.6751222539489465E-02 a       733     0    31     1    13
 -3.0783282315559363E-01 a       734     0    31     1    14
  2.5493400087284422E-02 a       735     0    31     1    15
 -4.4883132255018263E-02 a       736     0    31     1    16
  4.2810431474387921E-02 a       737     0    31     1    17
  1.7370425998439923E-01 a       738     0    31     1    18
  1.7766583895143859E-01 a       739     0    31     1    19
 -3.4449521729489929E-01 a       740     0    31     1    20
  2.3690571908106248E-01 a       741     0    31     1    21
  3.4734420692153031E-02 a       742     0    31     1    22
  1.8304008492860993E-01 a       743     0    31     1    23
 -6.7186386877789731E-02 a       744     0    31     1    24
  1.3388776995847473E-01 a       745     0    32     1     1
  1.7998894318334593E-01 a       746     0    32     1     2
  9.4631693148567606E-02 a       747     0    32     1     3
  3.1909214804612601E-01 a       748     0    32     1     4
 -1.5452472145436263E-01 a       749     0    32     1     5
 -3.5615128128750068E-01 a       750     0    32     1     6
 -1.1919368646331180E-01 a       751     0    32     1     7
 -3.1049620272206698E-02 a       752     0    32     1     8
  1.6772194236793075E-01 a       753     0    32     1     9
 -7.3326397944532218E-02 a       754     0    32     1    10
  1.7867146688054356E-01 a       755     0    32     1    11
 -3.7853748231344703E-01 a       756     0    32     1    12
 -2.1392165582900102E-01 a       757     0    32     1    13
  4.8437716939051023E-02 a       758     0    32     1    14
  3.1432047257503243E-01 a       759     0    32     1    15
 -1.6363533369100441E-01 a       760     0    32     1    16
 -3.6018263306805476E-01 a       761     0    32     1    17
  9.2624884847500713E-02 a       762     0    32     1    18
  6.2363197473364704E-02 a       763     0    32     1    19
 -4.0402347459945936E-01 a       764     0    32     1    20
 -4.3893401576449281E-01 a       765     0    32     1    21
  1.3374617393762725E-01 a       766     0    32     1    22
 -8.6468516839396145E-02 a       767     0    32     1    23
 -2.1702930076362897E-01 a       768     0    32     1    24
 -2.2486594515484395E-01 a       769     0    33     1     1
 -6.5899568326503499E-01 a       770     0    33     1     2
 -1.5054564404320173E-01 a       771     0    33     1     3
 -2.1251559271932413E-01 a       772     0    33     1     4
 -3.3380739896918815E-01 a       773     0    33     1     5
 -4.3153681946567080E-01 a       774     0    33     1     6
  3.0244721995055918E-02 a       775     0    33     1     7
  2.9093763082875253E-02 a       776     0    33     1     8
  6.4804453013676364E-02 a       777     0    33     1     9
  1.8162788521458650E-02 a       778     0    33     1    10
 -2.2964010717618247E-01 a       779     0    33     1    11
 -3.6601136987521737E-01 a       780     0    33     1    12
 -4.5790187555812628E-01 a       781     0    33     1    13
 -3.1701546036215161E-01 a       782     0    33     1    14
  2.6185702578637077E-02 a       783     0    33     1    15
 -2.2762758235679473E-01 a       784     0    33     1    16
  4.1989340418689891E-01 a       785     0    33     1    17
 -9.8158535448356801E-02 a       786     0    33     1    18
  1.2947313214335973E-01 a       787     0    33     1    19
  2.6229795753511453E-01 a       788     0    33     1    20
  1.8529081556598970E-01 a       789     0    33     1    21
  1.9136598118934248E-01 a       790     0    33     1    22
 -1.3457726824400154E-01 a       791     0    33     1    23
  2.4171786383501839E-01 a       792     0    33     1    24
  2.4255068877516429E-02 a       793     0    34     1     1
  3.9067887626859682E-01 a       794     0    34     1     2
  2.3143406569157671E-01 a       795     0    34     1     3
 -2.6771521591421676E-01 a       796     0    34     1     4
 -4.6120480660983225E-02 a       797     0    34     1     5
 -2.0346112259233351E-01 a       798     0    34     1     6
 -3.9356829917579012E-01 a       799     0    34     1     7
 -3.3903596239934602E-01 a       800     0    34     1     8
 -7.4042334904644058E-01 a       801     0    34     1     9
  4.8661738430915802E-01 a       802     0    34     1    10
 -7.3507922299287431E-02 a       803     0    34     1    11
  2.0613349183151147E-01 a       804     0    34     1    12
 -2.5398220678216944E-02 a       805     0    34     1    13
  2.8415059986787822E-01 a       806     0    34     1    14
 -2.9387735551091354E-01 a       807     0    34     1    15
  3.7539536295466419E-01 a       808     0    34     1    16
  1.7211754315767266E-01 a       809     0    34     1    17
  2.3057628252216458E-01 a       810     0    34     1    18
 -4.4052824150712456E-04 a       811     0    34     1    19
  4.7914762320819293E-01 a       812     0    34     1    20
 -1.0413348459844632E-01 a       813     0    34     1    21
 -2.0258067941568461E-01 a       814     0    34     1    22
 -1.2665814184480493E-02 a       815     0    34     1    23
 -1.8793340906333322E-01 a       816     0    34     1    24
  5.5608953783814086E-01 a       817     0    35     1     1
  2.1242484880302051E-01 a       818     0    35     1     2
 -1.2755905058835173E+00 a       819     0    35     1     3
  5.9993866436341881E-01 a       820     0    35     1     4
 -1.2677273948263257E+00 a       821     0    35     1     5
  3.4160313588939278E-01 a       822     0    35     1     6
  2.0563776709925494E+00 a       823     0    35     1     7
  2.0123410804290742E-01 a       824     0    35     1     8
  1.0557826888733635E+00 a       825     0    35     1     9
 -3.6582059334695982E-01 a       826     0    35     1    10
  1.1360362848614826E-01 a       827     0    35     1    11
  5.0244202105635127E-01 a       828     0    35     1    12
 -8.4948489369350511E-02 a       829     0    35     1    13
 -1.1377108198440085E+00 a       830     0    35     1    14
  5.8398168416754648E-01 a       831     0    35     1    15
 -7.4627210904335883E-02 a       832     0    35     1    16
 -1.2979513701301755E+00 a       833     0    35     1    17
  2.7244704838165662E-01 a       834     0    35     1    18
 -3.1519353453042587E-01 a       835     0    35     1    19
  1.5981661216548144E+00 a       836     0    35     1    20
  9.3114028487291256E-01 a       837     0    35     1    21
 -8.4971924637850316E-01 a       838     0    35     1    22
  1.3446686117208911E-01 a       839     0    35     1    23
 -5.6219787596946358E-01 a       840     0    35     1    24
 -4.1382414527888173E-01 a       841     0    36     1     1
 -1.0129950050577854E+00 a       842     0    36     1     2
 -2.2103209302372000E+00 a       843     0    36     1     3
  1.0592580490137614E-01 a       844     0    36     1     4
 -1.9256996118766525E+00 a       845     0    36     1     5
 -3.6924725114986123E-01 a       846     0    36     1     6
  2.6163626918323573E+00 a       847     0    36     1     7
 -9.2129269022579718E-01 a       848     0    36     1     8
  2.5438175750428882E-01 a       849     0    36     1     9
 -1.0008379227055304E+00 a       850     0    36     1    10
 -2.2980286331311400E-01 a       851     0    36     1    11
  7.2252862895263059E-01 a       852     0    36     1    12
  6.2886258459077959E-01 a       853     0    36     1    13
 -8.2933332158709705E-01 a       854     0    36     1    14
  6.4710842158213977E-01 a       855     0    36     1    15
  3.6112231448172460E-01 a       856     0    36     1    16
 -1.2099491421822655E+00 a       857     0    36     1    17
  5.3820017721253144E-01 a       858     0    36     1    18
 -7.8457222973019058E-01 a       859     0    36     1    19
  2.0319407227862851E+00 a       860     0    36     1    20
 -4.3818468935744925E-02 a       861     0    36     1    21
  3.7914638370597714E-01 a       862     0    36     1    22
  1.1657195606964743E+00 a       863     0    36     1    23
 -4.5308906411887034E-01 a       864     0    36     1    24
  6.2697540483593717E-02 a       865     0    37     1     1
 -2.1387095490824182E-01 a       866     0    37     1     2
  1.7487333833815050E-01 a       867     0    37     1     3
 -3.8964458499373267E-01 a       868     0    37     1     4
 -4.0248901757575023E-01 a       869     0    37     1     5
 -3.6893649426667319E-01 a       870     0    37     1     6
  1.5337415109730651E-01 a       871     0    37     1     7
  3.7923673045053297E-01 a       872     0    37     1     8
 -3.5084342374746696E-01 a       873     0    37     1     9
 -1.4778478979159757E-01 a       874     0    37     1    10
  3.2750216300484414E-02 a       875     0    37     1    11
  3.4328084709027573E-01 a       876     0    37     1    12
  1.2000066907140349E-02 a       877     0    37     1    13
  4.6180548402074001E-01 a       878     0    37     1    14
 -3.0096921826653111E-01 a       879     0    37     1    15
  5.1613883265028682E-01 a       880     0    37     1    16
  2.2784427338419167E-02 a       881     0    37     1    17
 -1.1334749353542331E-01 a       882     0    37     1    18
 -3.1574037799092519E-01 a       883     0    37     1    19
 -4.9562636579715331E-02 a       884     0    37     1    20
 -3.7430303578276219E-01 a       885     0    37     1    21
  2.7360255998391131E-04 a       886     0    37     1    22
  1.1320564961682993E-01 a       887     0    37     1    23
 -1.6870049429531138E-02 a       888     0    37     1    24
 -8.8188212125583265E-01 a       889     0    38     1     1
  3.6007007049337675E-01 a       890     0    38     1     2
  7.0232278751779176E-01 a       891     0    38     1     3
 -1.2026348896995511E+00 a       892     0    38     1     4
 -1.6371304855291782E-01 a       893     0    38     1     5
  7.3436902717761576E-01 a       894     0    38     1     6
 -4.3017698981044089E-01 a       895     0    38     1     7
 -5.6441728137634073E-01 a       896     0    38     1     8
 -7.7890838735773626E-01 a       897     0    38     1     9
 -3.1125562605435104E-02 a       898     0    38     1    10
  5.7698948820981411E-01 a       899     0    38     1    11
 -4.6533810483980753E-01 a       900     0    38     1    12
  1.5446361257529859E+00 a       901     0    38     1    13
 -8.3075192981112800E-01 a       902     0    38     1    14
 -1.0380518024554384E+00 a       903     0    38     1    15
  1.2892177561515226E+00 a       904     0    38     1    16
 -2.3981458565288938E-01 a       905     0    38     1    17
 -4.8152314126590473E-01 a       906     0    38     1    18
  8.6220104782446738E-01 a       907     0    38     1    19
 -4.6997717646376952E-01 a       908     0    38     1    20
 -3.6026630910481056E-01 a       909     0    38     1    21
 -5.1658047134545505E-02 a       910     0    38     1    22
  1.1301181915977745E-01 a       911     0    38     1    23
  6.1340613952621492E-01 a       912     0    38     1    24
 -8.5821392851585868E-03 a       913     0    39     1     1
  6.1400542580291739E-01 a       914     0    39     1     2
  1.1566497392664448E+00 a       915     0    39     1     3
  4.8320743734849736E-01 a       916     0    39     1     4
  1.7426195395639494E+00 a       917     0    39     1     5
 -2.0432470310812609E-01 a       918     0    39     1     6
 -7.2205736440177193E-01 a       919     0    39     1     7
  1.0120914022824281E+00 a       920     0    39     1     8
 -1.3048735307780968E+00 a       921     0    39     1     9
  4.9843114300900704E-01 a       922     0    39     1    10
 -1.7976571269206942E-01 a       923     0    39     1    11
  3.6088211749573079E-01 a       924     0    39     1    12
  8.7172073406461847E-01 a       925     0    39     1    13
  1.2278598898912243E+00 a       926     0    39     1    14
  2.1377812010323703E-02 a       927     0    39     1    15
  1.0337163451544156E+00 a       928     0    39     1    16
 -3.3686740555229705E-01 a       929     0    39     1    17
 -4.4205401026921809E-01 a       930     0    39     1    18
  7.6177898550197587E-01 a       931     0    39     1    19
 -2.4208146513983184E+00 a       932     0    39     1    20
 -1.6199391110894439E+00 a       933     0    39     1    21
 -1.8584649872094168E+00 a       934     0    39     1    22
 -8.2792970232074503E-01 a       935     0    39     1    23
  2.3645665165316614E+00 a       936     0    39     1    24
 -4.4828838505344082E-02 a       937     0    40     1     1
  1.8777877628340389E-01 a       938     0    40     1     2
  1.5564167040303894E-02 a       939     0    40     1     3
  1.8771780981126485E-01 a       940     0    40     1     4
  8.8299268559958635E-02 a       941     0    40     1     5
  1.6350684334201490E-01 a       942     0    40     1     6
 -6.3189897856614913E-03 a       943     0    40     1     7
 -6.9934801291144610E-01 a       944     0    40     1     8
 -5.4468242698356051E-01 a       945     0    40     1     9
  4.2860137967158690E-01 a       946     0    40     1    10
  8.5338836440421895E-02 a       947     0    40     1    11
 -4.8882657615898606E-01 a       948     0    40     1    12
 -3.0838492487904462E-01 a       949     0    40     1    13
 -8.6925774116563703E-01 a       950     0    40     1    14
  1.4416252497942655E-01 a       951     0    40     1    15
  1.5406498937133979E-02 a       952     0    40     1    16
  1.7230115349702754E-01 a       953     0    40     1    17
  4.3090484720729166E-01 a       954     0    40     1    18
  5.5595115842254139E-01 a       955     0    40     1    19
  4.5811643868045115E-01 a       956     0    40     1    20
  7.3743400832196626E-01 a       957     0    40     1    21
  1.4870136592930383E-01 a       958     0    40     1    22
 -6.5875136038300433E-02 a       959     0    40     1    23
  4.3110159168855437E-03 a       960     0    40     1    24
  7.9603957289615357E-01 a       961     0    41     1     1
  1.1705159460297634E-01 a       962     0    41     1     2
  1.0378965164851468E+00 a       963     0    41     1     3
 -5.5788186145968444E-01 a       964     0    41     1     4
  1.2345143754543906E+00 a       965     0    41     1     5
 -6.0228876960675115E-01 a       966     0    41     1     6
 -2.7185197265964987E+00 a       967     0    41     1     7
 -1.6427202772180578E+00 a       968     0    41     1     8
 -8.1679655615886504E-01 a       969     0    41     1     9
 -8.5656071860100921E-02 a       970     0    41     1    10
 -1.1115009688218571E+00 a       971     0    41     1    11
  4.4245824141649559E-01 a       972     0    41     1    12
  8.6983422601501370E-01 a       973     0    41     1    13
  9.9815742734008550E-01 a       974     0    41     1    14
 -6.6225792787255156E-01 a       975     0    41     1    15
  3.9153214675961845E-01 a       976     0    41     1    16
 -3.7890877630836728E-01 a       977     0    41     1    17
 -7.2728397236522546E-01 a       978     0    41     1    18
 -8.6438472645737929E-01 a       979     0    41     1    19
  4.8595965388100160E-01 a       980     0    41     1    20
 -1.2104888768009927E+00 a       981     0    41     1    21
  1.3222045810764338E+00 a       982     0    41     1    22
 -5.5165096828770499E-01 a       983     0    41     1    23
  4.2049047428786646E-01 a       984     0    41     1    24
  2.5046787742094287E+00 a       985     0    42     1     1
  2.7342641825391625E+00 a       986     0    42     1     2
  1.1813759066677327E+00 a       987     0    42     1     3
 -2.2538614680008933E+00 a       988     0    42     1     4
  2.0831437697206439E+00 a       989     0    42     1     5
 -9.2205492105110295E-02 a       990     0    42     1     6
 -5.7507826618130875E-01 a       991     0    42     1     7
  1.3464128562727755E+00 a       992     0    42     1     8
 -1.9109523958788821E-01 a       993     0    42     1     9
  1.9601648891520738E+00 a       994     0    42     1    10
 -6.0267505236644958E-01 a       995     0    42     1    11
 -1.0936687650917725E+00 a       996     0    42     1    12
 -1.2634783585269385E+00 a       997     0    42     1    13
  8.0719902564266954E-01 a       998     0    42     1    14
 -1.9191638628212343E-01 a       999     0    42     1    15
 -2.7155522133979120E+00 a      1000     0    42     1    16
  2.2407696848668643E+00 a      1001     0    42     1    17
 -2.3491532667380643E+00 a      1002     0    42     1    18
  7.6297672587240195E-01 a      1003     0    42     1    19
 -2.8053774426035054E+00 a      1004     0    42     1    20
  9.3895173387342057E-01 a      1005     0    42     1    21
 -3.4518138241877447E+00 a      1006     0    42     1    22
 -1.3644154474612045E+00 a      1007     0    42     1    23
  1.0583202356271697E+00 a      1008     0    42     1    24
  3.2558898775860734E-01 a      1009     0    43     1     1
  6.7294690881279595E-01 a      1010     0    43     1     2
  2.4149548350182633E-02 a      1011     0    43     1     3
  3.0146116091690256E-01 a      1012     0    43     1     4
 -1.2053066960646175E-01 a      1013     0    43     1     5
  7.5794707852652229E-02 a      1014     0    43     1     6
  1.5107945416910873E-01 a      1015     0    43     1     7
  3.7766242574604141E-02 a      1016     0    43     1     8
 -2.1067155153824468E-01 a      1017     0    43     1     9
 -5.7920469684820397E-02 a      1018     0    43     1    10
  3.3788616975285179E-01 a      1019     0    43     1    11
 -7.2615098381337395E-02 a      1020     0    43     1    12
  6.3124492029408508E-01 a      1021     0    43     1    13
 -2.6104265411676764E-01 a      1022     0    43     1    14
  2.8053240387584816E-01 a      1023     0    43     1    15
  2.4978665872889763E-01 a      1024     0    43     1    16
 -4.3762040163596949E-01 a      1025     0    43     1    17
  3.3546436493941467E-01 a      1026     0    43     1    18
 -2.4550908783501243E-02 a      1027     0    43     1    19
  3.1153671121157883E-01 a      1028     0    43     1    20
 -2.4133302381550234E-01 a      1029     0    43     1    21
 -5.6340542269259941E-02 a      1030     0    43     1    22
 -5.4190996283606907E-01 a      1031     0    43     1    23
  9.1943927001170350E-02 a      1032     0    43     1    24
 -1.2322788073164813E-01 a      1033     0    44     1     1
  5.1279562549379147E-02 a      1034     0    44     1     2
 -2.2271274943382532E-01 a      1035     0    44     1     3
 -1.8138196132898382E-01 a      1036     0    44     1     4
 -3.7494185074461006E-01 a      1037     0    44     1     5
 -1.9178564143495744E-01 a      1038     0    44     1     6
  5.2438500423678924E-01 a      1039     0    44     1     7
  2.2809226091748869E-01 a      1040     0    44     1     8
 -4.0975221455892746E-01 a      1041     0    44     1     9
  1.0234663811492934E+00 a      1042     0    44     1    10
 -2.5050726513835986E-01 a      1043     0    44     1    11
  1.1040549852548602E-01 a      1044     0    44     1    12
 -4.1174123988652098E-02 a      1045     0    44     1    13
 -2.0097052404914645E-01 a      1046     0    44     1    14
 -4.1500513073047068E-01 a      1047     0    44     1    15
 -1.0244132976883312E-01 a      1048     0    44     1    16
  2.2144672736517038E-01 a      1049     0    44     1    17
  1.6806071009985502E-01 a      1050     0    44     1    18
 -2.2047751213227934E-01 a      1051     0    44     1    19
 -1.3126903131947278E+00 a      1052     0    44     1    20
 -2.0857713020845151E-01 a      1053     0    44     1    21
 -4.6560767199365433E-01 a      1054     0    44     1    22
 -7.1477293774274836E-02 a      1055     0    44     1    23
  2.7637366107576895E-02 a      1056     0    44     1    24
  8.6153657546571272E-01 a      1057     0    45     1     1
 -1.6996837094339870E-01 a      1058     0    45     1     2
  4.7237729256478567E-01 a      1059     0    45     1     3
  6.5230247457690571E-02 a      1060     0    45     1     4
  4.7537373623670243E-01 a      1061     0    45     1     5
  5.7210761205222804E-01 a      1062     0    45     1     6
 -5.2867537472496295E-01 a      1063     0    45     1     7
  6.9652795648770049E-01 a      1064     0    45     1     8
  2.6821775461784281E-01 a      1065     0    45     1     9
  5.7764643580598407E-01 a      1066     0    45     1    10
  4.9046422787225957E-01 a      1067     0    45     1    11
 -3.2032525995401867E-01 a      1068     0    45     1    12
  3.0852355527983039E-01 a      1069     0    45     1    13
  6.5749533496091783E-01 a      1070     0    45     1    14
 -9.5251165875101096E-01 a      1071     0    45     1    15
 -4.2725520439495630E-02 a      1072     0    45     1    16
  1.4026439367681578E+00 a      1073     0    45     1    17
 -5.1707269841058223E-01 a      1074     0    45     1    18
  8.7536807830673569E-01 a      1075     0    45     1    19
 -8.1744802307080089E-01 a      1076     0    45     1    20
 -2.3909170005985522E-01 a      1077     0    45     1    21
 -1.0080486527705250E+00 a      1078     0    45     1    22
 -5.5400536890959040E-01 a      1079     0    45     1    23
 -2.0079963233751760E-02 a      1080     0    45     1    24
  3.6046117409479622E-01 a      1081     0    46     1     1
 -2.8484330060843666E-01 a      1082     0    46     1     2
  1.3665688521284974E-01 a      1083     0    46     1     3
  4.4508381491651802E-02 a      1084     0    46     1     4
 -2.0283827872556850E-01 a      1085     0    46     1     5
 -2.8505368888084348E-01 a      1086     0    46     1     6
  2.9048176355456484E-01 a      1087     0    46     1     7
  5.7056525197450492E-01 a      1088     0    46     1     8
  1.0789910403649867E-01 a      1089     0    46     1     9
 -2.8184879519161854E-01 a      1090     0    46     1    10
 -3.7593690843869426E-01 a      1091     0    46     1    11
  2.3166578226249676E-01 a      1092     0    46     1    12
 -8.8933964828033334E-03 a      1093     0    46     1    13
 -2.1275994352366950E-01 a      1094     0    46     1    14
  2.2785462445377233E-01 a      1095     0    46     1    15
  1.3561780801145010E-01 a      1096     0    46     1    16
  4.1041274467586064E-01 a      1097     0    46     1    17
 -3.0121790713090091E-01 a      1098     0    46     1    18
 -9.5198062347768370E-02 a      1099     0    46     1    19
 -6.0776634869567436E-01 a      1100     0    46     1    20
 -5.6318172100669625E-02 a      1101     0    46     1    21
  6.4786407965605974E-02 a      1102     0    46     1    22
 -3.2753369501280832E-01 a      1103     0    46     1    23
 -1.7577714871405239E-01 a      1104     0    46     1    24
  5.7227283391776629E-01 a      1105     0    47     1     1
  1.1330885797341698E-01 a      1106     0    47     1     2
 -3.5219575261743336E-01 a      1107     0    47     1     3
  2.9032981071797426E-01 a      1108     0    47     1     4
 -2.2398482097046751E-01 a      1109     0    47     1     5
  6.5845386179877952E-02 a      1110     0    47     1     6
  4.5129033260708579E-01 a      1111     0    47     1     7
  1.6084974803739585E-01 a      1112     0    47     1     8
 -1.7765258988423788E-01 a      1113     0    47     1     9
 -5.0073159213667440E-01 a      1114     0    47     1    10
  8.3968507749997465E-02 a      1115     0    47     1    11
 -1.0431917423139478E+00 a      1116     0    47     1    12
 -2.7587937295954723E-01 a      1117     0    47     1    13
  1.1008304815487982E-01 a      1118     0    47     1    14
  1.5124829843461252E-01 a      1119     0    47     1    15
 -4.9130587264600657E-02 a      1120     0    47     1    16
  7.2828618048120852E-01 a      1121     0    47     1    17
 -4.9555774546749254E-01 a      1122     0    47     1    18
  1.2857393646969815E+00 a      1123     0    47     1    19
  3.1911608613841919E-01 a      1124     0    47     1    20
 -3.7010803920440583E-01 a      1125     0    47     1    21
 -2.2981945190460737E-01 a      1126     0    47     1    22
  3.7329114780286826E-01 a      1127     0    47     1    23
  6.0832912957362051E-01 a      1128     0    47     1    24
 -2.8094943321647863E+00 a      1129     0    48     1     1
 -1.6347874385156622E-01 a      1130     0    48     1     2
 -1.7284465944518437E+00 a      1131     0    48     1     3
  2.9240618014504016E+00 a      1132     0    48     1     4
 -1.0990440389420368E+00 a      1133     0    48     1     5
  1.0971541249222534E+00 a      1134     0    48     1     6
  3.7367017492628087E+00 a      1135     0    48     1     7
 -2.3754712377550056E+00 a      1136     0    48     1     8
 -6.7567252893510488E-01 a      1137     0    48     1     9
  1.2331351665797516E+00 a      1138     0    48     1    10
  1.7514300902635616E+00 a      1139     0    48     1    11
 -6.1390160293841567E-01 a      1140     0    48     1    12
  2.0666565990102784E-01 a      1141     0    48     1    13
 -1.5277161843236526E+00 a      1142     0    48     1    14
  1.0047053360033154E+00 a      1143     0    48     1    15
  5.0403137445736679E-01 a      1144     0    48     1    16
 -9.3191204298242569E-01 a      1145     0    48     1    17
  1.1897012524078234E+00 a      1146     0    48     1    18
  1.8614558765440652E+00 a      1147     0    48     1    19
 -8.0270202564633764E-01 a      1148     0    48     1    20
  4.2437491095489055E-01 a      1149     0    48     1    21
  9.5493942750836669E-01 a      1150     0    48     1    22
  1.3780217195116637E+00 a      1151     0    48     1    23
  6.6934684740775552E-01 a      1152     0    48     1    24
  4.9549909050343893E-01 a      1153     0    49     1     1
  5.7845541789220822E-01 a      1154     0    49     1     2
  5.5464392930105355E-01 a      1155     0    49     1     3
  1.3190220089070825E-01 a      1156     0    49     1     4
  1.1415016130603641E+00 a      1157     0    49     1     5
 -7.4991240329429359E-02 a      1158     0    49     1     6
 -6.6144466819919456E-01 a      1159     0    49     1     7
  1.2094470298461472E-01 a      1160     0    49     1     8
  2.0688671493739988E-01 a      1161     0    49     1     9
  3.2098318757794098E-01 a      1162     0    49     1    10
  2.5731690780764999E-01 a      1163     0    49     1    11
  4.8554684211692217E-01 a      1164     0    49     1    12
 -6.6599054762788124E-01 a      1165     0    49     1    13
  3.5256564968911785E-01 a      1166     0    49     1    14
 -2.9608051227144788E-01 a      1167     0    49     1    15
 -3.7473764810808663E-01 a      1168     0    49     1    16
  6.0946327768282882E-01 a      1169     0    49     1    17
  4.1190251202374649E-02 a      1170     0    49     1    18
  1.0901460281474733E-01 a      1171     0    49     1    19
 -5.6709927870801746E-01 a      1172     0    49     1    20
  7.7361143469373528E-01 a      1173     0    49     1    21
 -5.1940288068075224E-01 a      1174     0    49     1    22
 -3.3347434655103647E-02 a      1175     0    49     1    23
  9.9808980106520978E-02 a      1176     0    49     1    24
  7.1114534153627607E-01 a      1177     0    50     1     1
  1.0673980937947165E+00 a      1178     0    50     1     2
  1.0557327023274177E+00 a      1179     0    50     1     3
 -3.8650193114593984E-01 a      1180     0    50     1     4
  1.4217934912453987E+00 a      1181     0    50     1     5
 -4.5510121862066033E-01 a      1182     0    50     1     6
 -2.0221741712094419E+00 a      1183     0    50     1     7
 -3.9827150163839009E-01 a      1184     0    50     1     8
 -4.6029439608025180E-01 a      1185     0    50     1     9
 -2.6697822225318540E-01 a      1186     0    50     1    10
 -4.9601578228522658E-01 a      1187     0    50     1    11
  3.8282928896658318E-02 a      1188     0    50     1    12
 -2.4893007740747033E-01 a      1189     0    50     1    13
  7.1624257092575161E-01 a      1190     0    50     1    14
 -7.5498077132654429E-01 a      1191     0    50     1    15
 -8.4039269301335140E-01 a      1192     0    50     1    16
  1.1459369698301352E+00 a      1193     0    50     1    17
 -9.6111973896529834E-01 a      1194     0    50     1    18
  8.4837224528247893E-02 a      1195     0    50     1    19
 -6.6377798851537961E-01 a      1196     0    50     1    20
  1.4734161996595263E-01 a      1197     0    50     1    21
 -1.5696548987628184E-01 a      1198     0    50     1    22
 -4.3809206232641945E-01 a      1199     0    50     1    23
  1.2628007236543060E-01 a      1200     0    50     1    24
  3.3085769625694544E-01 a      1201     0    51     1     1
  6.4642997474447250E-01 a      1202     0    51     1     2
 -3.6288466094296590E-01 a      1203     0    51     1     3
 -2.8823588172801617E-01 a      1204     0    51     1     4
  2.7997976613461795E-01 a      1205     0    51     1     5
  1.2010096064316800E-02 a      1206     0    51     1     6
 -3.5717949899700524E-01 a      1207     0    51     1     7
 -2.0612559364609290E-01 a      1208     0    51     1     8
 -2.9396193007342691E-01 a      1209     0    51     1     9
 -3.0729201093048553E-01 a      1210     0    51     1    10
 -1.5966176737379478E-01 a      1211     0    51     1    11
  1.9676751644463186E-01 a      1212     0    51     1    12
 -1.5331670537765521E-01 a      1213     0    51     1    13
  6.1931692535773943E-02 a      1214     0    51     1    14
  1.6766957661845824E-01 a      1215     0    51     1    15
 -3.8803843558615542E-01 a      1216     0    51     1    16
  7.2335022715681277E-02 a      1217     0    51     1    17
  9.6561116003662975E-02 a      1218     0    51     1    18
  1.7977815610783690E-01 a      1219     0    51     1    19
  2.5446817188797521E-01 a      1220     0    51     1    20
  1.5544376763024323E-02 a      1221     0    51     1    21
  1.1697319557299467E-01 a      1222     0    51     1    22
 -2.1694486861595669E-01 a      1223     0    51     1    23
 -7.4312015437036305E-02 a      1224     0    51     1    24
 -3.0421075201168046E-01 a      1225     0    52     1     1
 -1.2779114854190460E-01 a      1226     0    52     1     2
 -2.0129918365413277E-01 a      1227     0    52     1     3
  2.6986427643390964E-01 a      1228     0    52     1     4
  3.0935164926755670E-02 a      1229     0    52     1     5
 -2.5739701048766972E-01 a      1230     0    52     1     6
  5.1479221652449703E-01 a      1231     0    52     1     7
 -1.3383120633860388E-01 a      1232     0    52     1     8
  2.0508222120210773E-01 a      1233     0    52     1     9
  1.5230622698264923E-01 a      1234     0    52     1    10
  9.1487498219140179E-02 a      1235     0    52     1    11
  5.6883910242660402E-02 a      1236     0    52     1    12
 -3.6520408352535377E-01 a      1237     0    52     1    13
  2.5890738275021624E-01 a      1238     0    52     1    14
  2.2276808620626459E-01 a      1239     0    52     1    15
 -2.8281438955814392E-01 a      1240     0    52     1    16
  6.2340172054642047E-02 a      1241     0    52     1    17
 -9.9411480669706356E-02 a      1242     0    52     1    18
  1.5892943273639715E-01 a      1243     0    52     1    19
 -2.2432692857014871E-01 a      1244     0    52     1    20
 -1.3936710780090836E-01 a      1245     0    52     1    21
  1.4477970895041700E-01 a      1246     0    52     1    22
  4.3979035793467847E-02 a      1247     0    52     1    23
  3.5180400901912845E-01 a      1248     0    52     1    24
 -8.7742847338901017E-02 a      1249     0    53     1     1
  6.2767333479542831E-01 a      1250     0    53     1     2
  6.6077203145347074E-01 a      1251     0    53     1     3
 -2.7887225792590947E-01 a      1252     0    53     1     4
  3.6750213593317183E-01 a      1253     0    53     1     5
 -1.0128799782937235E-02 a      1254     0    53     1     6
 -8.2570423121090486E-01 a      1255     0    53     1     7
  8.1570776645397969E-01 a      1256     0    53     1     8
 -3.1234035116486125E-01 a      1257     0    53     1     9
  3.1341583677406681E-01 a      1258     0    53     1    10
 -4.6586266295931095E-01 a      1259     0    53     1    11
  6.2746771620248132E-01 a      1260     0    53     1    12
 -2.1575841679006249E-02 a      1261     0    53     1    13
  3.8894266438532199E-01 a      1262     0    53     1    14
  1.7706403347608340E-01 a      1263     0    53     1    15
  2.3018670026958640E-01 a      1264     0    53     1    16
  1.6060998039309521E-02 a      1265     0    53     1    17
 -2.4612649622845778E-01 a      1266     0    53     1    18
 -2.3209308613302360E-01 a      1267     0    53     1    19
 -3.3623952167606308E-01 a      1268     0    53     1    20
 -2.7279079129931627E-01 a      1269     0    53     1    21
 -1.0246987038321204E-01 a      1270     0    53     1    22
 -5.6742435416130843E-01 a      1271     0    53     1    23
 -1.2638028157475903E-01 a      1272     0    53     1    24
 -4.5755711229047591E-01 a      1273     0    54     1     1
 -4.9777938948824313E-01 a      1274     0    54     1     2
 -9.1526625271066886E-01 a      1275     0    54     1     3
  3.5300999523476478E-01 a      1276     0    54     1     4
 -1.0732886220125617E+00 a      1277     0    54     1     5
 -1.6661087071524472E-03 a      1278     0    54     1     6
  1.5605002400324497E+00 a      1279     0    54     1     7
  1.9812068863231797E-01 a      1280     0    54     1     8
  8.0330286595976363E-01 a      1281     0    54     1     9
  4.7157351558862337E-01 a      1282     0    54     1    10
  1.6759004063344310E-01 a      1283     0    54     1    11
 -1.6708707889533797E-02 a      1284     0    54     1    12
 -1.0027917785676512E-02 a      1285     0    54     1    13
 -4.4581822254488018E-01 a      1286     0    54     1    14
  1.4323237280995582E-01 a      1287     0    54     1    15
  3.5046860516536565E-01 a      1288     0    54     1    16
 -3.5775816968643859E-01 a      1289     0    54     1    17
  9.2006194564963995E-01 a      1290     0    54     1    18
 -8.1871031715663511E-01 a      1291     0    54     1    19
 -2.1307120103235941E-01 a      1292     0    54     1    20
 -2.0119143660897318E-01 a      1293     0    54     1    21
 -9.4269828609642919E-02 a      1294     0    54     1    22
  7.0390902465180394E-01 a      1295     0    54     1    23
 -1.4716595877697763E-01 a      1296     0    54     1    24
 -1.6790262056163250E+00 a      1297     0    55     1     1
 -3.3575060867087134E+00 a      1298     0    55     1     2
 -2.1374023352979759E+00 a      1299     0    55     1     3
  1.4929078467306593E+00 a      1300     0    55     1     4
 -3.0795063366258009E+00 a      1301     0    55     1     5
  6.5972381030254490E-01 a      1302     0    55     1     6
  3.1458321722286451E+00 a      1303     0    55     1     7
  3.3092711146550757E-01 a      1304     0    55     1     8
  1.3225096429794099E+00 a      1305     0    55     1     9
 -1.8921299334181880E+00 a      1306     0    55     1    10
  7.6342129019793226E-01 a      1307     0    55     1    11
  9.0013169719395769E-01 a      1308     0    55     1    12
  1.3424890955773878E+00 a      1309     0    55     1    13
 -8.5550005362744719E-01 a      1310     0    55     1    14
  5.4913972036472622E-02 a      1311     0    55     1    15
  1.9316440723319221E+00 a      1312     0    55     1    16
 -6.1954852379535630E-01 a      1313     0    55     1    17
  2.8194283478157360E+00 a      1314     0    55     1    18
  3.2485421181417118E-01 a      1315     0    55     1    19
  1.7296029572476872E+00 a      1316     0    55     1    20
 -6.1103681853239424E-02 a      1317     0    55     1    21
  3.2591485696417704E+00 a      1318     0    55     1    22
  2.1897146539537244E+00 a      1319     0    55     1    23
 -5.8704570398932698E-01 a      1320     0    55     1    24
  2.5808791106829948E-01 a      1321     0    56     1     1
  1.2588965158800725E-01 a      1322     0    56     1     2
 -9.7171106454385800E-02 a      1323     0    56     1     3
 -1.9587075726699416E-01 a      1324     0    56     1     4
  2.7611361902920795E-01 a      1325     0    56     1     5
 -5.4036498952388809E-02 a      1326     0    56     1     6
 -1.5717241395156284E-01 a      1327     0    56     1     7
 -1.8781128602143088E-01 a      1328     0    56     1     8
  1.5831555416282836E-01 a      1329     0    56     1     9
  1.0445056315462969E-01 a      1330     0    56     1    10
  1.9657121918008499E-01 a      1331     0    56     1    11
 -2.3329049891287842E-01 a      1332     0    56     1    12
 -2.4763854347921890E-01 a      1333     0    56     1    13
  1.6128836046655515E-01 a      1334     0    56     1    14
  1.5483511588606574E-01 a      1335     0    56     1    15
 -1.8595685123746236E-01 a      1336     0    56     1    16
  1.4011314522657418E-02 a      1337     0    56     1    17
 -4.3914126287885442E-02 a      1338     0    56     1    18
 -1.3899674974735476E-01 a      1339     0    56     1    19
  1.7949268254985465E-01 a      1340     0    56     1    20
 -4.0251028528495367E-03 a      1341     0    56     1    21
  9.5945880179728049E-02 a      1342     0    56     1    22
 -3.6300035656900226E-01 a      1343     0    56     1    23
 -1.8563822778315055E-02 a      1344     0    56     1    24
 -2.4849820043033483E-01 a      1345     0    57     1     1
 -1.0617614959509235E-01 a      1346     0    57     1     2
 -2.0975467399536107E-01 a      1347     0    57     1     3
  2.9219311404098652E-01 a      1348     0    57     1     4
  3.0733306880203558E-02 a      1349     0    57     1     5
  2.5254618441733162E-01 a      1350     0    57     1     6
 -2.4827644503333232E-01 a      1351     0    57     1     7
 -1.7653518586659628E-01 a      1352     0    57     1     8
 -9.6513373401628175E-02 a      1353     0    57     1     9
 -8.4458410353657504E-02 a      1354     0    57     1    10
 -6.1344733914839786E-03 a      1355     0    57     1    11
  2.8144950929130613E-01 a      1356     0    57     1    12
 -8.3166156107924855E-02 a      1357     0    57     1    13
  9.8703830325397434E-03 a      1358     0    57     1    14
  9.4343483020791430E-02 a      1359     0    57     1    15
 -1.2486099787950027E-01 a      1360     0    57     1    16
 -1.4710376829846364E-01 a      1361     0    57     1    17
  7.9421571795253790E-02 a      1362     0    57     1    18
 -1.6348648056676424E-01 a      1363     0    57     1    19
  7.1430641374407122E-01 a      1364     0    57     1    20
  1.6094065383324035E-01 a      1365     0    57     1    21
  3.3315573678202970E-01 a      1366     0    57     1    22
 -1.5099179999514459E-01 a      1367     0    57     1    23
 -1.0971969663103938E-01 a      1368     0    57     1    24
  1.7578365149210631E-01 a      1369     0    58     1     1
 -6.9044083563516612E-01 a      1370     0    58     1     2
 -1.2111081866279387E+00 a      1371     0    58     1     3
  9.0211351477463175E-01 a      1372     0    58     1     4
 -9.5285184541318024E-01 a      1373     0    58     1     5
  3.4985086482518990E-01 a      1374     0    58     1     6
  1.5636668578918202E+00 a      1375     0    58     1     7
 -1.7170787932639486E+00 a      1376     0    58     1     8
  7.0715539936344385E-02 a      1377     0    58     1     9
 -8.2958747322856929E-01 a      1378     0    58     1    10
  6.5000519735159565E-02 a      1379     0    58     1    11
  1.4300176244947119E-01 a      1380     0    58     1    12
  3.9432461879301189E-01 a      1381     0    58     1    13
 -1.0444995256882872E+00 a      1382     0    58     1    14
  5.7750966919637914E-01 a      1383     0    58     1    15
  2.1197953345734272E-01 a      1384     0    58     1    16
 -1.1590882627302930E+00 a      1385     0    58     1    17
  4.9536710006980728E-01 a      1386     0    58     1    18
 -3.0023666137019794E-01 a      1387     0    58     1    19
  2.0233477573605332E+00 a      1388     0    58     1    20
  1.9535478678588034E-01 a      1389     0    58     1    21
  1.5961222159281230E+00 a      1390     0    58     1    22
  6.7833704869250755E-01 a      1391     0    58     1    23
 -9.6347182614668347E-01 a      1392     0    58     1    24
 -2.6600577335044900E-01 a      1393     0    59     1     1
 -3.8901039375192498E-01 a      1394     0    59     1     2
 -3.1857176937941900E-01 a      1395     0    59     1     3
  3.6455621305708630E-01 a      1396     0    59     1     4
 -7.2069284084877921E-02 a      1397     0    59     1     5
 -8.4113555768774176E-02 a      1398     0    59     1     6
 -1.1004865974260519E-01 a      1399     0    59     1     7
 -8.4443312630898520E-02 a      1400     0    59     1     8
 -1.8467368559999311E-01 a      1401     0    59     1     9
 -8.8247647580015645E-02 a      1402     0    59     1    10
  2.8429120581703970E-01 a      1403     0    59     1    11
 -1.5349366982443199E-01 a      1404     0    59     1    12
  1.4761441088253235E-01 a      1405     0    59     1    13
 -5.5089377971201399E-02 a      1406     0    59     1    14
  1.1809855893396927E-01 a      1407     0    59     1    15
  2.3138692466366495E-01 a      1408     0    59     1    16
 -4.3983824698181427E-02 a      1409     0    59     1    17
 -4.7720442964215382E-01 a      1410     0    59     1    18
 -8.6223043229498628E-02 a      1411     0    59     1    19
 -5.7387043835999546E-02 a      1412     0    59     1    20
 -3.7423811519463335E-01 a      1413     0    59     1    21
  7.0116549752596458E-02 a      1414     0    59     1    22
  4.5145609222305771E-01 a      1415     0    59     1    23
 -3.2830774544083743E-02 a      1416     0    59     1    24
  2.4232805005347089E+00 a      1417     0    60     1     1
  1.7070036580842604E-01 a      1418     0    60     1     2
  2.5884059807191981E+00 a      1419     0    60     1     3
 -3.7548040978367334E+00 a      1420     0    60     1     4
  8.4930810607928342E-01 a      1421     0    60     1     5
 -1.0132522634759720E+00 a      1422     0    60     1     6
 -4.0380559239846701E+00 a      1423     0    60     1     7
  1.4270661290540820E+00 a      1424     0    60     1     8
  3.4892553674514565E-01 a      1425     0    60     1     9
 -1.0747866219438595E+00 a      1426     0    60     1    10
 -2.2541447967049115E+00 a      1427     0    60     1    11
  2.2370777276551617E+00 a      1428     0    60     1    12
  3.3851243280933957E-01 a      1429     0    60     1    13
  2.4645802336643214E+00 a      1430     0    60     1    14
 -1.1952007535869187E+00 a      1431     0    60     1    15
  7.5895305901398169E-01 a      1432     0    60     1    16
 -1.4377495201196014E-01 a      1433     0    60     1    17
 -1.6400620088428424E+00 a      1434     0    60     1    18
 -2.1868758591543322E+00 a      1435     0    60     1    19
  6.6281791369690168E-01 a      1436     0    60     1    20
 -9.1657948458167815E-01 a      1437     0    60     1    21
  1.5175417283178845E-02 a      1438     0    60     1    22
 -2.4718677529337110E+00 a      1439     0    60     1    23
 -7.3735950772267389E-01 a      1440     0    60     1    24
 -5.6586838961808987E-02 a      1441     0    61     1     1
 -3.0661919367322693E-01 a      1442     0    61     1     2
 -4.6695477549196576E-02 a      1443     0    61     1     3
  7.4293532098066439E-02 a      1444     0    61     1     4
 -2.2026066041670600E-01 a      1445     0    61     1     5
 -2.3662638655579643E-01 a      1446     0    61     1     6
  4.5447376386281207E-01 a      1447     0    61     1     7
  2.3529612492054167E-01 a      1448     0    61     1     8
  3.3276182106092872E-01 a      1449     0    61     1     9
 -3.9339472374246454E-02 a      1450     0    61     1    10
  7.3400304681050771E-02 a      1451     0    61     1    11
 -1.5650968195821421E-01 a      1452     0    61     1    12
  7.9093531420442995E-02 a      1453     0    61     1    13
 -6.9761748902464782E-02 a      1454     0    61     1    14
  2.7542394631671691E-01 a      1455     0    61     1    15
  2.4977605003041414E-01 a      1456     0    61     1    16
 -2.7744840966423190E-01 a      1457     0    61     1    17
  5.5883574332189334E-01 a      1458     0    61     1    18
  6.5178160824285181E-02 a      1459     0    61     1    19
 -7.7847416772432593E-02 a      1460     0    61     1    20
 -3.0247772545007579E-01 a      1461     0    61     1    21
  4.0462544326793592E-01 a      1462     0    61     1    22
 -2.4037693032568491E-01 a      1463     0    61     1    23
 -3.1803794604584469E-02 a      1464     0    61     1    24
 -5.0985048880680351E-03 a      1465     0    62     1     1
  1.4191106220825391E+00 a      1466     0    62     1     2
  1.3928916966046816E+00 a      1467     0    62     1     3
  8.9085466861426799E-01 a      1468     0    62     1     4
  1.5763390833242268E+00 a      1469     0    62     1     5
 -1.1122054497006094E-01 a      1470     0    62     1     6
 -2.2246767820505933E+00 a      1471     0    62     1     7
 -5.2663060982025456E-01 a      1472     0    62     1     8
 -7.8699616293653546E-02 a      1473     0    62     1     9
  2.4709190761365140E-02 a      1474     0    62     1    10
  1.3626196353291778E-01 a      1475     0    62     1    11
 -7.6482622775191855E-01 a      1476     0    62     1    12
 -2.3124150591985124E-01 a      1477     0    62     1    13
  6.3211369355256419E-01 a      1478     0    62     1    14
 -6.2565252956338124E-01 a      1479     0    62     1    15
 -8.7841547331630920E-01 a      1480     0    62     1    16
  1.3033310072544644E+00 a      1481     0    62     1    17
 -1.2804455017922187E+00 a      1482     0    62     1    18
  9.5237765781019412E-01 a      1483     0    62     1    19
 -1.0487827788783208E+00 a      1484     0    62     1    20
  2.8201480574776505E-01 a      1485     0    62     1    21
 -3.0022283906371156E-01 a      1486     0    62     1    22
 -8.3317474212483345E-01 a      1487     0    62     1    23
  6.5552207651717476E-01 a      1488     0    62     1    24
 -1.5157461603824050E+00 a      1489     0    63     1     1
  7.1153251921407978E-01 a      1490     0    63     1     2
  6.2935071201024040E-01 a      1491     0    63     1     3
 -5.0461230396642978E-02 a      1492     0    63     1     4
  4.8913028210403148E-01 a      1493     0    63     1     5
 -1.4606764059465413E-01 a      1494     0    63     1     6
 -2.7516125737099534E-01 a      1495     0    63     1     7
  7.6441289182990602E-01 a      1496     0    63     1     8
 -4.7658619611080527E-01 a      1497     0    63     1     9
  4.4979632949904291E-01 a      1498     0    63     1    10
  3.4551739950601124E-01 a      1499     0    63     1    11
 -3.5185316018519153E-01 a      1500     0    63     1    12
 -6.5728393971877450E-02 a      1501     0    63     1    13
 -5.1924904791116588E-01 a      1502     0    63     1    14
 -3.2814187201740319E-01 a      1503     0    63     1    15
 -3.0811223008773458E-01 a      1504     0    63     1    16
  6.6191726379945204E-01 a      1505     0    63     1    17
  8.0476114125146145E-02 a      1506     0    63     1    18
 -1.5049500766947072E-01 a      1507     0    63     1    19
 -1.0626891332498265E+00 a      1508     0    63     1    20
 -5.3727276504187398E-02 a      1509     0    63     1    21
  1.6418514861181088E-01 a      1510     0    63     1    22
  1.5882419785532148E-01 a      1511     0    63     1    23
  5.5093848927423217E-01 a      1512     0    63     1    24
  6.1104233278792650E-02 a      1513     0    64     1     1
 -1.8860509623796939E-01 a      1514     0    64     1     2
  3.5917537813300804E-01 a      1515     0    64     1     3
  2.4373851830433144E-01 a      1516     0    64     1     4
  2.9269224134942484E-01 a      1517     0    64     1     5
 -1.9954068655712459E-01 a      1518     0    64     1     6
  1.0166286289832342E-01 a      1519     0    64     1     7
  2.6385144736156635E-01 a      1520     0    64     1     8
  2.6649000304110249E-01 a      1521     0    64     1     9
  1.0587916450603478E-01 a      1522     0    64     1    10
 -1.2719649525609719E-01 a      1523     0    64     1    11
 -4.2236111419727429E-01 a      1524     0    64     1    12
 -2.8679993015880695E-01 a      1525     0    64     1    13
  5.3269691161495408E-02 a      1526     0    64     1    14
  1.3409923671884402E-01 a      1527     0    64     1    15
 -4.6774324185110772E-01 a      1528     0    64     1    16
 -2.7289191455367307E-02 a      1529     0    64     1    17
 -5.8226095974810310E-01 a      1530     0    64     1    18
 -1.6955783461858187E-01 a      1531     0    64     1    19
 -2.7809871325811586E-01 a      1532     0    64     1    20
 -1.7332824804684091E-01 a      1533     0    64     1    21
 -2.4811398087793995E-01 a      1534     0    64     1    22
 -2.7108184040606331E-01 a      1535     0    64     1    23
  5.3489689599590429E-01 a      1536     0    64     1    24
 -4.4542548049122173E-02 a      1537     0    65     1     1
 -3.4194167693922434E-01 a      1538     0    65     1     2
 -1.8315783569464084E-01 a      1539     0    65     1     3
 -2.0409634415709477E-01 a      1540     0    65     1     4
  7.0799412481590063E-01 a      1541     0    65     1     5
  4.1767805303492173E-01 a      1542     0    65     1     6
 -8.7062123051584261E-01 a      1543     0    65     1     7
 -4.6152671611332508E-01 a      1544     0    65     1     8
  4.7153784220739750E-02 a      1545     0    65     1     9
 -5.1831012376416807E-01 a      1546     0    65     1    10
 -4.2474833815001112E-01 a      1547     0    65     1    11
  2.7003281161820769E-01 a      1548     0    65     1    12
 -5.4481568190508001E-01 a      1549     0    65     1    13
  1.3048053353067051E+00 a      1550     0    65     1    14
  1.8061907984900610E-01 a      1551     0    65     1    15
 -2.1023332028529215E-01 a      1552     0    65     1    16
  4.9180377499258349E-01 a      1553     0    65     1    17
  2.0659210254170041E-01 a      1554     0    65     1    18
 -9.2923976448000781E-02 a      1555     0    65     1    19
  1.7466527214055286E-02 a      1556     0    65     1    20
  7.4623871327323354E-01 a      1557     0    65     1    21
  1.0229850982678883E+00 a      1558     0    65     1    22
  1.2782433696552245E-01 a      1559     0    65     1    23
 -2.0076667844751858E-01 a      1560     0    65     1    24
 -1.2095207817797633E+00 a      1561     0    66     1     1
 -8.3265169955853602E-01 a      1562     0    66     1     2
 -1.2940388131553218E+00 a      1563     0    66     1     3
  3.5744449976837867E-01 a      1564     0    66     1     4
 -2.2671752912015641E+00 a      1565     0    66     1     5
  8.1781607913328802E-01 a      1566     0    66     1     6
  2.1831077971003925E+00 a      1567     0    66     1     7
  4.6100635269846074E-01 a      1568     0    66     1     8
  1.9883716103593367E+00 a      1569     0    66     1     9
 -3.9537266893999212E-01 a      1570     0    66     1    10
  6.3351735410926480E-01 a      1571     0    66     1    11
  3.7150690968170380E-01 a      1572     0    66     1    12
 -8.0510832982310032E-01 a      1573     0    66     1    13
 -1.2019128110643267E+00 a      1574     0    66     1    14
  4.3282814483483700E-01 a      1575     0    66     1    15
 -1.8053115128500996E-01 a      1576     0    66     1    16
  3.0756335596373304E-02 a      1577     0    66     1    17
  1.5566247968842195E+00 a      1578     0    66     1    18
 -3.6509751377240496E-01 a      1579     0    66     1    19
  1.2447628015138303E+00 a      1580     0    66     1    20
  8.3414053603904759E-01 a      1581     0    66     1    21
  1.3009636548883252E+00 a      1582     0    66     1    22
  9.4332799090776798E-01 a      1583     0    66     1    23
 -1.6420747855450022E+00 a      1584     0    66     1    24
  2.4973851074134118E-01 a      1585     0    67     1     1
  1.8001549916640600E-01 a      1586     0    67     1     2
 -9.2424537146367863E-02 a      1587     0    67     1     3
 -3.0366836392018026E-01 a      1588     0    67     1     4
 -1.2887631810689668E-01 a      1589     0    67     1     5
  1.3732390816630116E-01 a      1590     0    67     1     6
 -2.5466118990601050E-01 a      1591     0    67     1     7
  3.7288901394901425E-01 a      1592     0    67     1     8
  4.8402813836395175E-01 a      1593     0    67     1     9
 -8.8305365757684565E-02 a      1594     0    67     1    10
  5.1101293425691599E-02 a      1595     0    67     1    11
  4.7732895558287369E-01 a      1596     0    67     1    12
  3.6681347179675355E-01 a      1597     0    67     1    13
  2.6948559476229389E-01 a      1598     0    67     1    14
  6.8389930022165743E-02 a      1599     0    67     1    15
  7.5599307564282556E-02 a      1600     0    67     1    16
 -1.3036095534209177E-01 a      1601     0    67     1    17
  7.0574293586497361E-01 a      1602     0    67     1    18
 -1.1057569183906973E-01 a      1603     0    67     1    19
 -3.0238595259000306E-01 a      1604     0    67     1    20
  2.0648783347039436E-02 a      1605     0    67     1    21
  4.1010072778830314E-02 a      1606     0    67     1    22
 -9.2337643363135852E-02 a      1607     0    67     1    23
 -2.4644141503663258E-01 a      1608     0    67     1    24
 -1.6522618130328273E-01 a      1609     0    68     1     1
 -7.0883603125091166E-01 a      1610     0    68     1     2
 -1.0899350521805065E-01 a      1611     0    68     1     3
 -7.3814494259913030E-02 a      1612     0    68     1     4
  1.5616331503882616E-01 a      1613     0    68     1     5
  1.0847204370080735E-01 a      1614     0    68     1     6
  2.6252618305981270E-03 a      1615     0    68     1     7
 -5.5516462005418732E-01 a      1616     0    68     1     8
  3.1808301921659898E-01 a      1617     0    68     1     9
  9.0939577307254119E-02 a      1618     0    68     1    10
 -1.5383360168819130E-01 a      1619     0    68     1    11
 -4.5958455563045023E-02 a      1620     0    68     1    12
 -4.2670044996868811E-01 a      1621     0    68     1    13
  9.5942352845147613E-02 a      1622     0    68     1    14
 -3.3371548928959005E-01 a      1623     0    68     1    15
